10201 1 10201 

0.05695279291547656 
0.19862117714237398 
-0.11327433580062163 
-0.006565466588412006 
2.383329984025753 
4.702108755852646 
4.715897104472425 
2.411697099689722 
0.05040169554844948 
-0.029174775117317975 
0.009584489667556012 
2.106916019507124 
4.664565514794144 
4.574451861280159 
2.307673493076068 
-0.08829472127582566 
0.06064454061461383 
0.12409965158433017 
0.08744446614016971 
-0.14393522944109094 
0.0752763727211303 
0.12697012264009094 
-0.15761652617702893 
-0.026861992614042707 
-0.14814199150897345 
-0.08587319306509814 
-0.08174234010582429 
0.1657642676410151 
-0.009519893197836332 
-0.031056316232158737 
-0.16965096469759047 
0.07681198102053488 
0.19307890303574166 
0.03624799466409395 
0.1785984888032604 
0.09565505523432272 
0.09795299782646122 
-0.11547274213391141 
0.10424883539821822 
0.08669708868294573 
0.1716825660258482 
-0.1544143676577482 
0.04918436504960874 
-0.19564020338682664 
-0.17156616771385802 
-0.06389463494917252 
0.09205151287681435 
-0.17034451065629003 
-0.029539976950016117 
-0.1324781668087583 
0.040323210081887606 
0.09666615516663901 
-0.17006226053376428 
0.11507408975497574 
-0.1749523723415346 
-0.1270448566037811 
0.1411062025537712 
0.043845917940317614 
-0.02489983995143996 
0.01614042862349993 
-0.11699528798521755 
0.07906526348580678 
0.04033569081338406 
-0.15043841456901538 
0.10693180964531507 
-0.14011654434327747 
0.18811605560712996 
-0.1168242949900277 
0.0990779578964176 
0.03030838717381451 
-0.1847337935926121 
-0.148479363328258 
-0.07238868145126959 
0.19791914786858655 
0.09759014460702542 
-0.05121289164998319 
0.08482469141361404 
0.030442691622130896 
0.14165625576778823 
0.11174429204228015 
-0.14122038535110779 
0.0622262055738102 
0.008639624329274703 
0.13446660228027957 
0.05521172809082808 
-0.052908043407077526 
-0.052412980860396335 
-0.10548742735380463 
-0.060710241043929386 
-0.17898531455566188 
0.10554836535394901 
0.028409886806940954 
-0.021851488032654576 
-0.07248554574266755 
-0.025403148270502024 
-0.18499640050993166 
-0.061055620888445156 
-0.08938875293511805 
-0.10916256520217145 
0.008427853396291901 
0.13351005632313234 
0.1946406286046964 
0.018082389573807867 
-0.0918354846805153 
2.369821841224545 
2.3174914491747898 
4.369567073252549 
4.602472326676307 
2.4396607979009506 
-0.1391890191542729 
-0.06127989148703478 
-0.13276424820278704 
2.2721579248556414 
4.631934122241666 
2.122670730550641 
2.443076610891099 
-0.16186826893117545 
0.154526632334482 
0.15272093389820163 
-0.027758924822136904 
0.19191622169643718 
-0.1892296106843323 
-0.1120649799348687 
-0.15317507026699118 
-0.10425593458956112 
-0.044474944094566704 
-0.1912696846278585 
0.1287559881746108 
0.0985390381873314 
0.08670043312438813 
0.06131615254588618 
0.04404094746769599 
0.14619054894700617 
0.033493587221370635 
0.15918635540847637 
0.13726692415254244 
-0.12430858502685399 
-0.19131129523669915 
-0.06279328186094008 
0.08980960600835486 
0.11468836177228853 
0.08573300735289513 
-0.06605155530465462 
0.013433790482580366 
-0.09786874424171979 
0.0038724352868066136 
-0.14669490078529235 
-0.1655156337097668 
-0.06796483693876612 
-0.030916069625242792 
0.024008823174376692 
0.07956830613123989 
0.17119757081105907 
0.04549426178391061 
-0.0942603568543444 
-0.1681680144900172 
-0.08695879554852307 
-0.17857163829439618 
0.08309980294207714 
-0.1523593424623762 
-0.09641909055233935 
0.0861835645821536 
-0.15619670475715122 
0.006670580540216436 
-0.18815870554076808 
-0.1319211340666065 
0.15500880658485688 
0.014127016200568582 
-0.18412003044200184 
-0.03871825884450614 
0.03180235245653576 
0.18200469419425036 
0.03689913816724641 
0.008368076421612608 
0.13441410914621937 
-0.012989674201708462 
-0.022243174290217604 
0.10752391731821626 
0.13583210757759023 
-0.06403005423809272 
0.008516583873067335 
0.1777507798025253 
-0.030946577603757353 
-0.13475306495399236 
-0.10949670961732055 
0.14238959777706145 
-0.10670830379237804 
0.15889977124133398 
0.14166020258762463 
0.18073123314678546 
0.011038099333289197 
-0.10898844734079334 
-0.08016909946726192 
0.04943480728760044 
0.022950650991508642 
-0.01917329942274021 
0.036917824459583304 
0.18992820619584722 
-0.1748747206177626 
0.09503300824085947 
0.11569706490062615 
-0.18508189174201176 
-0.16662017593182826 
0.039730757796919175 
-0.03760258072754938 
2.2768987958453586 
2.1320692071831373 
4.695950589838134 
2.422288378832461 
-0.13896688540853522 
0.18755897063674043 
-0.039152625270347935 
2.279689423895711 
4.6184904973090175 
2.373012448403208 
2.2599913876485953 
2.0891221463232976 
-0.07894006172531483 
0.18147364565322888 
0.017347395260709275 
-0.19545513325719993 
0.16619428943127595 
-0.1129498532467661 
0.10208278688988409 
3.9890812991377755E-4 
0.10174807823465332 
-0.00548617721607178 
-0.15729834084706004 
0.16156252825314515 
0.06597160039573946 
0.02545925257967116 
0.003590328295615064 
0.17109810935254005 
-0.021756773285639186 
0.06948680716436956 
-0.03495733211891747 
0.15489620360589362 
0.06306608238742101 
0.010405116512452794 
-0.07220485816363911 
0.14262934802175037 
0.06687060103756953 
0.08005686003075385 
0.033835776808852275 
-0.0014039485768358728 
0.1322348069194268 
0.03025871006871403 
-0.03873711221012327 
-0.10482776549483881 
0.12108712998145921 
0.04342415147619022 
0.10917250854074717 
-0.18708431556102775 
0.1679099732950004 
-0.004983770759827394 
0.00925676066313233 
-0.17480316728907952 
-0.004084876510795782 
0.036055372971903005 
-0.11600161888518352 
0.06155772588833436 
0.04361541168898456 
-0.11851468851578734 
0.11704973481699399 
-0.1571711516845462 
0.12616991289351032 
-0.12972129362798035 
0.009587866729938888 
-0.05763826898298349 
-0.00466657096546047 
-0.19425824006879583 
-0.03285974202831979 
-0.14843654775993476 
-0.036206127173778885 
0.18955548998279653 
0.19457890149594614 
0.11424703520250179 
-0.07586574533679236 
-0.06933064544744752 
0.07268374230081048 
-0.1568597639530851 
0.019609475897798795 
0.14024114430444373 
0.04787939798736471 
-0.15677706330521166 
-0.0866192982355988 
0.016395033500867184 
0.08745229967941398 
-0.05960819066406123 
0.05480371681598284 
0.0776479155833597 
-0.06424153578882527 
-0.049721173868460145 
-0.044179492751571736 
0.12143224192369728 
0.152635401599497 
0.020878497070215024 
0.06745649444255408 
-0.13577822969494535 
0.023434539370547153 
-0.15603337982774806 
0.1858789511779716 
0.06234460927270036 
0.1007938119708714 
-0.14587830242470942 
0.019425470251673793 
2.087954781555084 
2.441781849377967 
4.361105358100131 
2.0827726554347077 
0.13974281499457047 
-0.1627206965523941 
-0.014751590196080716 
2.2192085002968724 
4.407302207251561 
2.127615771626473 
2.184408449172449 
-0.15240299351748476 
0.13842680660582318 
-0.08056722330106383 
0.09785926113384397 
-0.1860642772951401 
0.17257726973351567 
0.19219032789213902 
-0.11935255579137283 
0.026180404922918926 
0.10948617341335176 
-0.14612687064777852 
0.088932863174923 
0.11228495713216291 
0.17379624236790536 
-0.19610031473856987 
0.19704294792603888 
0.01221650285903042 
0.14217086074447693 
0.13218947316515933 
-0.011421384743255464 
0.02283113091107425 
-0.0880150060530192 
0.0554961511368795 
0.0594964769674467 
-0.11321172482365763 
0.03334506073095994 
0.12534918026529634 
0.15745077413233216 
-0.08605605767334064 
-0.0031184493811931835 
-0.029542251426124683 
0.06331561963334048 
-0.18688437215854883 
-0.1376635205881378 
0.05713422886405983 
0.09463606156093007 
-0.035934743745301784 
-0.13195441527616816 
0.1344973159171851 
0.14708450911563065 
0.0739993617818493 
0.17899368804973476 
0.17691837398683258 
-0.11117252368637334 
-0.060160942570774145 
0.11119944152349909 
0.14437728087726115 
-0.11596459233200851 
-0.023034745902221848 
-0.18723604189941853 
-0.04790233570975638 
0.045596704454326176 
0.07709787284733222 
-0.11300405030057226 
-0.12596599993510943 
-0.09657490005235339 
-0.17757911093650547 
-0.1893959059830173 
-0.1995132618790028 
-0.07642235755201576 
-0.08998191210262396 
-0.169974588661681 
0.12832417536960944 
0.12472872407439384 
-0.16986234171130118 
0.11153677955388147 
-0.017006523488174496 
-0.08762636741535967 
-0.006243221017789041 
0.07587443086829504 
-0.04529416378444401 
0.1874634260637411 
0.01937050587306577 
0.06566496665757998 
0.1768844313677273 
0.18500070771420984 
-0.03411756344036965 
-0.025951060081193855 
-0.016833597939584666 
-0.040545560642138184 
-0.062072254462574084 
0.005456706378390963 
0.14995366316248865 
0.15767959081194904 
0.09191213878675286 
0.14457400902447243 
0.0647102813885766 
0.10635603173565217 
0.03550374908195725 
-0.022886956725309243 
2.3262158554021504 
2.3600973563055963 
4.4808849334754095 
2.306391526329863 
-0.021281386048647072 
0.0052398647011867305 
0.17658667520262594 
2.1101399946057904 
4.711893499111465 
2.2270997168783326 
2.2022718805627832 
-0.15679201878321647 
0.07949348435540071 
-0.014936843032091807 
0.08825397543135882 
-0.15922310529649586 
-0.005829430091865984 
0.028946908937786342 
0.01033676586348159 
0.14108564663307027 
0.052299312099850837 
0.17682933124829625 
-0.16183190640953754 
0.07357441096740358 
-0.07481429415476987 
0.08862517455016156 
0.1761379537877134 
-0.10521172486818885 
0.04921370742026973 
-0.04374652661852471 
0.13808480048377975 
0.12813332339587313 
0.0507759565135254 
-0.08097368137138812 
0.13328528548361934 
0.0014953113778131688 
0.17510047121787387 
0.061745184660843 
-0.03181317838608991 
-0.06038200633119031 
-0.1505945840265071 
0.19712840844340818 
0.19060428919633549 
0.02321608151972368 
-0.005982843417900341 
-0.029478614127939562 
-0.08244494638339583 
0.1443761875812244 
-0.05920991879017398 
-0.17633049552550506 
0.06485985191718596 
-0.13212305343966416 
-0.17363035333246365 
0.015661364820959284 
0.1360900480632864 
-0.049362011634175834 
-0.10145682524829978 
-0.1770212974271544 
-0.0696050169484396 
2.146893748385006 
0.10712638995074159 
-0.17308314466041105 
-0.1068038135271999 
-0.16820225610906236 
-0.15346371816830195 
0.045468269856968446 
0.16068849369628618 
0.07488191004939326 
-0.02459538648250531 
-0.021910611113988315 
-0.16145899833408742 
0.05009152764050023 
0.05928885593712613 
-0.19440059769247664 
-0.09285583934608713 
-0.15420259487063476 
-0.0342588237323643 
-0.17621238566113173 
0.16020225705830532 
0.11848252930782116 
0.0866985169673492 
0.08813415139451997 
-0.039576221091561836 
0.18251984078209138 
0.17136048699617168 
-0.19162306858954886 
-0.06448483548022019 
0.008567096308658817 
-0.1765753428921496 
-0.1445140506476081 
-0.16036329552755207 
-0.0215086601195896 
0.1497519137994513 
-0.17006597698928513 
-0.13006765654529065 
0.012313654290696363 
-0.15676210513630018 
-0.11101871658234846 
-0.04530164608492368 
-0.08725684203407687 
0.14086938096622498 
2.41232743861733 
2.1895175593512235 
4.406064397153078 
2.2889564724968605 
0.09684503507115483 
0.18717006280519832 
-0.011717432332078254 
2.338574064568677 
2.4463849129691484 
2.4605341103320986 
-0.15970830517127677 
-0.05387829913528344 
-0.07827814719448788 
-0.06510697730099854 
0.08134403478584823 
0.0934725120330605 
-0.032719367563051854 
0.01576089468849573 
-0.18411672269314472 
-0.002793911648206887 
-0.01945371394383394 
-0.03427146500642411 
0.15931715178589417 
0.19394351318280673 
0.16663433436676062 
0.19852816930280637 
0.033166025473157446 
-0.08413513920196328 
-0.03042603761006396 
0.12571732213729464 
0.12516383767572153 
-0.06513518216726852 
-0.07786533471421042 
-0.08021463531281842 
0.1430835799599613 
-0.017654918997235758 
-0.03261358659997135 
-0.15302984461975055 
0.14613727298814894 
0.10515355759109529 
0.011819979032347078 
-0.09216582709684107 
0.055378661891880454 
-0.13611605538198973 
-0.03131792123940996 
0.10060257829853347 
0.02461511758080323 
-0.012047883678685645 
-0.08849151754314484 
-0.03828126799585854 
0.1959130381114496 
-0.02743109105571176 
0.1816658644119163 
-0.05997406538831315 
-0.13114052895811762 
0.13593214824464506 
-0.019958205171340115 
-0.1745628843721704 
2.35062922884321 
2.1209723381225953 
-0.0781500815601509 
0.07990746462593679 
0.02151609658694037 
-0.17827929824236777 
0.04484598426189795 
0.10797805936283356 
-0.18819406132721792 
-0.19628724469099879 
-0.16492201428068765 
0.056111723526031 
-0.09633461686199839 
0.033760872432887445 
0.17062238933124863 
0.04449532686893684 
0.010900742293445453 
0.10173610457555943 
-0.11741410538307778 
0.011936082868063191 
-0.06776237690567269 
0.18791952341070667 
-0.10601908299175361 
0.19393232287639123 
0.18499102603526074 
0.16882814518330808 
0.020910694774936234 
-0.1440474702469277 
-0.03139505362430875 
0.025154660562867776 
-0.09317184212845851 
-0.1315906588574493 
0.04542708586060082 
-0.11852829748127221 
-0.19053904543200884 
-0.16323147198595578 
-0.1438373538002049 
-0.13444524672315922 
-0.12867708266541555 
-0.010313936568077386 
-0.01997089029965743 
-0.004119255592072102 
0.07856061506537132 
2.1503279029228235 
2.375020739822363 
2.359371329308011 
0.14921160219178592 
0.16801176614328533 
0.18880072653450103 
0.024683770938452587 
4.431396292875115 
2.2032125650507877 
2.34976681922367 
0.013196942481895318 
0.12835602844407273 
0.09867560925113772 
0.0906631233181987 
-0.016739436965708704 
0.12835977932952458 
0.06157825602108852 
-0.04756687492887682 
0.03808187650201175 
-0.0707339192358046 
-0.1284302050090903 
0.10902211876260148 
0.1260447646616647 
-0.06043988774321113 
-0.0532838758519997 
-0.0258401384989857 
-0.17089932005797853 
-0.025550237259382713 
-0.1109222466017541 
0.04398077520543375 
0.09310474523095519 
-0.023285257165391482 
-0.07744725918596465 
-0.07663286299622217 
-0.1925175205141293 
-0.1966068631943177 
-0.012399860848442357 
-0.06099002367627718 
0.18731532138048296 
0.05883524899946824 
-0.19527849958605367 
0.09256873147316813 
0.11913666089565161 
0.015982624441550464 
-0.1419690511799986 
-0.1501104212545244 
0.002432787687727117 
0.19155827062241831 
-0.14780251544760517 
0.06731955050027172 
0.15204675377918758 
0.12718223411493856 
0.16049640885562771 
-0.17626745554868817 
0.12238576694835357 
-0.022745130880522935 
-0.09134020278834698 
0.05696091165072836 
2.442844977898582 
2.2860867438260173 
-0.17133101186465904 
-0.10409546612722949 
-0.08790565553019235 
-0.05188651154268831 
0.0685854403493078 
0.03466765563041366 
-0.049280290755864625 
-0.049996905553039955 
-0.04103086527253147 
0.012651554332945347 
0.12013010728842832 
0.055009017204952104 
-0.0866129557564705 
0.04460945719311288 
0.14544916803452773 
-0.12714662259136628 
-0.02003278712190154 
-0.11275185924406723 
-0.08647057539314505 
-0.15502945186016032 
-0.13709287993901376 
-0.06596109713130635 
-0.08092750624265316 
-0.070089563250545 
-0.10270185249521285 
0.09747846957565381 
0.06507256949905704 
0.16006023671130015 
-0.11241882421294336 
0.0681188683176161 
-0.047688020029899164 
-0.077519959027961 
0.10940121344977644 
-0.1677369473562297 
0.11334118805299681 
-0.10952421963606206 
0.1265823778945836 
-0.11469840748294935 
0.1295782893094335 
-0.131138717826091 
-0.010602442753409103 
2.265552010082369 
2.0861751650017544 
2.08499767301123 
0.057260061147801855 
0.051072062050711686 
0.06503133427882063 
2.226866558494554 
2.398726570113772 
2.3434457751544358 
0.1156811701445512 
0.05943337982116198 
0.16118475401652171 
0.06786811760883948 
-0.06029932092947554 
-0.13175524964449925 
0.03569318003781924 
0.07667639768490875 
0.1415861780328176 
-0.1876481342087055 
0.132112108523936 
0.09898983934602551 
0.019978075135120538 
-0.03569893356090939 
-0.009280408023584041 
0.16194117821819642 
0.06244706866590821 
0.020119512283373664 
0.17117827981361095 
-0.13568931421180958 
0.1277945241648426 
0.10472433206070786 
-0.1571875311849217 
-0.16009864131197757 
0.11583026892618314 
-0.0951486982877397 
0.014639290290408058 
-0.034397131569395556 
0.032794442461040546 
-0.006763916328095421 
0.053359510944293975 
-0.018021251460007826 
-0.16870702866595144 
-0.1683909685814892 
0.039466783549982176 
-0.10071047685500623 
-0.16318063494452 
-0.17360733497530806 
-0.023913012943503315 
0.12944234482817984 
-0.031361143653010515 
-0.04018079924209764 
0.09211275957601528 
-0.08556387820539597 
-0.07898626326631053 
0.1305134406520425 
0.07065115244519232 
0.11444905004591754 
2.461760717084246 
2.0817232126196874 
2.456064348079124 
-0.026206377409613013 
0.12586527899403083 
0.16923883384008975 
0.044867309106645326 
-0.09945759018447649 
-0.003777796276654588 
-0.011488008677946748 
0.11134086441827284 
-0.0242940990651542 
-0.06550758845464197 
0.004530808697127631 
-0.17911088523049368 
0.0504218712053105 
0.11737211564419692 
0.17343838926741106 
-0.09227347411101974 
-0.10530605561445601 
-0.07050874388004122 
0.19392815515419032 
-0.07934949491116941 
0.1287949924067583 
0.1285022700892094 
0.04391858789098632 
0.03624975917164369 
0.19852927897900657 
0.09365471610580517 
0.0068692054430106175 
-0.0341171132061831 
0.04812523865064161 
0.060162810211590034 
-0.1637638131670327 
-0.19497668912815783 
0.19960915525050282 
-0.17512389684960425 
-0.057105548845269166 
0.0880200226501287 
-0.13491227345034384 
-0.04553325013725279 
0.1891808422013243 
-0.1117235507436447 
0.09844605357763886 
2.105858461859972 
4.575158697700759 
2.4136116554249822 
0.0355454951219214 
0.17685638778995044 
-0.1984059035315219 
2.356360953159924 
2.4473924623448915 
2.0770904011499107 
-0.08225515587313406 
0.1283982069379736 
-0.16414120020664658 
-0.1946644275851615 
-0.06367359703464656 
-0.03042566220685633 
-0.09974671543017083 
0.16772153042000804 
-0.047446668515709556 
0.09183989645432139 
0.15833989140422966 
0.1174802458767486 
0.10341770604277256 
0.15759371013694184 
0.18207924872640396 
0.07032935511631871 
-0.023022960701244793 
-0.06338882431376472 
0.18866580930049248 
-0.1044601177106443 
0.15531417787884005 
0.0690313307483395 
0.17615219886553984 
0.12989019968938226 
-0.023223078576427414 
0.009174730332232622 
-0.026938298800937094 
0.16994217438878984 
0.12693367863829708 
0.09722576906404745 
0.04677645603458336 
-0.1984127334466367 
-0.1459908772021401 
-0.12973369726947126 
0.1830671065205109 
0.12151356862055884 
0.05339219227532399 
-0.1488996037188345 
0.07920768606205236 
0.16344759471068754 
-0.022863177753712438 
-0.05723651947492922 
0.08569780826555257 
-0.03727185708563999 
0.0982040222427239 
-0.19143813325993855 
0.18669216398266164 
2.4462809359083453 
2.165830436970274 
2.3022507231934677 
0.02681563350431046 
-0.08170274267912991 
-0.17523196185801526 
-0.17255740084512752 
-0.027879713553150248 
0.18876390306134927 
-0.09889139267122143 
0.013432913345956699 
0.03551881053503658 
0.12541257010726098 
-0.05604735865190488 
0.05929968078766501 
0.002106869390991639 
0.16446300453851675 
-0.17988670668687912 
0.08419077556196963 
-0.14263471039667405 
-0.02604517137609466 
-0.029408232534298806 
-0.08861729740108731 
-0.14868934351422536 
0.19030737328689806 
-0.08247013287071976 
0.07178931483985923 
-0.17575839754403366 
-0.09301896948074853 
0.12170457874931989 
0.0020830587389215616 
0.17480562034240804 
0.1476253643562312 
0.09726642704432165 
0.19735302242048336 
0.06868975404718569 
0.0018023795164924528 
-0.11074870154535468 
0.15517720947216446 
0.16631652669762564 
-0.09042353870847225 
0.08072372919289617 
0.18743970407756255 
0.09050451007495408 
0.15196555682320356 
2.090546247533913 
4.71879355646311 
-0.1398687905532987 
-0.06254858312723527 
0.14662863097155582 
0.1301855795647166 
2.2537224756639036 
2.2407584078887233 
-0.06301965046342778 
-0.12990504104373513 
0.03450217873728198 
-0.15415554485474742 
0.11493493648065323 
0.17102553119922687 
-0.07034516121695411 
-0.16560764436719336 
-0.06965348515909686 
0.00395108325206342 
0.17434991164559294 
-0.1929899821861085 
-0.04239590476419211 
-0.15669887490081802 
-0.1297425649794426 
0.1916546925497759 
-0.04122118529292923 
0.12931015062906576 
-0.1489195493719472 
0.1647166051297544 
-0.08092166200874824 
-0.0709311964168712 
0.1588489976399935 
-0.050457923010265054 
0.18591953545274842 
-0.059814463882565255 
0.17732971589426544 
-0.07208980267756002 
0.12925859658890743 
-0.15457927974295954 
0.10679163069247127 
0.0659889400268156 
0.08964569645683235 
-0.14639204016901639 
0.0944471479537295 
0.11449973220082849 
0.19179993770689258 
0.05163085769653636 
-0.17253489211067483 
0.16352259281479503 
-0.12467224499930585 
0.14417632544561687 
-0.04946897610264417 
0.015577121995451249 
0.13053675907363943 
-0.12756124082175002 
0.08750778692737515 
2.3566263142901853 
2.2964331346884057 
4.620519782402163 
2.397136697444033 
0.1503843953336998 
0.17685045119923193 
0.03278351734851187 
0.17282806884212637 
0.020654191935853078 
-0.0768733667991842 
-0.19533718762144875 
0.1703098963656839 
0.1823403848362083 
0.18079188345874397 
0.09930040790765554 
-0.12280120860146636 
0.09909087098963143 
0.16816122630736036 
-0.18743229024321684 
-0.00976150078020202 
0.1664394836407579 
-0.07122868672894819 
-0.07610723946583349 
-0.1787528145623433 
0.10866740924949697 
0.1420701950173731 
0.15956393033808064 
-0.02346623963302069 
-0.0016650401126206693 
0.1506281815160319 
-0.11530847036721213 
0.009652881536502955 
0.0234471376003825 
0.031274587195877446 
0.05757983074663331 
0.19775505457567127 
0.035419367372161725 
0.09889323498131042 
0.019714969376171038 
-0.16563373490639355 
0.18171318801297504 
-0.1445623147337686 
0.19652746125308745 
0.1365096403554858 
-0.039785485418644656 
0.0830555969337825 
2.1188497597415936 
2.301968658603408 
0.028130436424596728 
0.12903913595384597 
-0.16052645739848234 
0.12010032484353722 
2.1266921283283886 
2.1119558127012525 
-0.02269444843296542 
8.261749052933531E-4 
0.04118574183497831 
0.089672758445559 
0.03629188668825112 
0.10422487413742226 
-0.032322637070156535 
0.13495707279550906 
-0.11766360441730561 
-0.0076691496541526905 
-0.033780974960160526 
-0.074119469384581 
0.0011097661449674112 
-0.032460283218154584 
0.11012864185568755 
-0.158811949220492 
-0.032259813368108764 
0.1732399992647164 
0.17435770807344964 
-0.06266490647479195 
0.19886069764536524 
-0.025099659405608182 
-0.19219523549027479 
0.13886834609036158 
0.09224991554551731 
-0.12227222010508872 
-0.13233309420875983 
0.06018351524926874 
0.18625624233548405 
0.16709101100371881 
-0.07756669880008267 
-0.14166949485484426 
0.06064849733623501 
0.05048058630297725 
-0.04917202887008787 
0.09036458568662359 
0.15248918985930626 
-0.06514381573642344 
-0.1527881357118287 
0.18507023051214871 
0.07507985122440797 
-0.00919092009696798 
0.0896578719028438 
-0.16228769109585384 
0.004980672755317078 
-0.06495372946198016 
2.3054236732154445 
2.4681062653198547 
4.582177452537421 
0.005280676871165291 
-0.023218127481742623 
0.14365799878422209 
-0.05451619282647027 
-0.1933099662055131 
0.13201103784866552 
0.023993396487674568 
-0.07299776474156552 
0.07668511888841106 
0.12477201933957488 
0.19534351041020875 
0.181856201052628 
0.04480635800591193 
-0.11509991682800358 
0.09578207060515981 
-0.13793602272349023 
-0.04285450612981706 
0.007064001423085442 
-0.13104188868920366 
-0.07918605939210464 
0.0897677172624971 
0.095587788049318 
-0.11106434858537671 
-0.014864004996060831 
0.19318725960457755 
-0.13303526067902505 
-0.06488849586504714 
-0.11302047558043055 
-0.009972108460321844 
0.19010529257224124 
0.027819259441569683 
0.12277833079979644 
0.09057782471206816 
-0.18493659220470904 
-0.14094458750864344 
-0.08646376025676705 
-0.10397349883874299 
-0.12581088735280227 
0.1390917588520103 
-0.09807967086598413 
-0.07325087638006411 
-0.06464179957258973 
-0.17143360052369327 
0.04980147715397004 
2.4133913328263423 
0.04513299805583654 
0.13697378069405652 
-0.010864404269880501 
0.018615647576760486 
2.2907200267348693 
2.4126108392321624 
0.1310314692052038 
-0.018909203550431825 
-0.16967560644736943 
-0.07710433148678608 
0.052304695647450605 
0.15360054423402153 
0.05584538884409118 
-0.008555594254779975 
0.055770047561605696 
-0.09117012784130796 
-0.0772220064765127 
0.18233770964650592 
-0.060022017148429585 
0.1916822031166472 
-0.12550821765178402 
0.16743936781915408 
-0.08394623578392135 
-0.12929958192054172 
0.08397878089137545 
-0.138324649223317 
-0.12624877646750612 
-0.05372615883810164 
0.10050659647431048 
-0.0713492353727288 
0.02578599807229537 
0.07370008604358014 
-0.015652771452607933 
0.00784171038769882 
-0.05103370454916975 
0.15174860399608908 
-0.19623642687255335 
-0.04126464157037088 
0.19259249085045554 
0.08245123409268174 
-0.14836097878927204 
0.15362004795968948 
0.13904968815638002 
0.025422694148297564 
-0.01516158049322236 
-0.15044485812437045 
0.07847087101286815 
-0.04990728437763492 
-0.10240811043077942 
-0.06862143487048519 
0.0988011191418085 
-0.1681910564770929 
0.1108963082926615 
2.1117466255492148 
2.4648551659588835 
2.31315707052166 
-0.0068680645344222635 
-0.1019399056530304 
0.16194491030967878 
0.15695349332197395 
-0.17720473554318344 
-0.1464004234169648 
-0.02475237260372376 
-0.0839147406281188 
-0.037547915315554736 
0.054239202244567186 
-0.1717434916391965 
0.10066786462881 
0.033717783932978806 
0.13753864926955195 
-0.12278880299057696 
-0.10032764183647336 
0.1662751742553885 
-0.15994084105712464 
0.13557673089732308 
-0.10553083072948569 
0.13964336466165944 
-0.013781169919511477 
0.14823364156525726 
-0.0495447146732273 
0.14461393829793007 
-0.10913874419417598 
0.012026190393810421 
-0.04695931841403733 
0.16197428630577765 
-0.1681512662484099 
-0.18842266008901554 
0.02965644909344131 
-0.01065928179143652 
-0.06468093110065695 
0.0037324271658617236 
0.06702555946000877 
-0.05737273747364721 
0.16507335201960277 
-0.08905367710832178 
-0.036985047087332024 
0.016879193998441094 
0.11889005828055133 
0.07338224223249307 
2.4152745809492346 
2.282211983576648 
2.2786976565023016 
-0.038556615994160104 
0.041478237274321594 
0.01133066753866227 
2.20570567454411 
2.1352203055727337 
0.012200248414708348 
0.04944883798654637 
0.17659465204213048 
-0.14817884706492684 
0.12025793179836025 
-0.19165258792118556 
-0.15044779951097065 
-0.07035369715630321 
-0.12546934994676967 
0.15861911624312253 
-0.14290868749927788 
-0.056660456877015986 
-0.12593755705462034 
-0.1099343424612867 
-0.006764394333822837 
0.10920402293133707 
-0.04552606767938214 
-0.12544120919903484 
-0.05715675309009824 
-0.1894577516710334 
0.16631890552162515 
-0.03858945585517368 
0.01834158432223587 
0.17047325230716054 
-0.09209237483252308 
-0.07369015741721818 
-0.14918758424179904 
0.16926461290525185 
-0.009803259788341012 
-0.021914251978222637 
-0.1109953497706464 
-0.11202129325079452 
-0.07107578433417716 
-0.1267393368996998 
-0.14132095697574132 
-0.1628145416643199 
-0.060754426538058626 
0.19656008448832712 
-0.10398208244545196 
-0.13105262131694584 
-0.04929416130515435 
0.03624842712705903 
-0.10733898976955114 
0.07223536065781122 
0.06545991394036171 
0.11636376584613595 
2.1465650445105573 
2.386695853811812 
2.120540634627993 
-0.1563726842342178 
0.19924422884079201 
-0.0658261072385069 
0.08258304685198509 
-0.11499331800441898 
0.11991779678284342 
-0.1745088869243889 
0.06463288602813072 
0.012615000712915991 
-0.16636329029902625 
0.01464828148201719 
-0.02753731959303271 
-0.16416877132490854 
0.14839275585227102 
0.008678278936262412 
0.12700039327772544 
0.0862299689060318 
0.19775875168518664 
-0.018953979696926387 
-0.04772910785236184 
-0.07088771290338217 
0.04557817285597454 
-0.1554137892966649 
-0.07052989791998354 
0.14613221458573172 
0.1605817328092714 
-0.12054605578795444 
0.06040081704350614 
0.1667166860586063 
-0.07455520918829373 
0.14632508111232584 
-0.1786141164849594 
0.021679678282199244 
0.1936281435318279 
0.04203621513565689 
0.11885256843677178 
-0.04936521690835205 
0.01867248191668111 
-0.15569260116259415 
0.15036018856429872 
-0.18448695977569718 
-0.1455549256983627 
0.14414378708339015 
0.1299209499761611 
2.326005224863504 
2.2314739293033354 
-0.1210345733678905 
0.1540423429543481 
0.0659813579499875 
-0.1491359972909094 
2.3267764272441225 
0.06499740491818234 
0.18678508695338086 
-0.03274091855216277 
0.19866864956059316 
-0.18959271327511448 
-0.03327903809923333 
0.018859131042984867 
0.037549467441352874 
0.10329874603245531 
-0.00914120798609544 
-0.12956643241536658 
0.058154104590752154 
-0.045622655773719295 
0.16370025077089373 
-0.1531831277488951 
-0.08804126921346285 
0.07833509162859209 
-0.10590318204709077 
0.11434236385206498 
-0.08721822365677717 
0.06858956405792027 
-0.049957256230387215 
-0.1209710652184866 
0.17945464926046878 
0.18992963736801338 
-0.16552180911751657 
0.07697245848854556 
0.10392779576175104 
0.05612096133258215 
-0.021059019096879628 
0.031221637085521087 
0.10043947570053419 
-0.06039738512762849 
0.06010838211731606 
0.01074624656125761 
0.030827709083831062 
0.0029843478095804288 
0.11497372082183621 
0.1509337323860217 
-0.09698068509839919 
-0.052867948109194235 
-0.13639465007308438 
0.18137841076442401 
0.004182568778257817 
0.03820714486677662 
0.1441390183989189 
2.125864079795638 
2.2272923196282757 
2.076412384380708 
-0.1771423516472942 
0.08830021450971431 
0.07684012872965729 
0.09930570094142499 
-0.037084472722503786 
-0.019158809282535078 
-0.1399833899525983 
0.036263140542179384 
0.01846721729342854 
-0.05053637127155794 
-0.15313621493195476 
-0.08903241112378152 
-0.033335298060255564 
0.07270819427438446 
0.08145137036100675 
-0.10951889020553868 
-0.0018109536405776228 
-0.06666212377213207 
0.12830168499439426 
-0.015245496851833712 
0.05768631904109367 
0.05513405626151763 
0.1088821353894075 
0.07414698057304858 
-0.0413194020996582 
-0.07908913431478433 
-0.11503144738693992 
0.1476380446620384 
0.19323974520341658 
-0.09303475525903813 
-0.0570557966351439 
-0.0651995681770956 
-0.08512681531288219 
-0.11949202902827212 
-0.07744731309539837 
-0.19281890048725608 
-0.10615639355117522 
0.0804492844233039 
-0.11442421658557352 
-0.02018468259987588 
0.12727797605623575 
-0.16175926184103845 
0.13436066594868468 
-0.13882281417488668 
-0.16783377611694617 
2.1646116683819607 
0.06707380432870214 
-0.1200522661807531 
0.15753902767269107 
0.12689792523570298 
-0.00398772488451965 
-0.14043967095592996 
-0.07718058581435244 
0.03412974875288732 
0.057256033863489375 
-0.18343922350316177 
0.02254591633249947 
-0.10390851032974445 
0.10439806518526229 
0.12639793813132771 
0.03336808210080039 
0.192996950490064 
-0.19395775689513783 
-0.0696613098493491 
-0.18258153265167745 
-0.03353012777793124 
-0.14378784949818663 
-0.15022081358281492 
-0.06313187698020203 
0.1849883542678189 
0.05876677640870137 
-0.07069740401708624 
-0.12232404373647686 
-0.18918872739626857 
0.061372727625151 
-0.15258862149574887 
0.02624516715704242 
0.16454158832939342 
0.09153507965086771 
-0.1860593586220287 
0.050903495955631206 
0.14480920281242077 
0.18664271895315815 
0.015736881477478704 
0.010826656588513117 
0.08438471282505144 
-0.08806334839270016 
-0.022735176711834837 
-0.05177206574987789 
-0.08963702501118878 
0.024763179729937385 
-0.029616984609395575 
0.11533969426744961 
-0.17511615799908134 
0.17042695629901533 
-0.16239294016295364 
0.14591581515317803 
2.4044941924120464 
2.3547204470837304 
2.156066067377557 
-0.19831273344529932 
-0.07238566416126271 
-0.07230918821474619 
-0.13803291980134064 
0.007405940420824264 
0.044541434241157946 
-0.10370062388193046 
-0.15839832598407033 
-0.06618474248310019 
0.16596823365075836 
0.12329965316882624 
-0.06227549239357355 
-0.10391103165594635 
0.12892649371956838 
-0.06928407315342625 
0.08431485454564058 
0.005982782024105543 
0.08561023407531548 
-0.10902469847403529 
-0.04947224974614284 
0.04914663117081494 
0.11550329118459118 
0.12184018103125654 
-0.0891391595009138 
0.1547483661686604 
0.1475948373528902 
0.16577265738636393 
0.1261721136836308 
0.0827629633409937 
-0.038896707842193734 
0.09412376765304314 
0.18307056219351403 
0.17498437984738396 
-0.19304287579855034 
-0.07150617171381321 
-0.005720283355278882 
-9.798452621833376E-4 
0.028609231033724924 
-0.11393671760360387 
0.18015250952905515 
-0.13976760393976587 
0.15958967690227532 
0.13264623716971125 
0.13159357931062904 
0.06479141815157702 
-0.06347028936071308 
0.06667258080595095 
-0.0027763251718270765 
-0.1122882106196474 
0.09021807817204247 
0.059257110893797704 
0.1426985820674485 
-0.16705649993972918 
0.06357878717103044 
-0.1600323452879108 
0.19767352070289151 
0.1682941557614293 
0.1542876394637503 
0.1448569999189831 
0.0359815952194904 
-0.12383882078044076 
0.1910728948743674 
-0.1672231906805787 
0.1271734886193056 
-0.11824388650342264 
0.1265736661222755 
-0.17205533414349605 
-0.1473566086055448 
-0.09629360889265533 
-0.13404236082701815 
-0.03881151566699578 
-0.0028555777321565556 
-0.08237716794369301 
-0.15067208002215376 
-0.1407540388670365 
0.10657484663190242 
-0.1685755729764983 
-0.032723017513977826 
0.0709492726034936 
-0.05450537295519084 
0.14191500657209793 
-0.08722634465144928 
-0.17892087017085428 
0.09290985418237796 
0.07530965217495705 
-0.1411026515391275 
-0.05287536834210024 
0.18244080564322518 
0.010111526345495087 
7.618622130861896E-4 
0.10113909733027787 
0.02306750170443056 
-0.1610566445405681 
-0.18870092948848952 
0.18833483861691536 
0.02922461788059119 
-0.053359483593791474 
2.3047097143818354 
2.336321728175642 
2.114404670992673 
2.135424725609438 
0.0752477074100038 
-0.05912145620543177 
0.15753716734645717 
-0.18878875214158258 
0.14647344978449905 
-0.12025955444002352 
0.1001311446765007 
-0.17805273890523843 
0.09015780977346188 
-0.011943362606059521 
0.037464005045119014 
0.07229926523298102 
0.01944910294062524 
-0.08727154681972094 
-0.10621928814608986 
0.19381394127631218 
-0.1900385156397066 
0.19000871604936637 
-0.09823677618253318 
-0.1919025737396839 
-0.18008784790463978 
0.18633763923293778 
-0.09475072408937524 
-0.15259781167515785 
0.02929440260296151 
-0.030625228758350553 
-0.1657110792070896 
0.1552452171828057 
-0.13779011776096262 
-0.0015518996883061575 
0.12701386744357224 
0.1431925848496613 
-0.10718830136124656 
-0.1619053722644751 
-0.10962719270856379 
-0.0743511010494177 
-0.16586164531995962 
-0.02468001541778203 
0.071864280477207 
0.16269304996588785 
-0.12955382621212755 
0.06065747690430723 
0.05697622256509399 
-0.18829503039092682 
0.11747647074204143 
0.09506036178279087 
0.11212009409767465 
0.12173110125598752 
0.1814214643368578 
-0.15088580895674164 
0.160425190728053 
0.10023944755820241 
-0.1638187065183082 
0.12800903304886546 
-0.09216310789398015 
0.14011826798774862 
-0.05016744320591279 
0.18516480227963705 
-0.07045896345526953 
0.11547546993233354 
-0.03494310687071067 
-0.16064421587618094 
-0.018185713488033883 
0.03799903733401133 
0.07460620316723804 
-0.13536633173181073 
-0.07802108965739488 
0.11134175548433267 
-0.06829057548056841 
-6.983712684276444E-4 
0.19921817932644098 
-0.0708031162774134 
0.09665367109340994 
0.05964485431142147 
0.12158691355292 
0.033434292112382996 
-0.15539922328001393 
0.14607642348386185 
-0.19037020007096705 
-0.1181301564720465 
-0.15397153220147952 
-0.006189838293783112 
-0.08540183975527325 
0.07094395040477619 
0.18001336901593612 
-0.05287449459402946 
-0.1906660028279629 
-0.18321178794473952 
-0.048098661393774556 
0.025742436264264867 
0.05246839164966993 
0.018862356519221468 
0.06073857948781192 
-0.09622231124977967 
0.08165924303100536 
0.1135467266805551 
0.19816524155785242 
2.4065151073369373 
2.379480208188294 
2.44108720457772 
0.15930129987499642 
0.04470732284497894 
-0.12681802104469742 
-0.10497605875224525 
0.007482625685689526 
-0.08577973190438733 
-0.15923389448956035 
0.16257923327379553 
-0.04146682253057982 
0.15350264930082091 
-0.13639235450047238 
0.06040103339676073 
-0.16341232424190114 
-0.16258131248227803 
0.1550437238127232 
-0.11263581699091452 
0.0023068738171629355 
-0.024346747291205395 
0.187141005527674 
-0.16294721133375317 
-0.0343441280995779 
0.1419926736959699 
-0.10092562596698063 
-0.0981091408147103 
-0.13075591723235774 
-0.04973115982779683 
0.06315822376041125 
0.12162311331411813 
0.06455343452294804 
0.07751591174068312 
-0.027541291176748584 
0.04485916005329765 
-0.09779039513464882 
-0.08815796646174237 
-0.00600682115308801 
0.18059761406314734 
-0.18122077948313603 
0.04197174989848018 
-0.025898695082236328 
-0.11265020952551229 
0.0264040745924477 
0.1073675914651776 
-0.012349430920732068 
-0.019314257253837536 
0.1979114235925064 
-0.007707119399610496 
-0.10968324712567763 
-0.06427159695616794 
-0.11113218074867706 
0.17413055147600182 
0.16325826706929547 
0.11932505299899138 
-0.15062831057568365 
0.025726103684600737 
-0.16791860464044733 
-0.19267199977609964 
-0.14779164043128393 
-0.17652415079440123 
0.19707140403950313 
-0.17438004329305673 
3.1911470587334123E-4 
-0.07266513912438458 
0.12924292119427716 
0.09922226012196689 
0.07536403379073581 
-0.12412811586948501 
0.16684074335614968 
0.0020276376216258607 
0.15048663647128346 
0.17895198175217014 
0.18950062587124966 
-0.029597931437184366 
-0.18578375359034074 
-0.007419521280442737 
-0.14764222074731737 
-0.02289654677053421 
0.13877230164792198 
-0.17510495283636476 
-0.17003148106133967 
0.1576680005557171 
-0.025137120083719072 
-0.050754123871550594 
0.04998916507496798 
-0.06038155049382385 
-0.13360212150667716 
-0.11024297211578281 
0.08913406213981545 
0.04555099506515403 
0.05236529621287589 
0.1967150892660089 
-0.04098719731152656 
-0.07563854625101003 
0.05944741611027193 
-0.05641544619928185 
-0.1729751114243949 
-0.08942610236157261 
-0.11221848325550146 
2.2247108503307604 
2.267876860959038 
2.190246831045332 
-0.04640184889198079 
-0.09024357328030207 
0.1213959559743839 
-0.03983360803868269 
-0.023702018838408584 
-0.018490658816176675 
-0.09396613711886244 
0.16888011193838648 
-0.11614371286260239 
0.11087481255606213 
0.16774980918119192 
-0.11345435975270468 
0.15927251231464334 
0.0714160480696972 
0.09564324540123181 
0.030374963323697435 
0.062110192399142616 
-0.15201838427967118 
0.0910023066032779 
-0.04412468255576485 
-0.1669991513491473 
-0.1854492137828011 
-0.0998466390862583 
-0.12406763927304323 
0.1253134484659998 
0.10841255789333276 
0.1766063158506127 
-0.04698458421146956 
0.10701931518912361 
0.07505588124489004 
0.0883769976922743 
0.18829613701447584 
0.13711028061675556 
0.09760147890678017 
0.1289460164304186 
0.0021754480661545783 
0.04475617593751524 
-0.07344085732821953 
-0.10460808160247251 
0.13391631373177454 
-0.17428411055048834 
0.19014724780796283 
0.06481406737512768 
0.18378336352569447 
0.019344086937630234 
-0.10763566142708277 
0.13023934120952485 
-0.020706774514118564 
0.1408642050316417 
-0.004543992536931052 
-0.1502155524639698 
-0.032117114730837226 
0.11740614809657751 
0.035373151432859545 
0.0179241001894615 
-0.17849387128565097 
0.11263538963865616 
-0.06672901717490975 
-0.11470683616284899 
0.18437159796678237 
0.023628178627019214 
-0.05694888571099846 
-0.06647086609394384 
0.0032389045740653377 
0.09497589346147511 
0.01440254343820882 
0.1542395428344151 
-0.04960760958658064 
0.11892949669898611 
0.15274988469567113 
-0.11374333325087412 
-0.11738461627344098 
0.17672325522388604 
0.021970979782545752 
0.03292051247112854 
-0.12480927815622694 
0.025044992036741848 
-0.13730140896068727 
0.11120870514318754 
0.12815664943313937 
-0.15705162837658523 
0.18847442475094944 
-0.12288960434025858 
0.16275015261122638 
0.12833066179578845 
-0.12602345980965873 
-0.17328074817317785 
-0.19082701319251816 
-0.1305723668265896 
-0.036005480067378665 
-0.10990131483420457 
-0.0674811981374393 
0.1156054312358486 
-0.19122011904894018 
-0.0849491902533413 
0.05190286742155692 
-0.06694263872295295 
0.1708522132917734 
2.1508069969251737 
2.4488476218169395 
-0.1451585257716 
-0.0497052403554957 
0.18426760555380223 
0.1317115149229902 
-0.07897671912271519 
-0.059973661419936514 
0.017637264627581833 
0.08729290557092978 
0.0535157746483273 
0.14948938050944055 
-0.03090186892634575 
-0.028338460792584674 
-0.1784627600039245 
-0.07535266375108832 
-0.0076552706294837625 
0.13457624490878856 
-0.17256472220128305 
-0.05586250765478368 
0.12859933438928606 
-0.0822318718205041 
-0.021046122275699408 
0.18587863805045884 
0.09094663450168194 
-0.11828691688448317 
0.012848131519550277 
0.13538587798446716 
0.198435240703479 
-0.038748658729410274 
-0.003920348348713049 
0.046498340333938515 
0.19028062617149588 
0.09142380017066021 
-0.04534636863001151 
0.16717825180831986 
0.1555821051417109 
-0.12190208075907427 
-0.13351323165692014 
0.10749347066927095 
-0.018455563031794187 
0.08365888031449364 
0.0035232831082697147 
0.15384809717861092 
-0.04672694054463192 
-0.14375475317853337 
-0.1803555095568053 
-0.07702047057093737 
-0.1692101803484167 
0.1517110718193464 
0.05474544486706928 
0.10119296523081978 
0.0839943518072312 
0.0806998022570572 
-0.13831970454031406 
0.12875769738755388 
0.18387432528438286 
0.1589183383424888 
0.16160616788436571 
0.16634274008014327 
0.12834588231830873 
-0.15309728459513058 
0.09458346412038382 
-0.08017779678693092 
-0.07631627544686799 
-0.06372987110778025 
0.1561186356027876 
-0.09826572434464387 
-0.05242146411058202 
0.07265490852066026 
0.19666354057758134 
0.07213045350899944 
0.18743734803906037 
0.0012294830079788155 
0.1099137454916786 
0.1285050850465843 
-0.1223792383431507 
-0.021085734446848775 
0.1470761261149655 
-0.19605170290964902 
-0.14811101372157767 
0.018083471364031073 
-0.03189569208933979 
-0.01538162268695692 
-0.01759315602890138 
0.00977742626856698 
-0.022771363607293038 
-0.12791695298748565 
0.19423579524626 
0.12013437812895628 
-0.011064584690372803 
0.1930320660124551 
0.12431954969635167 
-0.03804138175691274 
0.03187837957537237 
-0.0016833828618729174 
-0.0634523694540925 
-0.08595568099441367 
0.12203339349907832 
0.09522429175747554 
-0.09044058507446132 
2.464386649534789 
0.12273554663555519 
0.02135143550170454 
-0.01847046093965421 
0.0866455790941002 
0.1580659329892003 
0.09538778801784809 
0.06625336484933964 
-0.11392764546784724 
0.057383557604624325 
-0.13041849384092866 
0.047429607830291376 
0.03452931979943666 
0.18262582703276942 
0.06060574870267604 
0.1131150699448738 
0.019039740005738354 
0.12632934612278945 
-0.04999883444778869 
-0.09009509810464036 
-0.16327486139870553 
0.16715082794355357 
-0.07767835702941009 
0.07646953850735738 
0.04583200094745235 
-0.1690040603668524 
0.048564051107948814 
0.05865792034106965 
0.1907838299044245 
0.029692188396194308 
0.02441544804756432 
0.11345451856370264 
0.12270625491347337 
0.035470009959108706 
0.13730477147666603 
-0.12334402255728327 
0.03257614371186718 
-0.0016557109893417243 
0.06319884384782976 
-7.889070377165575E-4 
0.07234869461914506 
-0.17518323944943798 
0.18353575738645017 
-0.05025378468952321 
0.06011966682142322 
0.010147892105149298 
-0.03535812107934869 
0.1358760973022528 
-0.0514170915688906 
-0.1472252970513407 
0.15643178549910763 
0.014478491013997508 
0.08174669779381682 
0.1782795868333415 
0.14414351144750392 
-0.15881127040452236 
-0.02692470595208621 
0.06164279902316927 
-0.07368524144843278 
0.15194888333385792 
-0.19107465529903372 
0.060339807637516674 
-0.10584132511666762 
-0.025476009734828026 
0.11434999181789329 
0.157172548354369 
0.05195111794005225 
0.1354761425844223 
0.014046439741224909 
0.16055200613462922 
-0.05500576677659383 
-0.14183470544779625 
0.07942599213089208 
0.12127736916344145 
0.1511744928921686 
-0.060076335257302244 
-0.1265111515828219 
-0.0013145432854574646 
0.1440863950231865 
0.15162894659710519 
0.18838866749892336 
0.1453719326296148 
0.05014603092963188 
0.12047947128002828 
0.016275514043119055 
-0.021485786617413904 
0.09907211506548969 
-0.1631472512765807 
0.10220849999138976 
-0.1328461324566465 
-0.193435096501814 
0.06870671930682376 
0.09863288382313068 
138.47745004131488 
388.15273966180956 
510.7914994039369 
563.1106553145004 
508.64276958274303 
392.76553160605374 
154.2346628570303 
2.0950747208471188 
0.16838421183649516 
-0.024238623310651464 
0.1721216330942359 
-0.10513139806314285 
-0.10672818703331739 
0.1996461350003237 
-0.14399975430748288 
0.03416261908878632 
0.17188366763885127 
7.499263867968009E-4 
-0.12680229843873464 
0.0021524297428738293 
0.03989636039970171 
-0.0401554850105828 
0.10255997978519854 
0.17573645129581822 
0.16266570218021187 
0.14590239228721485 
0.13952306224160388 
0.12454735274622192 
-0.10855461801949318 
0.11363470611866294 
0.10977258809165574 
0.18912596182501007 
0.07205189686821689 
-0.029407111653511342 
-0.12990266189412938 
0.1302520011571709 
0.08611499985364612 
0.0846958090119237 
0.1431769837160088 
0.11345730619974698 
0.15388104841825218 
0.029997286709064264 
-0.03687682852458396 
-0.14904934199360675 
-0.06113555093340037 
-0.04203779131588842 
0.10117080319979815 
0.043886291527382104 
-0.03152900418657795 
0.133472215418314 
-0.10400534344477222 
-0.04888859672510509 
0.12104447506503829 
0.08923549251283625 
-0.06929551652149418 
-0.04376901527965735 
-0.17138336256187464 
0.12922797094477306 
0.07865011001022998 
0.013031419292101054 
0.1059681046906304 
-0.04875348772892857 
-0.017254220069591042 
-0.1799922900753138 
0.04043656800053044 
-0.03939211216242566 
-0.16189843811091476 
0.10794174079974889 
-0.036763772997783134 
0.011480180954941355 
-0.1846726410935587 
0.12018282658717999 
0.171880825954008 
-0.1607133026264036 
0.19195350566180192 
-0.17651581243534423 
0.18463068995218934 
0.1370754476192343 
0.05198984331988288 
-0.19204718182722844 
-0.1182876848567326 
-0.11929975832404911 
-0.1312766000561515 
0.017872765918247546 
0.12438714956333152 
0.12211296048847226 
0.0034328999810686045 
8.65246876296466E-4 
0.141774328800378 
-0.15298080263415428 
-0.06722356018854742 
-0.1289477616371039 
0.1366603627367992 
0.03260297778520313 
-0.13981317227779286 
-0.14740703573062452 
0.18535670087340245 
0.14297924972525633 
0.07168711114241094 
-0.09683378979217153 
259.0081762622696 
579.0931821662804 
578.8928134422206 
578.841370501382 
578.9431694226917 
579.0385764594482 
579.0325362173473 
579.0593435501908 
299.54334700793083 
0.10995793749020877 
0.16657469379906814 
-0.0034690184484679754 
-0.0011379039457724838 
0.16306635344094633 
-0.03591799970994089 
-0.16975828433903142 
-0.1616773515632104 
0.1274348136588861 
-0.018996250306566598 
-0.11392175773305398 
-4.760751994133394E-4 
0.018201357724843076 
-0.07476015674832254 
-0.11871856912272359 
0.0909012613706276 
0.11046516483021968 
-0.06217937327947545 
0.08123645105812188 
0.14960646230154417 
0.1516487893209792 
0.11331292872136006 
-0.043484816968861445 
-0.16531605835846352 
-0.04909299332838604 
-0.15062468471810606 
-0.07734008559180278 
-0.07454803919120079 
0.14027218693126758 
0.07415647678724702 
0.13181209266535937 
0.18725957097004037 
-0.008320757094600811 
0.19280861259601623 
0.10599345497500884 
-0.15938251271457604 
0.02596637693746806 
0.049466062908478076 
0.1850496537296537 
0.10602986329279962 
-0.035599075875538067 
0.11861725574881848 
-0.09203011543211206 
0.1956815397304001 
0.15023273399115616 
0.11987643354932775 
-0.045501164298691776 
-0.11553627384961916 
0.10723066361427808 
0.09273956764151292 
-0.05533915797561248 
-0.18335073580005745 
-0.1958891211102806 
-0.12701291285627553 
-0.17298129558820585 
0.19085645154930048 
-0.14178123484733748 
0.07997412405465487 
0.18219337549708342 
-0.18523115927829373 
-0.06122063650570994 
0.1541271412750615 
0.12637317429264655 
-0.067593617274466 
0.019484529841700515 
-0.12345609018578846 
-0.17975503990513952 
-0.09942855314445516 
0.08213777472634809 
0.15767191903935718 
-0.1280176964117522 
-0.07257862309874794 
-0.012468676234735548 
-0.10038151878073975 
0.16862919031790996 
0.08494739391900924 
0.10668275673495614 
0.016723820180157556 
-0.12157936501976163 
-0.13153230443918518 
0.1450117394161306 
0.04160665934151603 
0.13728493061804892 
-0.09992910470479668 
-0.006009423013543597 
-0.05103006917513603 
0.06597519284675157 
0.15927378836916478 
0.009255519112834787 
-0.10296777930764237 
0.05998119630614279 
147.74304579113036 
578.9698147935801 
578.8452252280805 
579.0812717037732 
578.8368976783515 
578.9615689653477 
579.0985013647744 
579.0007466838357 
579.0133621562481 
578.9829340038713 
201.91506625281215 
0.19740778374323548 
0.06109658242616173 
-0.14825572509581264 
-0.03129955006951732 
0.16246235489067778 
-0.05264108622047631 
0.174810129620788 
-0.15227579247335568 
-0.03347252500007031 
-0.043666780244299874 
-0.1242865784978045 
-0.0011413350943708378 
-0.07944824992713553 
-0.16696735759391862 
0.08362173544090135 
0.04847719000078832 
0.1907795375799144 
0.08486118703100265 
0.017288971489554855 
0.1571177891095037 
0.09771121740361427 
-0.11427074780914999 
-0.17201527235884506 
0.0013950376853588686 
0.08634222504728811 
-0.06192790759931821 
-0.14632558355693104 
0.13899188863840561 
-0.19563705912028878 
-0.14935529004911802 
0.017421250787147763 
0.124956492013853 
0.008204813169165881 
-0.07370516008980871 
-0.18256557409327898 
0.16510726280641785 
0.06252092532397036 
-0.14725611301035665 
0.0331409553912799 
-0.027572475180181133 
-0.19310741146158766 
0.05073355482999803 
-0.08888833494068177 
-0.16509081441780604 
0.13425668104312938 
0.1577244132141275 
0.1966251316742001 
-0.09161693366096686 
-0.041248719069141015 
0.11166040579264908 
0.1411062717401273 
0.015451644579508372 
-0.05361930584659677 
0.14814162740855807 
-0.05737035636198687 
0.161717921358703 
-0.1598963107989965 
-0.0643241728852206 
0.16613044796603643 
-0.026917406728927284 
0.03165221258557396 
0.047507127785783865 
0.1419194173530639 
0.11295944953289822 
0.015590775173146637 
-0.1951513955530309 
0.15555093846851314 
0.055837251466629934 
0.10682986735067046 
-0.1748264464026623 
-0.18095315454042482 
-0.026305430507858885 
-0.08899006937151964 
0.17054834798911933 
0.1529314728943968 
-0.06564815246469355 
-0.09212441542769567 
-0.18518211563369122 
0.01048659654528783 
-0.08407654883012956 
-0.05903730517468472 
-0.16521715080318847 
0.14008810215110445 
0.10911038211671831 
0.002624364491129849 
0.07933596202980653 
0.008439414917797705 
-0.19084754104606036 
0.06162466043551573 
-0.11814718756623455 
460.7696180139706 
579.0205332584029 
578.9299286497752 
578.9836568728294 
579.0643136781814 
578.9517352093717 
578.9476461598458 
578.8718327898887 
578.7813718921615 
578.897542367359 
508.633845028493 
13.729267429758464 
0.09632306675466767 
-0.14659990162368888 
-0.13737771399191817 
-0.12218328904052532 
-0.17707501713866344 
0.15416337087815046 
-0.12810708132963305 
-0.06708040257643458 
0.04913511984550206 
-0.17060106340862158 
0.1960669184204082 
0.05236267463670441 
-0.17071312707386857 
-0.15977049153284867 
-0.054957380481810175 
0.036848335499455404 
0.04651292605387031 
-0.14028092129339884 
0.1328328984724172 
-0.09842065623205808 
0.09548685048525762 
-0.046000544946949745 
-0.14540981590446855 
-0.1771260340121623 
-0.013367472747416675 
0.07554157296146308 
-0.17033880158044246 
0.15403650923564255 
-0.18389906546846535 
0.1262498343256464 
0.12313478953129375 
-0.07461195586321262 
-0.07723335762686277 
0.12813597403837723 
0.16654941978407672 
-0.19530962762482093 
-0.00705037169630468 
0.0819067296034155 
-0.13087010785593373 
0.1180240741808764 
-0.12447896523065057 
-0.0011219454377222604 
-0.1558738968195198 
-0.18249005190448578 
0.13450478763368795 
-0.04079346613389859 
0.17052961002082223 
-0.16890892498914917 
-0.006760107486302125 
-0.12049313702105852 
-0.1313528015687414 
0.040920863993861245 
-0.08637838326911185 
0.16550234309229223 
0.18871331948159126 
0.010730750870744543 
0.005892605979382737 
-0.019566469022224503 
-0.10507301864923631 
-0.0811209515904352 
0.17890836723616205 
-0.12247174491047637 
-0.026998889819080052 
-0.04738916174124244 
-0.18224549859528333 
0.02491428875910154 
0.1975161699814657 
0.08038680185254982 
-0.1849537536567364 
0.19393426532011399 
-0.03392743968735146 
0.04296699308208635 
-0.01580594513622252 
-0.11309970305230199 
-0.059560494201150865 
-0.009736258228663225 
-0.1526279944876218 
0.04790414873236237 
0.13060138428161555 
-0.16019407068705138 
0.11787898738761976 
0.13037670278868219 
0.11580547816337211 
0.14398513595759804 
-0.11396426952554317 
-0.11233118057524433 
0.11741828019836797 
-0.17291791919120889 
129.57730480023525 
579.0366997843342 
578.9502968674146 
579.1180964231032 
579.0337426304835 
578.7614240325968 
578.9242110050045 
579.003356794174 
578.9585179000559 
579.1055667836553 
578.7776768948372 
578.9868386053627 
190.75744072626995 
-0.086409185598556 
-0.03580004202351397 
-0.0631217282425828 
0.19388147936056715 
-0.11082068413100506 
0.04937164221432716 
0.0895452629945529 
0.08042475162215668 
0.10285327668281358 
-0.03227602030258589 
-0.17748281559709045 
-0.05986403635273288 
0.11566438826276593 
-0.1483070196753655 
-0.1701246729388294 
0.11019163625436268 
-0.05458386798885534 
-0.16732135739419005 
0.1689999240295319 
-0.03762084394317719 
-0.04043418585264513 
-0.19998533769124155 
0.08969444883821681 
0.0944083722055466 
0.09566454894611054 
-0.15151028280167875 
0.053622499934277534 
0.10423903468125756 
-0.18103349856831263 
0.08196212392240199 
0.14216522576033558 
-0.09499536362909265 
0.16941682470183933 
-0.1886877780451071 
-0.025364801265188752 
0.14006625694769426 
0.055306012294858375 
0.11818038947367582 
0.04511099655624884 
0.022183440406598753 
-0.18154372791173082 
-0.14835840662662086 
-0.16501523121211883 
0.04774177789409828 
0.02588373634401267 
0.18317030308487786 
0.1696431728251157 
0.12643050135119804 
0.03545870964153028 
0.0659531528709737 
0.06153018458259091 
-0.08128392164831229 
-0.061836278791111754 
-0.07219064781185833 
0.11816855072859228 
-0.012088707300377477 
0.19712789328903702 
0.07268241993583713 
-0.10745547347792878 
0.15059216237949502 
0.08369382748931081 
-0.0261303964189315 
0.11458895418279119 
-0.051431742114880635 
0.053351485685064204 
0.11285872703498628 
0.16631557260185503 
-0.13243484764129654 
0.10945168572718134 
0.05084513676789243 
0.049505818724431105 
-0.0077692052151765445 
-0.029810006050310284 
-0.18429533519980185 
0.04365741388107672 
0.01403073943990768 
-0.11557024424932112 
0.04540160518088526 
-0.13675794150532194 
0.09805035313359373 
0.03451129280850326 
0.049513839820084504 
-0.0028541815952145 
0.06667508827303803 
0.01927235647264411 
0.03376033086917665 
-0.1505060820978321 
-0.12742671971628688 
356.3665353052942 
579.1068157403878 
578.8285859103803 
578.739055030485 
579.1254730366232 
578.7960257883542 
578.8911214470388 
578.8844601491926 
578.9076321536922 
578.8719624991791 
578.8753470945844 
579.0518031604183 
417.70785588448535 
0.18189487239350388 
0.11001611275035639 
0.19628999057538954 
-0.10219103528898775 
0.09319803750744926 
-0.15987426159806853 
0.015518583391413626 
-0.006718270020369926 
6.826872897489067E-4 
-0.08351982633831181 
0.09138416424999962 
-0.19250795181095 
-0.022225846877427846 
0.17519998067768944 
0.0699076433799285 
0.12150194122433483 
-0.19839305017531816 
0.13656012376375454 
-0.11340797528561586 
-0.12712538996479855 
0.030425874437178313 
0.053989250478570505 
0.12448703384370918 
0.17287534100833918 
-0.1809860292181972 
0.004516833691626532 
0.0307211883374042 
0.13951599891970085 
-0.042733143597595113 
-0.1355209456395114 
-0.052089882044100616 
-0.024394276915654878 
-0.1497636443495209 
0.10062290374637206 
-0.01869722739201421 
-0.11145152904254818 
-0.04633093739756347 
-0.14442460612897975 
0.14948065847378628 
-0.1212936445561899 
0.1372691166155961 
0.017973638574235506 
-0.14412195936152217 
-0.0842743034625268 
-0.03138290299524252 
0.04137913891252415 
-0.12965570576170488 
0.17730089704065194 
0.19388037333518388 
-0.1875720677945427 
0.12442284635420242 
0.04242934009667074 
0.1371533576530819 
-0.13250345491473542 
-0.09902601933481386 
0.01128869577171504 
0.14846904362284485 
-0.08150851363749362 
-0.16177779264725373 
-0.13355391752394224 
0.0012265035718131423 
0.1721983863490863 
-0.02973815883415018 
-0.004813281112111906 
0.07298218890236119 
-0.08604501090659236 
-0.009492439595691404 
0.06032770732717069 
-0.16074428427992957 
0.07524019967416196 
-0.14847000286499715 
0.13696087513936167 
0.0682043946896817 
-0.18390037998447265 
-0.09583072606407161 
0.02514664206842862 
-0.07527666434866692 
-0.07284380651436845 
0.03077285622573539 
-0.09634104103270942 
-0.024268289101247426 
0.09228245260108381 
-0.15814317952093565 
-0.19254042216058434 
0.034108252448147025 
-0.04816069236804221 
0.18244326859690296 
29.705669952897605 
554.0422442536703 
578.7964105237081 
578.8624754085279 
578.8159878138596 
578.9531689897435 
578.8439161302607 
579.1267915360996 
578.7880344575798 
578.8479752920647 
579.0419383580279 
578.947213902643 
579.0736491678791 
574.3890938309638 
68.16211363134207 
-0.18680452345271414 
-0.020003815999459162 
-0.1698519925486915 
-0.10405055728759956 
-0.10783544965049191 
-0.1854979145513152 
-0.10510067606118222 
-0.010756382454544161 
0.17741647553804396 
-0.12718968597105276 
-0.061239884631834274 
-0.12461376927444179 
-0.03890109096389427 
-0.06833377705926896 
-0.028320270447864226 
0.08167319014321206 
0.013723490878069983 
-0.13033036821869728 
0.1262130046962464 
0.1282409050931404 
-0.006287443857306563 
-0.11596791742334173 
-0.10937716631864398 
0.1214205657891172 
-0.08843203325470679 
-0.12431987670033672 
0.18413552131722927 
-0.1157321849426424 
0.16639911161146942 
0.17132034261747214 
0.035249828105447106 
0.025110039034999143 
-5.000665850582453E-4 
0.08115998938892788 
0.08220363775140327 
0.05628174991766388 
-0.10088202375623348 
-0.016444831918678904 
0.1354054456195919 
0.04904656264685467 
-0.057488178144381646 
-0.1170632945333527 
0.02484093622236974 
-0.05296759923090308 
0.07584605216847562 
-0.09505812358640027 
-0.09883208112083737 
0.15933482241568225 
-0.09057374771777003 
-0.027241611556815565 
0.0674162450736574 
0.015771204963260066 
-0.05477031262790302 
0.15126505793982614 
0.08891229371281517 
-0.10940299643781458 
0.05564021380134443 
-0.14936817686598666 
-0.03774925826277489 
-0.11267690098026746 
0.09674932773616024 
0.048619742766718155 
0.11983956582181182 
0.12610160831518524 
0.16653826835138635 
-0.07910011037374837 
0.004747206492739936 
0.08647558203605576 
-0.19229070404723891 
0.16128808807771933 
0.07128411723326178 
-0.06788401028261556 
0.006887157330227156 
-0.1711294019301668 
0.14995382664434093 
0.08049779711824884 
-0.043634661283734916 
0.17657398973376787 
0.16111201977205275 
0.07929492845576885 
-0.17847570191880058 
-0.004189512783422472 
-0.030124952400854887 
0.11260183320444112 
-0.0034976652601644564 
0.15440833352437106 
231.71700108315002 
579.1126142382421 
579.0613491432833 
578.7388110268982 
579.0505382982345 
578.9378553050778 
578.9174709824156 
367.8395324125429 
578.8792620383593 
579.0304839497414 
579.0077519228821 
578.9611628311136 
579.0269513638822 
578.7721798517181 
290.5836244093933 
0.11410520579874278 
0.15768792927092695 
-0.09239819252583384 
0.042540484547931856 
-0.12720174440839827 
-0.07198913002954371 
-0.1610039085310907 
-0.045427875436628545 
0.0884479677732205 
-0.13638156938179083 
0.09261144440738761 
0.006929656420055663 
0.09686676875726857 
-7.349987131649582E-5 
0.19457957233201822 
-0.03325488095229559 
-0.012096462533815633 
-0.06509061877260677 
0.11337768172724905 
-0.00509444476795573 
0.02025570490196818 
0.07847317850851832 
0.01494006430032524 
-0.006631017322846627 
0.19345802101781778 
0.17744143633694065 
-0.07556036095000684 
-0.1719745529725615 
-0.05238325456250301 
-0.11786791085613926 
-0.1712150666250036 
0.05812126683720675 
-0.14596379546978822 
-0.1587922350122938 
0.027705988489009487 
-0.04478232785973249 
-0.08503710882036893 
0.09468472551137391 
-0.12236911029380054 
-0.09089187732784346 
-0.09174970293436818 
0.1806888739951324 
0.07138266181171243 
-0.004928247620082871 
0.0928258180342395 
-0.020249723641511785 
0.058054461559596926 
-0.08370644790667066 
-0.06658081764886423 
-0.10886919023324158 
0.13124914665167375 
0.1372349171549711 
-0.09190990782950675 
-0.13111727502309317 
-0.09980272778558086 
0.18819139712146293 
0.12967065760614316 
-0.058960936168992284 
0.10709594593256988 
-0.15177235998481522 
-0.15768338940599846 
0.09353979779777022 
-0.13466120993783182 
-0.19686750114509413 
-0.15306080695614976 
0.021200914744914534 
-0.03286431325634709 
0.026990587846003777 
-0.03563221050509863 
0.03123669837699089 
0.14534890180003496 
0.15041956017332986 
0.16267168748285948 
0.13054853522698412 
0.07320033063378356 
0.05547551757037572 
0.15514702423604043 
-0.16380320457052933 
0.046832892561345624 
0.07668220009304355 
0.11805375660014966 
0.11917540346775318 
0.11953699242536048 
0.08959259113760853 
-0.11773510134720518 
-0.0751881417459957 
458.54512110223294 
578.7614410126323 
578.8492653080104 
579.0375148646315 
579.0467112770777 
578.7645230058491 
578.8111409522388 
61.48455703676436 
528.8564439310586 
579.0450153234209 
579.0494001271401 
578.9398155331759 
579.0912526682064 
578.8875314909501 
510.628917360324 
4.728962185635678 
0.18689301782337914 
-0.19416471073776737 
-0.1293898263216956 
0.06397415474755203 
-0.1943972004579814 
-0.03466046898563263 
0.005553809060283715 
0.14961527573344846 
0.07913074248719043 
0.08072278302977154 
-0.1274611290114233 
0.006290331666146398 
-0.020569215201161478 
0.1096234075869898 
0.05374187798238517 
0.14683268302532015 
0.05481554695398988 
-0.07654658974509441 
0.12485596226307749 
-0.18854445484805102 
0.0951283171959264 
0.1659498472553313 
0.06949493563074449 
-0.07065464116457126 
-0.04684203358246383 
0.09866044417309283 
-0.12654553517877498 
0.19983724057559976 
-0.14795503688184117 
0.013209717957767764 
-0.011069332695085338 
-0.19006744560837951 
-0.0552445310928846 
0.004644923427095493 
0.0763742597436382 
0.05062219347890429 
0.19052813979644595 
-0.12288585039777011 
-0.1882633461625376 
0.002681915379224853 
-0.02547350941326712 
-0.10741770066711327 
-0.010557605265246128 
-0.06669051894000191 
-0.07924193015019165 
0.17524349048755988 
-0.14349934628890632 
-0.12182371417066694 
0.03464934728097108 
-0.15125823710048714 
-0.019253589849421132 
-0.12083067024240278 
-0.13950619157841704 
-0.18973489470578173 
0.1862801615190522 
-0.09369734409393403 
0.1503185375244887 
-0.16496930518448197 
-0.018246754415670058 
0.012980231855521385 
0.014542906635503311 
-0.1433672791375583 
0.06222368765777708 
-0.04300435870138958 
-0.13886906395914475 
-0.016823054634910045 
-0.1171139644466766 
-0.03464308970680746 
-0.17123274725433865 
0.08607962215448339 
-0.01694371688303914 
0.12922801454414073 
-0.1190856279139298 
0.03786116992957936 
-0.11862847248642967 
-0.11401838896997024 
0.051437514635181536 
-0.12278161624258624 
0.16824188240598076 
-0.021439130297499748 
-0.08118896506195146 
0.14411198962242933 
0.0891704098838133 
-0.021948837921471842 
102.19863627348737 
578.883255747874 
578.7713311539817 
579.0422620525644 
578.8731246406486 
579.0029724933828 
578.9374995382123 
465.3875180843424 
0.009309373531227155 
344.98917042102204 
579.1091296305746 
578.760127815986 
578.808565983816 
579.0185731458012 
579.1135805942096 
579.0032748359423 
161.15632854951352 
0.09792421689565606 
-0.13375321582192767 
0.163068087394813 
0.0014574560686941018 
-0.06632865197644736 
0.039176004090368505 
0.1662984508454663 
0.06693204337277242 
0.011741214857438148 
-0.06890965328920556 
0.19801989031438305 
0.033961065100404975 
0.14722238767075996 
-0.003023707191686903 
-0.15360771128138132 
0.05156277695060818 
0.11631698141624497 
-0.17888156104179573 
-0.14049867599237872 
-0.17985766753767918 
0.009293976605499216 
0.11265159846921863 
-0.1332348854001849 
-0.08462566431318869 
-0.047530974605572984 
-0.043089870652889994 
-1.3317346329239088E-4 
0.1484306801158456 
0.0903852601744562 
-0.09787231092172029 
0.12255138525071557 
-0.05066654764272918 
0.1963223504182257 
0.1411187041892747 
-0.013172018541546399 
0.021540814253472457 
-0.08128556367569956 
0.19015113951242013 
-0.19617717183768343 
-0.16029804276828738 
-0.12698925931872074 
0.07229807373940089 
-0.14926982428850485 
-0.05115480864131347 
0.15296543259249207 
-0.11986621613622513 
-0.16898791148395362 
-0.12790850451578628 
-0.03770303023179694 
-0.07728161963002185 
0.16320141583797398 
0.14531396100552224 
-0.042890239266715424 
-0.1456073705888309 
0.1943647102645813 
0.1709917008989384 
-0.05857556985990983 
-0.1620165972364072 
0.11748561275944952 
-0.18016528854999658 
-0.02738394671370728 
-0.08740220293707429 
0.11773193515065311 
0.007584695070647157 
-0.08948731166564468 
0.11626220250180269 
-0.01922700747615927 
-0.1642753802628265 
0.1833598415292873 
-0.04375896923740519 
-0.13298317714637226 
0.10865806753391027 
-0.154190444132032 
-0.07505252119881126 
0.18884005351173155 
-0.07375245602756966 
0.06854593905166917 
-0.07306287089554905 
-0.07641378517485582 
0.19942907191012527 
0.026112034865118122 
0.11255329533264002 
-0.1466883648683599 
0.14794840616113525 
333.8743222351139 
578.8350672276873 
579.0716572522267 
579.0417887345153 
578.9063650488703 
579.1023607328883 
578.8805538032017 
295.09473719860983 
0.05183449071742874 
156.53699659563387 
578.9477933069791 
579.0286006072205 
579.1115726245141 
578.853446444439 
579.1003323283264 
578.9033935826002 
388.4224956734139 
0.012241604931068656 
0.0745698567647467 
0.0686147827619098 
0.09808217147444276 
0.14865449869566094 
0.07629747362844874 
0.07494375729732422 
0.16855915160810692 
-0.1787917633694136 
0.09697469160465505 
-0.0069383525157304116 
0.12580624574716476 
0.16557610673629547 
0.16685922986345697 
0.19315560119812386 
-0.039649330143187944 
-0.13961541257079282 
0.04185499990307329 
-0.18326227337754075 
0.08669426998582186 
-0.011650400898582186 
0.10676580881608516 
0.12278294519571936 
-0.02426467159545012 
0.015478110679276291 
-0.07752810688664735 
0.0881443043988347 
0.036514862823930405 
0.01984130024183242 
-0.11855425970105725 
0.13222858338013238 
-0.14825714708042673 
0.14400381192829598 
-0.0932731733180514 
-0.14025671353616503 
0.17351314282190383 
0.15027169073435548 
0.1626781205637325 
0.0016541285049041787 
-0.04993113321045195 
-0.07450023463420838 
-0.05844994132018111 
0.0833203844359165 
-0.11856674687139473 
-0.18772284206915915 
-0.15191879207709344 
0.16010342503600433 
0.19117401962944602 
0.13588818158453686 
-0.07493247446561582 
0.034572011825962395 
0.05352235253275717 
-0.14847657332499328 
0.04603562653080914 
-0.0942439948192869 
-0.17047905223193138 
0.05379445440878955 
-0.05314157205454206 
-2.717162914401272E-4 
0.1428285302729183 
-0.029316645115253864 
-0.12364545036119408 
0.19212277238767278 
-0.1347386897497525 
-0.19336331244212107 
-0.1833837552483534 
-0.042975366798054665 
-0.11589478924678676 
0.004591386897063204 
-0.0429864430058961 
0.1629967003063308 
-0.1123144135437447 
0.16429828685010456 
0.0015255125341108455 
0.08583460103178309 
0.13263443102771855 
0.18438730466983327 
-0.05274748316486266 
-0.08102919975768925 
0.045748066630104084 
-0.011803997513769732 
0.19266689500909312 
-0.16372377518615738 
18.327750529076223 
542.6522202802444 
578.7460583049693 
579.0270323582805 
579.0696758034716 
578.9722523156685 
578.7494594508075 
578.9208008511584 
99.98267331544244 
0.15801612983126406 
6.626392735985074 
538.2183129752262 
578.8667963163743 
578.9114068428596 
579.0702746561582 
578.788399163483 
578.831453696307 
567.6522019951001 
47.4781002222067 
0.11744042265231908 
0.08864463689293406 
-0.1927725872396172 
0.011282988986451054 
-0.18401509783020997 
0.0562169602821998 
0.1605811039119071 
-0.08048590615811597 
-0.0920991895984288 
-0.03708596648641027 
0.01668513713257297 
-0.027902727193436533 
-0.051979174934129235 
0.05378607694936205 
0.05093501773874798 
-0.12386192761014675 
0.010649922241008941 
-0.014436972673896653 
-0.04809391796777662 
0.16852545495924098 
0.01719930664658742 
0.1460442211389918 
-0.030125336656357055 
0.19966729255184812 
0.16610800913354867 
0.17013920224114298 
-0.05953995596801118 
0.11449326659025832 
0.08073817616113077 
0.055843194587481326 
-0.0655749413257376 
0.14592318073320265 
0.07725825631854011 
-0.1521157225301583 
0.15225087027663087 
0.03170131888410438 
0.003356293581540465 
-0.01626799703835577 
0.01217986106116023 
-0.1762989513972782 
-0.1900461393023495 
0.08611062949539872 
-0.02700138813882283 
-0.02049326923153133 
0.1919189922846145 
0.038113173085777274 
0.0879109768234908 
-0.19071690891817208 
0.07010498607722943 
-0.008534478121988404 
-0.19657035536543976 
-0.10335435484902998 
-0.014130345927710064 
-0.06455691862152096 
0.09729234826497579 
0.020448467650162172 
-0.1594418854556388 
0.19339557253248152 
0.09198733568311274 
0.17510904151047607 
-0.1637400167635258 
0.11578859142550962 
0.1855506043479177 
0.12029297686294438 
0.16048030182299677 
0.10312383463587138 
0.10887568622680444 
0.08648433760198004 
-0.09380867267276255 
-0.08094721113682093 
-0.051145160369803405 
-0.1788292241391369 
0.1300607386583137 
0.04345215491500937 
-0.13075150359995497 
-0.11892463010845003 
-0.1745203141638496 
0.1671820191113494 
0.016258258416996657 
-0.04092932437057395 
0.12334233171172065 
-0.15529882942994383 
206.51144029677386 
579.0088094229011 
578.9610531285698 
578.9263632948791 
579.0587003585911 
579.0374357842604 
579.020691776147 
472.22629202066304 
0.15146519720748552 
-0.01863012568682826 
0.03502009314725235 
360.87271975162736 
578.9107042874477 
578.7385613296586 
579.0715432115624 
578.9186381191306 
578.8100515710041 
578.8271853373656 
260.9113336745475 
0.15595276310185702 
-0.035669706420648956 
0.17463105171767673 
-0.12802416863801874 
0.027806631131146536 
-0.013780960788930319 
0.1543434912942065 
-0.01893917510981949 
0.1623314225116151 
-0.10855071922368903 
-0.05304315411328911 
-0.16181010701901855 
-0.10581762930692627 
0.0207645175971643 
-0.05126551369049115 
0.07873929655440187 
-0.1407186771135173 
-0.14785073205016613 
0.18373391619131912 
-0.1413063408384832 
0.08277827090303369 
0.1933401471237685 
0.12074417264117704 
-0.03215419374006592 
-0.16830620403102634 
-0.1511647694016236 
-0.1716278399688157 
0.10976187134210141 
-0.10314591125174687 
-0.0481074162011928 
-0.07394633024180139 
0.12122887092323426 
-0.004316294611157012 
0.182086691880893 
0.1469682029228972 
-0.08476984063979752 
-0.023126068092837487 
0.18156981624458174 
0.04953966138484037 
-0.19467761339623635 
-0.14010192148259937 
-0.1617366285869425 
0.09740820895102986 
0.005615540984100831 
0.05679791917780713 
0.12178248303886163 
0.17346165765630656 
-0.10061417009005119 
-0.19938122262187263 
-0.1620248243540957 
0.0017178426153448556 
0.1306794385572409 
0.04432388270805804 
-0.18946442491731108 
-0.07844729186459776 
0.09709305591097772 
0.09597150653987646 
-0.19677119515736374 
0.19197176679968786 
0.00824544045963238 
-0.1796081065034124 
0.16384319214635978 
0.0993258438724483 
-0.07671775713086647 
0.16455383887878833 
0.10106375383848337 
-0.19992481175201726 
0.09208454322046283 
0.05326390436560413 
0.09803881561890276 
0.05090887388774984 
-0.10132045844205156 
0.1537946733642605 
0.021489966698197582 
0.16173002898797262 
-0.058319763903066785 
0.022491104119679417 
-0.19720646882582754 
-0.14728000394697038 
0.08540870231928127 
-0.07664237007860342 
0.14753983006886717 
433.4338431977883 
579.0053822698486 
579.0767777763775 
579.1013511447833 
579.0929930370928 
579.074795808436 
579.0975971934832 
263.3310459440967 
0.09307401440703778 
0.0988875322030131 
-0.17981990306593995 
170.37806444657141 
578.7852870108426 
578.8781035406479 
579.0602022758804 
578.8700599285581 
578.8223760465249 
578.893179041367 
488.1409262684317 
-0.12835442852626983 
0.03804068355681625 
-0.14524424507826358 
0.03808799500249638 
-0.08336832413377829 
0.14189439987434177 
0.18949113379267463 
-0.0406621366412066 
0.0736380690414592 
-0.0012635406172970265 
-0.09088323200932868 
0.11809979100467788 
-0.07758474629374607 
0.07023045210247253 
0.07110589230803133 
0.13792238052444533 
0.18418447820386213 
-0.1070138810076034 
0.08863775643444277 
0.1418426185600859 
0.12851222247253813 
0.1741699447549216 
-0.09219916961129351 
0.1740152322181972 
-0.009611304498324758 
-0.11940094304735559 
-0.18206905736478537 
-0.07430433856509144 
0.08995402460366969 
-0.1158274455257165 
0.10100455598766123 
-0.05653013826539141 
0.1398943171950322 
-0.0528027122648734 
-0.10016405128919424 
0.14957707509961543 
0.08060744187689006 
0.014368335884736572 
0.12115470983394733 
0.11862486110354492 
0.1008169776808353 
-0.076132313378313 
0.08846859785666988 
0.1319489289603254 
-0.11860941609409431 
0.1582474630254917 
0.02094445400278855 
0.17032312918270875 
-0.057302819495402224 
0.1264674425863292 
0.03836831694345641 
0.1076786207076662 
0.08091572299415473 
0.10165959286699922 
0.07857390972801886 
0.03294365138959904 
0.046286124225214526 
-0.06510458739172803 
-0.13744332123607556 
0.054069229092531756 
-0.15362872430875624 
0.023435266927899517 
-0.1461810415740457 
0.12775852309943714 
0.14997708648587854 
0.13264168689075057 
-0.16768040598922263 
0.010371308691045689 
0.02245563820197885 
-0.04605808248756671 
0.03972992271778858 
0.13992767929317668 
0.04069474636007936 
0.12692814682705467 
0.05152561687338536 
0.13608860190883348 
0.11617518493640938 
-0.1381131024334705 
0.19277261592539496 
-0.15555627103528102 
-0.10294491716829271 
84.07117083917785 
578.7669891888464 
578.9820865637844 
578.7540154160989 
578.7683764032628 
578.8529206509437 
579.1050359396038 
572.110378669478 
61.29847875470596 
-0.153182761969763 
-0.08105799693610556 
-0.1315764651215165 
13.579520398806928 
540.3690870800506 
578.9691677669659 
578.8956731274586 
578.7566621045297 
578.9908701639055 
579.0991648630103 
579.1027335143962 
133.8057645710382 
0.18118127032239428 
0.056188855478372435 
-0.027297457274443493 
0.07951826577222654 
0.100905213007556 
0.19336040311405628 
-0.012898250383277438 
-0.14468029691958925 
0.13968024117446076 
0.13220570132649195 
0.10561276618861304 
-0.17465532355310276 
-0.049792594392035566 
-0.14736349982093172 
0.15025832357284952 
-0.17606609619577013 
-0.12084809856170714 
-0.13301641912476098 
-0.17347932864134066 
-0.08953211163187161 
0.17852791071236745 
-0.06442363511427202 
-0.08210614885149195 
-0.1737789754913083 
0.09666600797417185 
0.06994029277569486 
-0.01792941387953087 
0.10741861689756249 
-0.04961325148934764 
0.05033337955466016 
-0.039261154503808404 
0.16813237722838298 
-0.1836680089048736 
0.19879608908497248 
0.13254138577115154 
0.11235253023086444 
0.07823386559513218 
-0.17415792793424442 
0.11882947992195164 
-0.15722181652751238 
0.1282291329922276 
-0.1916297759715113 
-0.005579549931672284 
0.0045705438454752 
0.04415516347802537 
0.15833190127243124 
0.16064649303534267 
0.03551673809572714 
0.05109154816014172 
-0.1938599818622426 
-0.09443940247076106 
-0.11024496620484259 
0.024239641705711357 
0.1497599252428295 
-0.09375667269133126 
-0.13958432661073972 
-0.19843941159172523 
-0.19012471371210526 
0.12073252457121741 
0.14723423660276613 
-0.15157985819052808 
-0.11652504278183762 
-0.027824024263158442 
-0.001602169693386113 
0.052817135600417786 
0.0026603418794441114 
0.04538525473220939 
-0.198412370486332 
0.12860028115043892 
0.08242560705226526 
0.09604715583042128 
0.007384090257752579 
-0.13459376516501123 
-0.01938373822406181 
-0.18457290126030867 
-0.16109547988177778 
0.08787998839265121 
0.19522488752837014 
0.09847719920641607 
-0.025254114017151774 
308.8350380278929 
578.9173321175672 
578.8595359332572 
578.9167047748033 
578.8523884666873 
579.0840799249752 
578.7690105189953 
408.7379300549669 
-0.19362213709354847 
0.039443620426791004 
-0.04906283097782754 
-0.013039905069427593 
0.03766303910133889 
335.964700112618 
578.7615923261333 
579.0834126270207 
578.8657329928122 
579.0399902216534 
579.0877805169613 
578.9838468921452 
360.94407796051104 
0.1063954090255943 
-0.1408237049321726 
0.1599767687542476 
0.12557671868480058 
-0.08038130165072484 
-0.1953164590553469 
0.19129872409390886 
-0.06372070876897262 
0.052475787336454804 
-0.1364725081940316 
-0.06501176335596257 
-0.14465781841095007 
0.05793830108432241 
0.030247057076922573 
0.0176634542023896 
0.10426714018803551 
-0.08798014220537734 
-0.13196690884904055 
0.10387187333530501 
-0.06447046029276207 
0.0033474206436037157 
0.09136243888305129 
0.19078503635544863 
0.1688846049245893 
-0.035682188558348316 
0.17308149871844114 
-0.13908486783623203 
-0.14389123208119498 
0.181888677024647 
-0.022632434407328095 
0.09906689060577667 
-0.16716894869147733 
-0.19699360284567666 
7.42666577902007E-5 
0.18794129980612512 
0.07743710465363207 
0.18912644638283732 
-0.15945441487479456 
-0.13248924216899516 
-0.1791427240875558 
-0.12376501687059585 
0.03406106649103974 
-0.023511562963599353 
0.03737762000672068 
0.16123334703825737 
-0.05834708154718257 
-0.010082299143304552 
0.09544121758530888 
-0.13749941731393223 
0.02411389266026487 
-0.1748894347320321 
-0.04126475402923585 
-0.008098088407240966 
0.11959281676784855 
0.008867452644437224 
0.0016873163334717167 
0.02746438967154269 
-0.10074694507875206 
-0.01788671010829654 
-0.160177357477447 
-0.009605943247003479 
-0.10695310675309214 
0.16378855960052896 
-0.025737968917093207 
-0.1929378741333824 
0.1577374119229879 
-0.19596343448921283 
-0.08903158812004626 
-0.12395941752446432 
0.0018771778636849645 
0.027431817234566447 
0.13917799362160238 
-0.03777898908276542 
0.18753137132831305 
-0.19980301220230487 
0.1397802999060741 
-0.09549648233420692 
-0.1038888144119905 
-0.14894041370566816 
6.854165074536831 
526.662093695812 
579.0044574292871 
578.7622984885342 
578.9966719611493 
578.9498098525979 
579.1090187834486 
578.9673596878689 
181.46864912269598 
-0.1400654324187933 
-0.035027283911801155 
-0.05145020420626831 
-0.037408084349496995 
-0.16340472629286196 
113.43664993408188 
578.7992186291817 
579.1214665760253 
578.8791892387565 
578.8427004785076 
578.9239197471767 
578.8930855568815 
556.1461026244368 
29.540265460199173 
-0.1035851481530449 
0.14431850581239408 
0.14829875667895576 
0.12128475647998355 
-0.07840160571738326 
0.016258421131536777 
-0.19239379396288547 
0.001062823312506428 
0.11879627100120616 
0.12468730015820723 
-0.06190989463988769 
-0.13162700712866104 
-0.09703085970210878 
-0.14555435177430384 
-0.18724185285600348 
-0.1064415850855629 
0.18625471280990535 
-0.10866857494818 
-8.668427689922653E-4 
0.04154691659833326 
-0.020588294998468315 
0.0454076761715021 
-0.150808571286295 
0.13247040739726562 
-0.08244220838171895 
-0.08244753729731445 
-0.17006593328654993 
0.18925825822827885 
0.1714929198209167 
-0.048890978698175186 
0.14592185886332903 
0.06816407756931603 
0.1766026426821699 
-0.0656780049423786 
0.10705748735137788 
-0.026736452106294856 
0.14453929524734455 
-0.19442579661367967 
0.05935175106707791 
0.12353897016712384 
-0.18141824082430352 
0.06226592890571048 
-0.1766361040576106 
0.17124442294343273 
-0.008222030730832275 
0.18550733887308085 
0.07445895993473878 
0.16282349295608595 
0.12767717579839805 
0.06662247304242885 
-0.0490215518414224 
0.08872968001583853 
-0.1933377558727584 
-0.14220844612776187 
0.1908736203531184 
-0.013922376202147813 
-0.13340454700226084 
-0.03201376861903299 
-0.12569624850019373 
-0.061868350956365864 
-0.1853058636486294 
-0.11331910986919819 
-0.010844916132978721 
-0.042784025847172835 
0.15825597095726313 
0.14165090123068752 
0.1383890442405753 
0.042709235731478834 
0.13505654534048628 
-0.01650299081066736 
0.172581541705972 
-0.12663598474007115 
0.11994509763491884 
-0.06163681929840112 
-0.04203158642711419 
0.02327029644248535 
0.1423675161091883 
-0.01835669461514397 
181.5044538884572 
578.8120559902106 
578.7989448876202 
578.8879965220732 
578.9611766534618 
578.9541220244278 
578.8275652596749 
526.5313471052998 
6.97432890652562 
0.16321314638162937 
0.029074895052047273 
0.018083306360134804 
0.11238137861113084 
0.14520786935968627 
-0.17263738360010877 
474.4102551834861 
579.0591793870049 
579.0850331360417 
579.0597780163986 
579.0513363230249 
578.9907622242849 
578.8395618387292 
233.9369925427092 
-0.08524354955918861 
-0.06075382373542407 
-0.11364123398023285 
0.07281847488321402 
-0.09027224602046365 
0.06470541401704633 
0.17864852367214235 
0.07967699583516341 
-0.10659033731590806 
0.1482284542214547 
-0.049668848139282185 
0.013896944799026756 
0.06493061038623393 
0.11431852990852004 
-0.0996064045479142 
-0.01496815952229072 
-0.19627807372596792 
-0.18731074114364424 
0.10014715254391782 
-0.14749707929403294 
0.16094266559745873 
-0.1596143763365504 
-0.07927498699266931 
-0.018451646685583217 
-0.16096808582253797 
-0.176260352013498 
0.01997807479668129 
-0.10443899890032365 
-0.15305029921276558 
-0.18968052756507922 
0.06168160351475732 
-0.06311237913405673 
0.10499555608271904 
0.0854835517037591 
0.007543545914332206 
0.04386530378935749 
0.021922135410922028 
-0.044894990663756074 
-0.14741681615248364 
0.11007418538167285 
0.07838920396360322 
0.025484166226543703 
0.16702730511891029 
0.11248850913831449 
-0.07536840379713983 
0.06342046984718325 
0.16294876508762357 
0.07841141193848555 
0.036542732403623435 
0.03386805809963439 
0.021450904508223706 
0.006781643849576968 
0.17320359495001575 
0.18955254300381685 
-0.10372107274238039 
0.06764390709788198 
-0.05978506897480093 
-0.07362058698620597 
0.15231793957287887 
0.1742772694189309 
-0.11298115401516268 
0.12041790278435055 
0.002515032677700063 
0.15567954074001705 
0.1527238518422862 
-0.1733029800206936 
-0.025658676539326797 
0.05280843092363935 
0.12377572602829784 
-0.052996264988097286 
-0.03301234421792398 
0.12018348709262949 
0.07814453146596967 
0.16332643406603226 
-0.14693396874911357 
-0.0648440263552387 
-0.035473631416700874 
-0.11446032010993323 
408.68921711842205 
578.9290531868477 
579.0300828449557 
578.9050761275881 
578.8018961488898 
579.0992329215446 
579.0081951682976 
311.02599367667415 
0.12052628464906334 
-0.05678743002686307 
-0.08703596250850128 
0.02955607998198201 
0.06546470180913538 
0.1232444784895389 
-0.09248184719053208 
252.1315005474667 
579.0135313886263 
578.9333565749769 
578.9299668066411 
579.0513297918429 
579.1284771482966 
578.7374544801023 
460.7544863670006 
0.1821227437294906 
0.09618771430186318 
-0.12428589900827856 
-0.004828870850971473 
0.09978774959371484 
0.1525967497965381 
0.027626570451331933 
-0.16480359508135353 
-0.03216622820720408 
-0.02491359107720803 
-0.19586567389448853 
0.039724775542176405 
0.14904756962402554 
-0.043823178584686234 
0.11744501986180045 
0.0169078480476621 
0.1568743535693055 
0.05488775763294457 
0.08181646787287289 
-0.11215137779819156 
0.08820051972098314 
-0.06234025384544517 
0.1432351830459489 
0.05480319217746643 
-0.14412423217258163 
-0.1750741880186153 
0.1682398291955951 
0.09073748283239358 
-0.16753841380485313 
-0.14430022680108873 
0.046540536851293834 
0.0948313825607302 
0.04364586952241009 
-0.08737533012692147 
-0.179711878943069 
0.16985056797170084 
0.13921686696350594 
0.04250358410550853 
-0.02644979358917432 
0.051134627618877826 
-0.1785574011138408 
-0.1375872892961743 
-0.1012453337033195 
-0.04672183127991114 
0.02515502329879568 
0.05907506847346061 
0.10256364423170339 
0.19940962300757725 
0.12079146950286879 
-0.13074890065868328 
-0.17815530677801333 
-0.040699300090626556 
0.15109886530215116 
0.07148067118400814 
-0.008891328237557644 
0.04636751551860874 
0.014159440585428618 
-0.07541091569242697 
-0.06401284257642578 
0.009952586715806622 
-0.030150284522619364 
-0.1440522401744412 
-0.03697476685358411 
0.10810489487237879 
0.07379778281297189 
-0.06744147239882392 
-0.0257313312520428 
0.1574035696187871 
0.1323568684497109 
0.04060844452662954 
-0.04417242405206245 
0.13019852613843724 
0.12406637572682444 
0.054220194494775276 
0.07280194689418423 
0.10596992661099619 
0.1475248180293771 
61.190033999542194 
572.266427642598 
579.1110324134288 
578.9612482294266 
578.766370596981 
579.0440377268994 
578.7412642934568 
579.1196669735813 
84.05346317044405 
0.19113908085025266 
-0.03970417476953125 
-0.11470728267676994 
-0.00815217508965499 
0.07645837216457169 
0.048422665426563205 
0.0580442459142852 
45.34576188782985 
565.260298511235 
579.0567830535697 
578.9201184167514 
578.8904673519629 
579.0622842978318 
578.7335394607331 
578.8851195969328 
106.71837897379652 
0.01793829924329335 
0.03306327453147731 
0.062543805198635 
0.16315595785217335 
-0.1817386337851024 
-0.07412118275692822 
-0.06640339514223972 
0.018179529575714642 
-0.1674737457279739 
-0.17317477232254685 
-0.18784932781557828 
-0.16591128882554568 
-0.023165912129755828 
0.0506671149332677 
0.034547054807478134 
0.005210668762225618 
-0.05365646701334134 
-0.0752829487445347 
0.12040035066748223 
-0.038350935932811636 
-0.18897518698000448 
0.048286721983513914 
0.18494761763715034 
-0.14589153205653915 
0.04776815638600945 
0.03673778725837459 
0.009559609304456401 
0.04126894265525305 
0.16857570436414693 
0.027927807134329907 
0.09518233393688608 
-0.1133923425104249 
-0.17473096789472128 
0.10267485049721575 
-0.02456978693551265 
-0.07335722980508971 
-0.04565255150823133 
-0.09280767155483836 
-0.019494873986291517 
0.09015270995459101 
0.1713355232198776 
-0.03572605463756556 
-0.07993127527852413 
0.12800213941980865 
-0.16783861690524807 
0.02133663518824433 
0.19264875019209088 
-0.04421568664712833 
-0.050189746107664274 
-0.09274248740547204 
0.031112760116771693 
0.01656712141545688 
-0.11229879741471667 
-0.04373100159740742 
-0.04180354924547114 
-0.16139121854661062 
0.04693778171193666 
-0.09399558268866781 
-0.1469738424587567 
-0.10701308331852358 
0.0227867117792154 
0.08811448407719602 
-0.08097115781874153 
0.04866298828686663 
0.126441601173842 
-0.09629680236134122 
0.09557565420600184 
0.17758225154736768 
-0.04866786543959711 
0.012159769197011755 
0.07015840478719626 
-0.02001265001412772 
0.008941896550865497 
-0.03920852507706765 
-0.1751485741574077 
-0.11979798003492702 
283.9558781421887 
579.0726865456858 
578.9189605779778 
579.0144155530086 
579.0247229959696 
578.933190326277 
579.1108404624784 
437.9770689590721 
0.15497375576293793 
0.07563214335721097 
-0.03976031171398303 
0.007019570823494969 
0.1592888327707156 
-0.18772809439130236 
-0.12400897574448369 
0.06549087124756947 
-0.18817049035861233 
388.3922846836867 
578.9937608421965 
578.7923408496528 
578.8433374283038 
578.8906915815334 
579.1213993318845 
578.8437542272131 
333.88973904425353 
0.17304539631146942 
0.07431584152353166 
-0.1860240992136192 
0.10222258840465143 
0.18165238301876058 
0.17068647872170278 
0.1384584942363979 
-0.12279967656823776 
-0.06333011742086211 
0.19662811325259283 
-0.10767877325713222 
0.09220769557122 
0.03140703804024131 
-0.11612927598452467 
0.1744059043682964 
0.035628308447072016 
-0.1818696782758753 
0.10341671078382808 
-0.16870249198394177 
0.136831704810232 
0.15081740122647808 
-0.1204450730171466 
-0.020319005380927735 
0.022194239030874863 
0.055833434810394766 
0.11717616308147577 
-0.12288983837063246 
0.08894415877636663 
0.004028304604695165 
0.1159862804351734 
-0.12496155278994597 
0.10734106468592436 
0.09408155452772976 
0.15966634091091736 
0.10554003629889519 
0.1074032516860019 
0.15574968602573314 
-0.15501785566947987 
0.13322755654110624 
-0.08540072261897956 
0.1429988249261338 
0.15529873461637317 
-0.15354910411029696 
0.1696235245861245 
0.010833730772478706 
-0.01509136924890378 
0.1669396593982584 
-0.09942155826239496 
0.15596232561941575 
0.08503546436541232 
0.12463002494368614 
0.1115893434038035 
0.05026308632121701 
0.029328154688371993 
0.0744948808064193 
-0.18991918247992523 
-0.09264944769158193 
-0.013886527966653128 
0.12477419180670629 
0.01564676727413672 
0.09636273186304528 
0.036628406514610384 
-0.19891939534662356 
0.1766495098193091 
-0.04657821170762394 
-0.10709357712326542 
-0.011566269106347976 
0.06638613599286264 
0.04004800223610391 
-0.05405471900448702 
0.07335419295022094 
-0.161136261218899 
0.15913484352236046 
-0.18576321892977687 
-0.04927288627045337 
2.1652367072764136 
506.2417418583315 
579.0933885570759 
579.093918808496 
579.0713899072549 
579.1024210342185 
578.871146895807 
578.8533347569912 
211.0706263328112 
-0.11297071264775922 
-0.12699128464287796 
0.05261068111345368 
-0.19977295263098022 
-0.06215432793501238 
0.18956751542862083 
0.14071067668223902 
0.18959270294219882 
-0.1149044952545577 
165.72296842557233 
578.7437288299279 
579.0037774999954 
578.9337902606013 
578.7745146763075 
578.878642751319 
578.9217744691588 
540.517486537899 
18.01262846758912 
0.04177548590832089 
0.06481102009689815 
-0.03927667846298083 
-0.1441168073709442 
-0.002270077461461628 
-0.1185129699082364 
0.19457943938996508 
-0.0739477034258468 
-0.09948805996529675 
-0.04937273179650031 
0.12036500587951415 
-0.0918584204557314 
-0.1234188096336732 
0.19887198450947313 
-0.10021237048272709 
-0.14203955664865597 
0.0261501796900189 
0.1847367907760506 
0.19156539985036247 
-0.1677513530680769 
-0.1344435076914376 
0.19550152413363125 
-0.06468689841209038 
-0.07958428257079575 
-0.11226315888145089 
-0.11438284318932453 
-0.11904657664634377 
0.10034838083431724 
-0.1358937428865287 
-0.040280867969214984 
-0.005817133925011098 
0.18016352941600927 
0.19122373225444284 
-0.18846147470866767 
0.12985037897712853 
-0.07276270484194264 
-0.07179624287797998 
7.058325026899348E-4 
0.0889347136878128 
0.08779384314954009 
0.17591141741758426 
0.182644988397128 
0.16113460763297954 
-0.03520920736543004 
0.1165567097263564 
-0.19754145921673955 
0.10391413903398378 
0.14879113209970124 
0.16238197786302788 
0.12190802740931644 
0.020173627457616083 
-0.11403527367365435 
-0.14528559043961928 
-0.030703328581886957 
-0.029455284824932093 
-0.18068435178662529 
-0.1902663506270409 
-0.014735465411130771 
-0.007363935858861803 
0.05368458253978009 
-0.07511711525979177 
-0.11679028435737832 
0.09838474059164443 
-0.12797125332748532 
-0.16007039554365018 
-0.048748120372517745 
-0.01800401962925524 
0.16993497571649324 
-0.11073945187945983 
0.09335796312272049 
0.1947824510823553 
-0.022725447429162715 
-0.11292645839775234 
-0.059547409828034414 
156.68083646306198 
578.8290580059011 
578.783403097752 
578.8867355120951 
578.8346386644033 
578.8736269440451 
578.95812087824 
544.9091281504247 
22.76279083585876 
0.16969917639302107 
-0.013443724328392637 
-0.04056632717881575 
0.012215318141310938 
-0.027759807414145188 
0.061963823498085824 
-0.13111516135532253 
-0.16648851250886879 
-0.07666470780229898 
4.620008168167725 
519.7121120647087 
578.7391208369253 
579.0716342318376 
578.7960215116173 
578.8867893426897 
579.1216833912343 
578.9790230636345 
204.32035798331012 
-0.01908699740963149 
0.01604046106263285 
-0.07701723610057863 
-0.057096808612919464 
0.04302425430072637 
-0.020693440918907763 
-0.13682299846530413 
-0.1415803447832695 
-0.057378590660404044 
-0.1819834627358814 
0.0982090899857529 
0.04194954416679836 
0.011366533409887303 
-0.09248351221611105 
0.029689172411031584 
-0.1293738921443856 
0.18822819558154635 
0.019098855031851686 
0.09920981402473122 
-0.013527970335888984 
-0.12697801578072224 
-0.019363855929239726 
-0.047792946012211346 
-0.038907031031547634 
-0.09038388980276779 
-0.10557825159643351 
0.158763078726311 
0.009747331204259135 
0.15696845503560186 
-0.07404920335490606 
0.08955599886468624 
0.17262686713055153 
-0.023135255121532194 
-0.09879793649670693 
-0.15288440505723155 
0.08626062580318455 
-0.19956931069998662 
-0.163689943982247 
-0.1830033709257721 
-0.16446702864409546 
0.13119372604250285 
0.07234463948491482 
-0.16956513302936693 
-0.19311544053822477 
-0.09932632511102724 
-0.10075646195459527 
-0.08049627414092604 
0.15584323013885026 
-0.18681579331316103 
0.026771316644595228 
0.19774284754836757 
0.05710988818554297 
0.1997304605723511 
0.19670641603554057 
0.11368280744557396 
0.1230026169436284 
0.14659122544900155 
-0.1707138557937011 
0.0016435454836144225 
-0.1438596019981564 
0.07237710896650879 
0.058267385655856985 
0.09363690061094321 
0.1448258352264537 
-0.10194063546452732 
-0.16721078856476257 
-0.041842877745127016 
-0.18533540643289026 
-0.11233281737117472 
0.15055145512695872 
-0.10390397474738854 
-0.0824628895816789 
-0.06694580072124645 
0.13565157490790497 
385.90343705025657 
579.0978129341361 
578.8430346279335 
579.114446482894 
578.8088181228617 
578.8674017053344 
578.9170183808657 
340.5333558069474 
-0.1145663910646928 
-0.14976092224145632 
0.0404034306093628 
0.03201178096448182 
-0.083300009091887 
0.17088773386967648 
0.0811908162690132 
-0.02682897469889589 
0.13756425152022722 
-0.056240265191096844 
0.07723874779208295 
304.3298776592209 
578.8122290461795 
578.7924891684803 
579.1047197896597 
578.8455018851143 
578.8721527430278 
578.7296917853572 
431.47711826244125 
-0.1519008104164725 
0.06034416259511716 
-0.15722179554437649 
-0.1718616423815016 
-0.0763677228675749 
0.17432249902291097 
0.15719520080747867 
0.12405116198899796 
-0.0899162884233665 
0.12001056050353082 
-0.1285080529979427 
0.025506777972968686 
0.10751601664122373 
-0.15746945880292054 
0.11543448291162411 
-3.991322382540796E-4 
-0.07361208827980043 
-0.08917133566879981 
0.19647350582755252 
-0.05145778565599421 
-0.172073750474617 
0.18393372704207261 
0.15387464168872977 
-0.058278052509837835 
0.06346537159659105 
0.12523397032698447 
0.0815242359217837 
-0.13170760208857174 
0.17218978528604295 
-0.1381941340187332 
-0.1858015398837338 
0.11920347534476855 
-0.016955560175151346 
-0.14971826702405974 
-0.16033872621820267 
-0.09665261981003992 
-0.08459515503121384 
0.1376959798982244 
0.029035197176788735 
0.060665683820507965 
0.08442742955083238 
0.09520321918313746 
0.1704668449342715 
0.0557758789295269 
0.09082868830419716 
0.1545143029364771 
0.14618730122320306 
-0.18112231160326356 
0.01116980164100051 
0.09134964551762575 
-0.0893544098940045 
-0.1535975390474759 
0.0035514154689375577 
0.17716228561727915 
-0.19252848711043657 
-0.11792775012113595 
-0.09504831503597555 
0.05983626855124885 
-0.19439756534723146 
-0.030261952763556643 
0.02026835520124065 
-0.06398104515420538 
-0.0600134449228876 
0.1025701200797342 
-0.010545686867793946 
-0.15780079289452129 
0.009853378335420354 
0.0888761912775724 
0.16796364322970753 
0.11859626896859488 
0.017620234884160396 
0.013026470305230659 
0.16705381551363202 
47.765858340662945 
565.2309264981972 
579.1193640676463 
579.0030136755375 
578.8833722352923 
578.9793044874024 
578.7293081495649 
578.7398412027543 
113.51976328768876 
-0.12334678037488019 
-0.1785135857709552 
-0.11735104195000168 
-0.059759849840110374 
-0.13904303321357714 
0.10944026708674376 
0.03690694993401805 
0.13361878080286105 
-0.14260066867735888 
0.02389727084661533 
-0.12579099138796285 
84.04692741996452 
578.8302401046835 
579.0702530752897 
578.9620211991428 
578.9319113441296 
578.7401830105376 
579.0232379037043 
578.7593287463454 
81.58350540577138 
-0.023294259831467018 
0.026797247856987727 
-0.06072233784606315 
0.09393344318275015 
0.10117980054720505 
0.18354977516898902 
0.06936527351650973 
-0.03330502093183699 
-0.07786963456482132 
-0.06816747193835965 
0.046506273778896656 
0.15171435386188215 
0.04331233865244527 
0.05579488772054075 
0.18487728730461933 
0.15031553271997145 
0.001860983273516137 
0.07870985307817746 
-0.1877254613407353 
-0.0718778304871894 
0.1302792932882995 
0.0342998903584239 
0.028473680558327746 
0.11886577123389197 
0.08022839921688452 
-0.05679623829114716 
-0.1354655396799117 
0.14635374412491509 
0.042361763504300404 
-0.15388952799755595 
-0.04048240823246024 
-0.1500877766677845 
-0.07347797913079757 
-0.19671098855773772 
-0.11759082098994714 
-0.011928137327945537 
-0.14080261744820413 
-0.009053749720228987 
-0.09912364502536355 
-0.05278245421715205 
-0.08978725766398465 
-0.09195183599596382 
0.13480563436470522 
-0.10362339027492894 
-0.02179126595142078 
-0.04705724532962563 
0.031403892903402036 
-0.09372718290826199 
-0.1554599871555543 
-0.16267380081717647 
0.15996976958281772 
0.19022676105337738 
0.14780229976040643 
0.07579682679958777 
0.04827169523165059 
-0.1735636897022842 
-0.16372424800201185 
-0.07755528548941491 
0.16879649289952697 
0.08562398564505658 
0.12315039357414126 
0.021627745862369346 
0.031961009808292806 
0.014991163495433169 
-0.10052255222334217 
-0.10171184338249484 
0.05470710834854697 
-0.18112782381167156 
0.15236857945063748 
0.03386669859809674 
0.04672856020108229 
-0.17156547682571346 
258.8062249274802 
578.9857709503915 
579.1216028474364 
578.7959207953785 
578.9295974437714 
579.0531834070467 
579.0380547855314 
469.9501935152526 
-0.17411988899561295 
-0.12587605696387094 
-0.08816689249148896 
0.16223065849706048 
0.12192708385241308 
0.005888242518389486 
-0.14098711274428277 
-0.027099613015068746 
-0.07049829934571755 
-0.02406519619479411 
0.01961291036653559 
-0.10890320360629664 
-0.11940099462919851 
442.59792417670747 
579.0896897709904 
578.890776022112 
578.8145578476768 
578.7495809126668 
578.7970281779063 
579.1100669772005 
304.0612817974123 
-0.04086605287156547 
0.17722689327598312 
0.16065966309951357 
-0.1617590229130928 
-0.03713653299377859 
-0.06106244816373749 
0.06426450003039669 
0.016124416892613347 
0.07625535879506351 
-0.06371385194305984 
-0.13447995115481148 
-0.19899993774854552 
-0.13184466734586744 
-0.17041676596872277 
-0.18807212625298317 
0.11121422843598333 
0.07605164285986638 
0.1357607065756658 
-0.010150019258351406 
-0.15999443902040753 
-0.044121192267851994 
0.03022712125172014 
-0.15601636986532585 
-0.16926835093771087 
0.036046830388341805 
-0.1902123653156445 
-0.16619303774896108 
-0.1204518580528709 
-0.1677000263922774 
-0.033701272341389504 
-0.10136134294742566 
-0.10568765992108475 
-0.09928775888924607 
0.19455653405490209 
-0.14509232077667053 
-0.006438722957120058 
-0.010670265190529271 
0.09424522738407676 
0.06368256804786132 
0.0469925917720338 
-0.005326637384303862 
0.024600398898216247 
-0.11653739262219559 
0.13895448766679014 
-0.062481685487655536 
-0.06822980305638043 
0.1626864730785446 
0.07902932309117877 
0.043070015094903435 
-0.00731466920210555 
-0.07163289710835016 
-0.011126702128618271 
-0.15614073313388144 
0.00557720016116417 
0.0917144951142857 
-0.037946860669580806 
0.019382395726176727 
-0.19388881486422327 
0.018561472207367702 
0.02369845099422202 
0.0447155950386382 
0.1994307905085208 
-0.19813953609327983 
0.10936685618727265 
-0.15896465206811006 
0.17223596913511474 
0.025472423293428553 
-0.06240310572495528 
0.10418041036332648 
-0.11465261195830241 
0.12292231507854107 
0.0682020312008354 
485.6791367120302 
579.0747326656126 
579.0404447924278 
579.0471333072493 
578.9168809823296 
579.0494248070983 
579.0522229582159 
240.70445903802758 
-0.019640037121021747 
-0.02748313753348558 
0.15160195577518204 
0.058880631803253314 
0.02466456223769581 
-0.10575104142072456 
0.003016113386410252 
-0.18124779475705252 
0.08819011472912847 
0.0567799585053812 
0.16806958851505133 
0.056464255660380214 
0.020100730073577988 
220.3232477185855 
578.7391079957504 
578.8372414309525 
578.8010310038605 
578.9232664418037 
578.8612012731089 
578.7891783935384 
522.1737233333905 
6.656811996221496 
-0.014236903234968873 
-0.06076539912771867 
0.09812306055644282 
0.09610390878501118 
-0.028385286244607982 
