100 100 100 

0.8612034724970956 -0.757068541929214 -0.43629870159857687 0.0475124420338342 0.5945061858512548 0.12693419082708313 -0.24010606631096 -0.28804193475740947 -0.04917943345972797 0.4431159005304528 -0.636978241069251 -0.9585855672365104 -0.001869565454621247 0.5796386820573309 -0.05052102638993694 -0.3747865544551541 0.5767843942911897 0.9447778691735544 -0.16585896708347514 0.4600259330182215 0.40948980068274987 -0.5240833320349467 0.9160769841904792 0.1492639085824603 -0.11631275966629095 -0.9575669168714678 0.7472103543067712 0.2591012301642823 0.22121020165691285 0.9637315704857283 -0.5383154576000679 0.4517786705191229 -0.8885371127662167 -0.19687500504772038 0.8462666489329849 -0.5124367383378909 0.30817716041137033 -0.899774376283702 0.5372033595511425 0.21993485244033195 -0.8238619885576195 -0.23104334786777603 0.09651853602234683 -0.6957248326214425 -0.2769057240253405 0.5152500223587502 -0.44917776415201005 -0.5014609498327993 -0.7365991112343402 0.8179475221125445 0.868277595853318 0.15508969517701354 0.5337653437263474 -0.23162295140528544 0.8044508568652597 -0.21391699794875496 -0.1821996327361386 0.37852841100066414 -0.43465220377649993 -0.5695101921290007 -0.5650871663390404 0.8447055082319865 -0.18398216338409323 0.9590469002761535 -0.1896134470274884 -0.30701372754377276 0.7056853520004576 0.424132416566001 0.2673447271116922 0.7347731091933138 -0.21455437207147576 -0.9052380087055061 0.6676070156735892 0.32517178359895715 -0.03785849190697643 -0.08739199267015185 0.07728258411369393 -0.45611248448028396 0.9621143322618388 0.7631450125475641 -0.2557298759769713 -0.39221772580085035 -0.8288989881478952 0.1767285183500491 -0.15133669619523205 0.07618889039480115 0.17162784924278696 -0.14238208586316015 0.7233881102681501 0.22453188760939646 0.8168285417210934 -0.2153438399873946 -0.4587730416950404 0.33875648092621935 0.25969369770041784 -0.4644763010383066 0.8257127404600917 -0.37747732271161416 -6.645739887791713E-4 -0.04281477786367671 
-0.4321088922009148 0.9131096058977278 -0.30403116155107157 0.33825601375750103 -0.8082892431182731 -0.5495320013251249 0.39269234087512056 -0.16394262155989528 -0.6587518291127542 -0.38107615572902015 -0.7996384262516708 0.061758833325151107 -0.5407263927541429 -0.28287820900899 -0.8109566760854457 0.47350720051318057 0.02943984105465123 0.5020036883683934 0.3328086251765605 -0.555412492921355 -0.5310542359967114 0.8610301835792793 0.6491205128917292 -0.13784820835481015 -0.8723218849092499 0.38990772531994927 0.3487902187356104 0.26394127862569433 0.8881845313951497 -0.5460341500838389 -0.09544769097470235 -0.16656890276655908 -0.9424213332393399 -0.7614718475945369 0.9886808879251711 0.8401512648193397 -0.18812249576821521 -0.32892886537037674 0.13514887762023622 0.18174754207911992 0.29651269510907524 0.49695627905241946 0.3745155028853421 0.6814862774711182 0.7116785001917252 -0.7081562984321214 -0.4730896006908685 -0.3594032598348439 0.267986594742825 0.5053805372237808 -0.8710856689081765 0.05811018754441825 -0.17233867801212888 -0.571155885199187 -0.15075692091953632 0.3967719668497899 -0.36207865764651354 0.3938611538006721 0.34151233557822713 -0.5488218360899412 0.7227773075862426 -0.46401664736068743 0.5653797942399463 0.6112428948747902 0.04931769887563905 0.44838128412222894 -0.029847014902381987 -0.41617990907114294 -0.025015074111147118 0.15804944070140797 -0.9966116500294825 0.4361635440579766 0.04601719587776982 -0.7956877782207595 0.07012820301975382 -0.156202889527365 0.04925224629329415 -0.15261239352934455 -0.32570606816970543 -0.729830841728871 0.2718729872673994 0.5583755861678812 0.34770387984166573 -0.958304074141272 0.6733159232046115 -0.38535253472720116 -0.1269523157007033 0.812601297740617 -0.5775208892983487 0.06576155156683514 -0.1774403177031881 -0.7969095160148038 0.6609503677096137 0.5193125396452545 0.26688767334641067 0.1746413208854013 -0.5244928000887512 0.290280904493818 0.43339453585894594 -0.726008604390948 
0.3877106058344193 0.6788341331334367 0.2744676699728896 -0.8031510562549296 0.37830924875723415 0.09401247889313202 0.11729002388263488 0.5181536910812399 0.13582387511892335 0.27327227268593335 -0.41305133590636656 0.9109795466599837 -0.3539643894130786 0.3080994950582361 -0.1707809429075564 -0.4863740228641589 -0.6661852584233314 -0.11958236725737215 -0.6080137740979132 0.19220987737861228 0.33174878768607385 -0.4683128999404296 0.7511373249255111 -0.581308806138285 0.7933435951645897 -0.2814022928367592 -0.8945775951415558 0.9501699523897904 -0.4053918700242698 -0.08823808278096257 -0.23055354334398048 0.5277774685235672 0.25416253411661893 0.05827153321678624 -0.7384664885728658 -0.5908123718597902 0.4508361030295678 -0.6440682476841837 0.013281273127261572 -0.2930227159923333 0.12905146651556532 -0.5235583280335827 -0.47979636468503273 -0.7742322163666386 -0.14388240091502502 -0.8732581230238781 -0.2920640809700439 0.7742830796219933 0.8318839642723275 0.15220337243238924 -0.6939438199708035 0.7741625544490365 0.7500354188562199 0.26228564858369574 -0.898346019933564 0.39557013684417885 -0.4283644930010706 -0.10125579384852812 -0.9126441331598831 -0.5796552481756265 0.195354550460334 0.7684213116420129 -0.2764044962533787 0.5666388724823526 0.995146552096204 -0.8728934576702745 0.8024938772996668 0.10469729334142297 0.24496722356582756 0.027907756841763387 0.730793402977437 -0.7483709136029062 0.561453292060031 -0.5629753250079852 0.441868363883237 0.05373058514712081 0.669312065429436 -0.628228127473863 -0.3980888371862161 -0.7518809239888484 0.03049771576308813 -0.9698496716691591 0.2929730128073136 -0.05885891541800081 -0.8229211548073121 0.25821983267379256 0.9356153875151694 -0.15077850579712293 0.9490306542798916 0.6409778897218719 0.8565062611191896 0.3185229980446811 -0.737987613576762 0.004404374946755496 -0.38862529405524504 0.37298914593208976 0.5165193833085953 0.18078242605649675 0.9413131815591169 0.6360459704394625 
0.3161934301750243 -0.4612202442069064 -1.0940753664455527 -0.8716215111732281 0.4931562571124137 0.7936269751991014 0.9362115499953981 0.6796480426308867 -0.8901250038778769 -0.10605206371614476 -0.025326747508741226 -0.10811614523951356 0.07808592840400055 -0.4908122524229682 0.6283934551915471 0.7217984826575005 0.3525409317952183 -0.16067771903685404 -1.0288739141121925 0.4308082078891511 -0.3206532260308465 0.14156785429565252 0.819065694728511 -0.8070549159572751 0.1760300142518049 0.3778415287229059 0.05110082055667018 0.3645654317082693 -0.045947864407037055 0.926925277931364 -0.74357423289887 -0.7191995783822916 0.045420745906731494 -0.3900682098860885 0.5326768306965707 -0.8337929070143913 0.42016498956000775 0.9100865213821118 0.6628692499284238 0.6829732748348231 0.7938215436421233 0.5122360724907462 0.043136221694871246 0.15153735426328407 -0.5900837727709182 -0.9675133410501512 -0.2584912870709579 0.6990323758816185 -0.5059575010896289 -0.15979954210422886 -0.16305378667849368 -0.07013519951525468 -0.9347649488515453 -0.3660106190861621 0.8072057358005424 -0.49421347412866706 -0.567384638687193 0.3476739145564386 -0.9145413182797248 0.5191198716973905 0.9724033875525401 0.9858910711271781 -0.4820356770338524 -0.9327400988688875 0.715384013863515 -0.9991995349029181 0.5200649902590528 -0.3035507465474547 0.8313747981194042 0.4802480115359848 -0.07022890959809196 -0.6397595313138075 -0.06565156348659038 0.09458721902811199 0.6767782959716793 0.28880647713479135 -0.7041731623782146 0.7074467683736924 -0.7514539884461843 -0.6239569185421858 0.017095502948784903 0.520938823608458 -0.8772497011882207 -0.41707293506415427 0.21855343140659753 0.004949767638456521 0.1941344871928886 0.36237858702140807 0.6793217654078466 0.06827923630290933 -0.7824837841998361 -0.6657178430985309 -0.6446470748641064 0.6869586456049085 -0.8517756021700127 0.44000062377297794 0.43886449478782974 0.34629612394807036 0.5076088323930746 -0.1555829422960178 
0.45389655429722287 0.5689081593739311 -0.6548090964614044 -0.4645393830762061 0.3283623543332568 0.13375458580438182 0.5129261283371429 0.4678229485448542 -0.2171346109362451 -0.320399560187143 0.39088602696070196 -0.7565429089880451 0.464156059740358 -0.945549933259374 0.9569950964961194 -0.67356957595697 -0.9453235709287646 -0.6074348186817842 0.7015180746169205 0.4230837681732802 -0.28040196299813025 0.8450855371549688 0.10681354715837066 0.4002523255652355 -0.45906280552430445 0.8727553043865299 -0.8626109261579338 0.6572240586506661 0.16146570894496115 -0.35768088101219364 0.010826733238215036 -0.9825858465888606 -0.5275384347609984 0.2576065112759256 0.41272613229138644 -0.07356175853171787 0.8531737220791744 0.3082757260108784 0.27388993306873655 0.026468658286411317 0.20620273225522512 -0.46635882008669216 -0.7544449417629222 0.022463452176840315 0.8318264096070889 0.2759621298942443 0.08855097693902514 -0.835941750657232 -0.9543711123831964 0.8370228613771098 -0.6651553643974648 0.6376168249267615 -0.6323807184156203 0.8537885197180388 0.7850093857592348 0.6961371067228259 -0.9026466249144254 0.37337300609447555 -0.32726604533510684 -0.5495855932020393 0.13840152033938358 0.4345090629616635 -0.34243510096165464 0.9030650689208062 -0.9531675700065034 0.652163458690947 -0.8003449720069347 0.027718410160908036 0.4522119435500196 0.5538938046397164 0.32536749135666865 -0.5211135543956738 0.2359428107834265 0.2309959741024803 -0.6898362368958997 -0.1362745342988294 -0.8493987375456311 0.24444457653009333 -0.6147179133483374 -0.584894397309095 0.9252517808625116 0.6650824588006325 0.21729091045744986 -0.6238920498562281 -0.6744470365176878 0.6294673276693661 -0.38532048184387135 0.4392723064116464 0.12379184728669679 0.8572377410837162 -0.3167732413754605 -0.8203787847776538 0.48281529805781664 0.20281344375274357 0.4819671370224474 -0.4213108649082773 -0.13084685291742204 -0.4963025433023338 -0.8758494752990098 -0.5425107163322536 
-0.7155430974256298 -0.26039760789208377 -0.7773289503943872 0.9195532450255455 -0.6592945146062505 0.8310736733032833 0.5970184055139731 -0.24911880198884973 0.503458399182704 0.2832386026067941 0.23888256687484266 -0.8681545302714961 0.6887629311590402 -0.6802391748475578 0.6761217890350091 -0.013209426924839951 0.323153050736263 0.15403436984148056 -0.9201186325328263 -0.1697211249696211 0.9625029894109438 -0.3908959400507206 -0.27277140682710166 0.06463144691877654 0.6143281201789923 -0.5752480597517742 -0.23825175902511742 0.3416193767632876 -0.980546311964684 0.2796432100088857 -0.4128798894743986 -0.1781382258843136 -0.6772000667849105 0.8083772698602809 0.6837790636139487 0.9486909756429387 0.7993599573307111 0.7077440575558434 -0.8436643442865006 -0.30105155410671647 0.6002753823300608 0.40343714115844187 0.8995135136153349 -0.8186220670260067 0.8452427743188806 0.6879299721646779 -0.08706175676095196 0.9239850469014133 0.8113116044040314 0.2421733316942538 -0.9998096874032487 0.22493669509804892 0.45446315049938546 -0.9817737094608538 -0.14488743568487106 0.5372757413999438 -0.9508126998564606 -0.9131146707604239 -0.6315584087141537 -0.9840700948837973 -0.6573967421918947 -0.256170273129116 0.88040910155472 -0.9238025327903701 -0.7065029151539362 0.4197546155852221 -0.9399605079441642 0.09609457964781698 0.2029778294550464 -0.7455843540896687 -0.890554156320714 -0.7593471979647515 -0.1577174377590702 -0.9285369580775067 -0.9284935407448982 -0.20554191444153713 0.044587519453620494 -0.06960452791069849 0.16188070898161144 0.3594263212554045 0.15151173443825972 0.433917379157174 0.25140264271615753 -0.19198715297074642 0.6913274916272443 0.5334367539037226 -0.10753304073565473 -0.02224332232246251 -0.2852804990435387 0.7023930280257968 0.6131024167684762 -0.24873612016345792 -0.6747367353678553 0.03655846982030431 -0.404996136376214 0.38643690942813835 0.11562182843539293 -0.9075910127350921 -0.6931271112023873 0.7449602769292902 
0.4609133401290787 0.1013418696519173 -0.9077713044633055 0.412175466193183 -0.2338744540326636 -0.5213107575873357 -0.9962584461251215 0.6177264475256589 -0.784503795283582 -0.2253797360727763 0.3475313691912078 -0.7083973069260645 0.30543923429069275 -0.6042396659697462 0.8736284403106408 -0.22178178260321796 0.30260173313984473 -0.8796698812502799 0.2055422570013749 -0.06949893896438362 0.5869257068562629 0.82032998684832 -0.40652776006524993 -0.6790818982096898 -0.5271556927738011 -0.7296611043769156 0.5361080224765891 -0.5108379616850253 0.8377152916611653 -0.15696111399189006 -0.5319538237679493 -0.516749218801714 -0.7395736702816857 -0.24250089666002062 -0.24882169486448188 -0.8047920045748281 0.6703691766290146 0.3011848522920686 -0.8864964638172043 -0.7546546988552225 0.13478973773237043 -0.48164611430559295 0.19702050678839844 -0.8265080970184955 0.017899289258236067 -0.269343794579045 -0.6509352025931855 0.9786345650315098 0.029346639238203874 0.17741246007401476 -0.9288400762872666 -0.07548348302945457 -0.11092205940901222 0.09179154714249198 -0.9613093772552626 -0.09177570544759103 -0.7975407152902338 0.4434954824350952 -0.9229446053160201 0.5257306909483188 -0.8971136879726269 -0.6462541038622962 -0.42233742132546376 0.3490722518772463 -0.788477276718619 0.9399898531111565 0.30101002472679306 -0.3053675506014221 0.18725627433932052 0.9807637750209832 -0.1006934756375784 0.30114311500565966 0.5903473561544108 0.05327358438956754 -0.8680563917699826 -0.029167640056885158 -0.4687594543833389 -0.35072522069791523 0.7319525035180712 -0.9950592489624629 -0.6663348549956284 -0.9307526168488637 0.16240015608958058 -0.42129753139315196 0.06985578901038934 0.6707358324886714 0.63146442318303 0.4696818720980019 0.13758538618323854 -0.3786371871432419 0.23950147148843015 0.5596235733705712 5.38639389877282E-5 -0.472051658964222 -0.7724474594008858 -0.32956154173759905 0.13823379274230768 0.18085364041956487 -0.36770669389138777 0.34819357915985705 
0.09354502639472972 -0.5287822435308771 -0.7849407402319577 0.9596613407235808 0.30646436719056136 -0.06862522554994022 0.9599723925227532 0.8622565940467775 -0.25754523388077977 0.4092118525491537 -0.5916765794921337 0.46876553873107585 0.8040736394743493 -0.798590030591922 -0.35974136149070324 -0.550510983178873 0.22726709837186898 0.3777975457446734 -0.0648374613293563 0.4249939326740335 0.1563426641868464 0.9598374745876164 -0.18452658320219273 0.10988037834054354 -0.34213637058618906 -0.17648756343487682 -0.38973870286041223 0.6223826778009449 0.1832908771971291 0.014656778655821823 0.18999566962518855 -0.9839811985864928 0.7890269258693274 0.5417377916310726 0.10401009245616022 0.997703774793891 0.2838455575047141 -0.3494576476156983 -0.005251951200033522 -0.7325529421915409 -0.10248230212873466 -0.9128230995224427 0.8679520923124051 -0.05204319012475267 -0.4492271679524147 -0.07975709840370171 -0.434462267359617 0.16817635159081745 -0.6444368611941234 -0.8799970534720691 -0.38202968201635823 0.02298251303673804 -0.4140738618422337 0.2818052474305479 0.5455423740141045 0.8519777834431888 -0.9664313543636429 -0.36701222476678375 -0.3669739835814638 -0.9364891023941126 -0.6013753455089419 -0.22306349948022985 -0.7802459278515745 0.5757653804962037 0.1648659558976373 0.5049248869734808 -0.3727387965204414 -0.645043516405414 0.26997409949886353 0.4458158487488362 0.9891940001095225 0.5013818418343181 -0.19469035778036425 -0.6743412321268802 0.4532784758936781 -0.1327268256702785 0.9659422741582673 0.1736696102893951 0.49270991006739284 0.28610027325639065 0.5205350153726946 -0.06196672482103849 -0.6055904720063352 -0.8488189645091455 0.1820020907549993 -0.3355788154996022 0.3841692823554801 -0.6978454633296558 0.4336894213958875 -0.3579286755364668 -0.6962142162657683 0.9610779185839158 -0.39784552066338486 0.7367284944088479 0.27286038514510325 0.8056098932774705 -0.7335501503085313 0.5066986698082045 0.3480231314063571 -0.8250521945531213 
-0.5448561906776135 -0.36227791182017377 -0.16508621277372026 -0.1251125549058052 0.5061390313612533 0.7343240391297066 0.6133334115747953 -0.9184210202708467 0.9506778751605336 -0.4302444156807175 0.6035569334417579 0.4392541582749925 0.331752750953096 0.5235882518919754 0.3318752864120462 0.6054042744696881 0.4784655454552893 -0.8745184166848423 -0.5539855108213709 -0.7824088467795953 0.43171089361997117 -0.624405403732023 0.9861566492154779 -0.4607243774529848 0.9528841095532612 -0.17343510562689302 -0.7651339349134674 0.8877530135093235 0.34614425050524233 0.2889336145341017 -0.9506983953877821 -0.6445139915075904 0.18608925709881174 0.4613463638651534 0.7216752056185567 -0.6931696036918564 -0.5334694866725451 0.7888138138025673 0.6189938653141274 0.6653507951196647 0.6723796202397954 0.41676913924638836 0.12070076082553327 0.10262805554601817 -0.6745091299693611 -0.7643883554104853 -0.2970903593690435 -0.10233881926405974 -0.3333710816985027 0.6998802527266925 -0.5894958773315278 0.45667200592144885 -0.6904393228230699 -0.6418473035420931 -0.5865477946692998 -0.7336778074791357 0.9395979475345009 -0.15578017961141066 0.8612642946460247 0.39905643401217294 -0.5722542449420487 0.4570372595178229 -0.1703992676830648 0.5974877185186023 0.09293884480671943 0.3964105175207908 -0.2043863051435666 0.435444993524406 0.2686779749168602 -0.7766783503197094 0.7836858608342223 0.08650538616142778 -0.18329549140475287 0.17825967056202785 0.09080661658737732 0.8265372250638545 0.7791813415307915 -0.38213076379120414 0.3309045687701886 -0.44501702979435453 -0.027825064403983246 -0.9803134778834024 -0.5699665001270942 0.340313500668179 0.9970621660398007 -0.24331771365745203 0.15938674625957083 0.27828998736458255 -0.11718606254779873 0.15778750117454132 -0.18930689797635591 0.7973707981052474 -0.6290649759896481 -0.7524717771910712 -0.3013739161376805 -0.04619418220720317 0.7161680108205082 -0.0026490029845629426 -0.6825648009711727 0.22966182600834628 
0.7998976614857842 0.9231718411328866 -0.8159122827754757 -0.11977218300887782 0.3395198865031517 0.4281357355274229 -0.33221390044856647 -0.027050031234534755 0.025866827133862236 -0.5834729025381429 0.43580501797684623 -0.0817487499749856 -0.4678901131296831 0.39422355606586335 0.5381700951532975 -0.4867076512835944 -0.4886122090875098 -0.4769602395057666 0.6087783453082452 -0.6970660695194628 0.9367370361556171 -0.08923965514343934 0.17813851752386545 -0.5921358846752449 -0.5642700107003014 -0.20438562568280072 0.6729878350453036 -0.12194235062981162 0.6335521736808452 0.22339707045733936 0.3206194220413423 -0.8995643520691243 -0.05791866600844342 -0.6826025931127726 0.8808331151807411 0.8227997681512245 0.7188564004005134 0.3057432914749143 -0.10399964179856203 0.9518157966541041 0.2686537284222523 0.09772953922073957 -0.020187841208128 0.4410261819001784 -0.22828317429957967 0.3901462592426046 0.5578566650971761 0.3055733993932783 -0.10348807332135634 0.03657940216190947 -0.571747911213208 -0.9164806602693929 0.5912120656722253 -0.2728926252918047 -0.47186244123012466 -0.09065041145382002 -0.6530611396911956 -0.09722886535018782 0.3719038920993094 -0.2265468307523002 -0.9128798696494722 0.2686488987200888 -0.2303770288445901 -0.4879265020739636 0.7611494334864175 0.2713183534739667 -0.3607857697005652 -0.3945725552626309 0.7068613448495233 0.4709437031411743 -0.006536786269236483 -0.042606310219425625 0.8951654202922252 0.8651773703764738 -0.48691359145142665 -0.5116254663317756 -0.718491520050262 -0.08848042382943744 -0.49038558931617793 -0.4063620429047441 -0.3373357754663948 -0.7532685432717501 0.5369430491163019 0.30265048005876305 -0.3263230990153112 -0.08364819192422845 -0.5720184488059985 -0.6793860746056846 -0.14138665389806127 0.30431927475962284 -0.8870970364784505 0.04162307616611538 0.11010698508377215 -0.10784426537171599 0.21808241857104127 -0.9064369950869005 0.19650398484109655 0.479119797113432 0.1498849334278396 -0.9919301503758431 
0.5817515709177488 -0.4408081233397083 0.13504420113607507 -0.7954198677435091 0.2919952831999988 -0.822293956060643 -0.48054932916201043 0.6356979171327468 0.19418055689267688 -0.22010349957503594 -0.4802539127042056 0.16181192692272184 0.7257826237414138 0.31558030202432175 -0.42280037698555417 0.006098110285267966 0.851115665258398 -0.8213502247579441 0.4809191281531764 -0.5132546111170224 -0.18149817449333883 -0.5629967107118503 -0.49247215203283323 0.6314468296535023 -0.8460926460330196 0.24799389117519532 -0.0329825401328705 0.2499003139390541 -0.7495179258369051 0.35642988443583734 0.7495637898480021 0.5732669151299308 0.8997667000321286 -0.863385569190243 0.735671826377825 0.6652372699274116 -0.8408402273392601 -0.2331364278287691 0.26209328440161195 -0.532439234870923 -0.938435182629753 -0.18560367030246083 -0.7714609374236046 0.563593818753569 -0.15303356955297565 0.7604425068855385 0.8852864002944552 0.5266281400373869 0.632011783507983 -0.19013205694543345 -0.14064067209805176 -0.9345380252854116 -0.26749774357466705 0.7065694495335939 0.5570383421637619 0.08788094374011668 0.21502836829383454 -0.7846549549834416 -0.2769659499099921 0.2734183770995433 -0.32219135178786673 -0.5671018025107635 0.6417372745277603 -0.22003262608876573 0.7471222856789022 -0.8449122136999365 0.23353653296810406 0.30452089768261614 0.32455176441904277 0.15448895580782196 0.12927133710255667 0.8765185842609942 0.23158218719857304 0.4117826004865739 0.6984686499586144 -0.5170170326163792 -0.4280703576423115 0.0964451057744542 0.9620874871495191 0.9078295192702941 -0.1316988370763046 -0.5933380195305058 -0.6619250933676695 0.013439447018728456 -0.17088443056563074 0.25534386386943897 0.2481145437066945 -0.8992130397016571 -0.5379570165858083 -0.7714257506082778 -0.24347254211437575 -0.044885016310517 -0.8249500826873695 0.2447736297562535 -0.3826371243869877 -0.2826426772387389 0.49196283354250925 -0.09268364807814589 -0.6267059961653825 0.8172087820410103 
-0.9416065399648497 0.6702900544875363 0.4800136595217688 0.8619460958787293 -0.27480412397201337 0.6265414474700577 0.8224009728074957 0.5958076707106665 -0.32954613635759755 -0.020896476773732964 0.44380956866686017 0.827942254447851 0.7573253210437256 -0.9284454452909561 -0.17259478807060624 0.572639590157525 0.6238985323922672 -0.7701892755724333 0.6485598334794174 0.5537596980541151 -0.6374570029896607 -0.3926918666906869 -0.4401144344991277 0.6959807978042563 -0.9299337707250428 0.7274827464585516 0.27557220537056604 -0.7413120704084601 -0.9636849324863519 0.48191050952739367 -0.010731886992623174 0.8640287229667103 -0.11231037225269613 0.9694218520610267 0.9898240048187434 0.8288651460889698 -0.38663543674265743 0.7509594338876062 -0.768203746754399 -0.06894684344485613 -0.9241585044971632 0.8468998335704498 0.5726848893854237 -0.976314180395844 0.34378434256316615 0.1180133944740045 0.40645939150298727 0.7566381997607214 -0.01608287086230331 0.5481903526156955 -0.49699595566167387 0.07295527063034024 -0.6899077761645589 -0.6134870706304547 0.005691729200668849 0.11832779082168465 0.5114653381974619 -0.8917922947229524 0.7443741483838928 -0.26489616668238813 -0.4319590948753089 -0.28153503590950946 0.28865418277919175 0.8079866529375301 -0.08931935783158407 -0.9499354792649177 -0.5036158235618182 0.38677315965724635 0.893995382782661 -0.6047979549759399 0.7049118998127939 -0.2678100854407319 0.32436893419484814 -0.9361391507109711 0.1676747479436289 0.21408703841387244 0.5216902906283931 -0.7244704605791703 -0.14368027142067152 0.33695331962990505 0.6921994986033351 0.16801728188772236 0.3286067862598012 -0.9240807687498085 0.7511794990886291 0.646572658048723 0.004928123972771203 0.17711699588116092 -0.841944468292533 -0.7015355472563922 -0.09864210200982892 0.10947110416045525 -0.1872092913434189 -0.33736340542248455 0.6347220695028122 0.9506946838594041 0.6112956804449352 0.7710015820740677 0.34525713346490616 0.6484709159074875 
0.874399971166535 -0.9163046873861792 -0.044684082352060984 0.8177278762673537 0.3342186329765445 0.5648591899768656 -0.9119272521915697 0.5288444351830399 0.5510321986998975 0.34489003783713795 0.6928434698067553 -0.6732798598480391 0.5124004232134614 0.8650960804768685 -1.1393870061867912 0.3352529619090222 0.8591296046065274 0.3461757226572092 -0.3584958302457333 -0.2560141277933913 0.13248766058899084 0.7755852377427319 -0.903655268449104 0.6492138831992966 0.7859612147298835 -0.457900751589186 -0.16081632153995193 0.26701185886534856 0.16986807574782314 -0.135725818423013 -0.7463154863336816 -0.06772583066642938 -1.0081927979441239 0.2509372858353583 -0.34276084268156803 -0.6164865735031738 0.5943335132780303 0.9877481846298254 0.24174502878882634 -0.590765654850769 -0.017116442829899225 0.6346572109645173 -0.3615963410134013 0.9888969499039435 0.744539097442082 0.3909744432515561 0.8908164761274602 -0.03042656239843015 0.4233917419483733 0.6004874561625866 -0.05393318156135768 -0.16938575353727184 0.8895664680270124 -0.9599206559087833 0.3707693979941557 -0.9164532960786391 0.06598220119140111 -3.395233250544417E-4 -0.12699104951339169 -0.394885998558179 0.31178450400509955 0.4858277607190988 0.5646718508936022 0.48957273876402646 -0.6191672048829183 -0.012656937290454627 -0.9470166758420759 0.6191936751967952 -0.2197227646291855 0.33390119756305353 -0.18800429149883524 0.07636036581256246 0.20933349123572367 -0.7423357117851705 0.9667111677622605 -0.7481495091272125 -0.6772531029808658 0.6120912835359575 0.40893458118383347 -0.09512763994256393 0.95320472050616 -0.38468103871682136 0.6575168870082605 -0.9746371973348339 -1.0427182796060965 0.35253673066438695 -0.8529957156012158 -0.6369577546201098 -0.563451894144588 0.8498287398092603 -0.6210529696167123 -0.3691530076370608 -0.49567590056296273 0.11753712717883355 -0.7783911661827333 0.5249074168595852 -0.5304657203135278 0.9882997219685055 -0.20630272329325183 0.20066973067482866 
-0.8111330474210319 0.08232935333418268 -0.8671139402020265 0.41793997811780104 0.8633123589991425 0.651176669007824 -0.5861053347337717 0.8140911771830375 0.3365826438107036 0.17286451729871954 -0.9162966238487484 -0.2906228065235317 -0.6575591013478164 -0.8229602695164813 -0.04084972687595112 -0.24698409321229664 -0.5611154127861804 -0.6788126359490485 -0.4424149065235601 0.6884032652343004 -0.6329951107477583 -0.8748097228698848 -0.9268083683966841 0.6268655752391934 0.9770624566745298 -0.6611443724560377 -0.7896479268447714 0.33917576870398936 -0.5066741782736628 -0.8890732391615181 -0.025299033367844004 0.7890142605323389 -0.43695446741747146 0.8800508304864016 0.4775934110342557 0.4157607851143186 -0.728734287752091 0.2226274186083721 0.8272907728815568 -0.48029510475340476 0.10200269883969004 0.7694150552975734 0.2602456648923377 0.510967042012336 -0.3123505722252755 -0.2577737756064864 -0.19155502121191215 0.7541244417985273 0.11229029541436031 0.6639947207347168 0.0038491615594498096 -0.7262599978231514 -0.479057971277439 0.3599520289233811 0.3885431579316885 -0.31830530347276254 0.8355616224930227 -0.5053972304607863 -0.07070697161590789 -0.6545722670642957 0.4899930361042575 -0.4213577481298094 -0.17221995386194755 -0.9631085626009965 0.26984984337145135 0.6319124084337251 0.6728624787425568 0.08523131910190429 0.5796613558559767 0.5029449419706662 0.3987932867768107 -0.5980956008506002 -0.2415629162406725 -0.7774049275843093 0.09340004099021648 0.6551525603918467 -0.5738683499068122 -0.291279505034691 -0.6571885002877291 0.34145056713174826 0.2673221451926875 -0.3591853927102142 -0.49560635039925893 0.534751135395457 0.14473629034956215 0.3879563234240777 0.06713546226746403 -0.30994656239705165 0.9840994067107649 -0.4996097023187174 0.0888040180502605 -0.9639762505559084 0.48309465111676797 -0.5354932034986657 -0.40823518941735815 0.8121003035818561 -0.6289386824095715 -0.8270584161608991 0.7544437502563843 -0.1112820002110726 
0.705080471666327 -0.05677606895632195 -0.7407374556700296 0.15179868457129087 -0.35681199864015745 0.26855849817803445 -0.841564410095152 -0.5148949174016592 -0.009773072586352368 -0.48842868506847675 0.17005640599684618 -0.09525663528222014 0.43975077451719075 0.9926194294991286 -0.25579939872669605 -0.21525177928362882 -0.023055402906909453 0.4510684139800886 -0.6032101957220095 -0.9716312876258072 -0.5616063955624528 0.6856427984072574 -0.7226590756874912 -0.5900132913825908 -0.5435411090733796 0.8906433029170676 -0.04759398117609544 -0.9251558807318436 0.03164192558979746 -0.6159752199575348 -0.8249193875087428 -0.7370250612910128 0.21892345783292227 -0.22914008188716195 0.5591771616535653 -1.137631579215883 -0.0457241943052547 -0.20844731915069686 0.6943300233642815 0.4501676088648321 -0.37547595467122447 0.02095315255462336 -1.053176030403059 0.13632756039039146 -0.8439065690191621 -0.12190970489770207 -0.6320135780023447 -0.8181097358383741 -0.4771287241593264 0.435315816916488 0.46624874804092353 0.2518383955879537 -0.9944550633808433 0.6024722394198252 0.35945205808810526 0.28771993219960573 0.8014615406792934 -0.3117183836769079 0.6552856459732705 0.09523829700928854 -0.3997536345826742 0.9708933880490066 0.8972891016241903 -0.18851053732651532 -0.36475552458421506 0.3784159777702994 0.13605676659366955 -0.43276939980403933 -0.6449277805159592 0.6655861104097845 0.19364286145698126 0.837923030922768 -0.7892775214194914 0.6868409016538282 -0.17777412445116367 -0.6493819230106683 0.2604070186811072 -0.7010792987612559 -0.29820114126417435 -0.9577981397977061 -0.22704212806544993 -0.7446603545609639 -1.1879538171453414 0.11016463068585637 -0.501250078465941 0.40109880681846033 0.19204221275140632 -0.5364882888590424 0.7413776419840947 0.7839789442461378 0.8599573160899152 -0.8272575492446612 0.5635173207595935 0.13004509560372812 -0.10415580184271918 0.015958910321797498 -0.7460020179971344 0.9882306473783853 0.9570300930869438 0.7053580672031531 
-0.35613137786367943 0.9046073717698084 0.22976010328052365 -0.32977566999996566 0.03581102976312711 -0.831193722086814 -0.4702123016351596 -0.9161223270767838 0.4257974475287629 -0.0011279706007594203 0.6884642442240001 -0.7442127626504509 -0.451463153583616 -0.031208998346725414 0.6482046666012773 -0.6039074044155603 0.15382500706367486 0.1517256198867003 -0.5822681164079984 0.4060064810285775 -0.3493754400792657 0.968805323011797 -0.5256938401223354 0.1940821906984349 -0.664914057837624 -0.7606343784620937 0.02604831665576235 -0.8568208420814838 -0.7720398378659454 0.26130990365347584 0.5514107881145047 -0.8250359757081105 0.34568369948965727 0.6272217178539616 -0.8870731965867484 0.2669897138778754 0.09074312819492181 -0.07869252497952339 0.08494784962717139 -0.7519034896020649 -0.6292441742897545 -0.5557961519795549 -0.8598429840710173 -0.7689167514572481 0.04203059371048856 -0.32286371864734775 0.6072234550161544 0.13729925093785833 0.32220057763519283 -0.6761309301845428 -0.35795748543531203 -0.5739888043537842 -0.07215083671643985 -0.5416610169074809 -0.9524174406523922 -0.6378980432907206 -0.13312304747182924 0.5578203762686262 0.032439829120060715 0.9388616056298498 0.051686652589243876 0.015918988540525092 -0.28422151600910417 0.9183341650781682 -0.8019089445450627 -0.8933510540763894 -0.23358767560019622 -0.6401136458217724 -0.16382398594252745 -0.6897030360628571 0.20636360309297763 0.47836821584122413 0.6831809829517672 0.41373319155352295 0.1143101298251592 -0.29356197500978465 -0.8852156108782947 0.8622804286104997 0.7319125227365904 0.4313279839780537 0.020012916378691514 0.46720648951316224 0.3060898043444773 -0.965471224483279 -0.06368086524124728 0.7623580081743437 -0.1071092427901843 0.583576143684057 -0.9647992020515668 -0.9445934775561917 -0.6963142833844191 -0.19167611072471358 0.265064408029962 0.5336316845487332 0.39198203347449256 0.8397921196767488 0.7568619996748254 0.6611185198458134 0.9592454259064849 0.597882219163028 
-0.5406405738081899 -0.45630059445020876 0.7006851569996573 0.6849531574397199 0.8947219989815245 0.9399249269033929 0.8170421612743202 -0.824543491499623 -0.08856802881501813 -0.8392001718010114 -0.8140052825631154 0.787531756181729 0.36037977086023476 -0.7720258711964385 -0.6831236880600069 -0.41933466770887295 -0.2687005965406102 -0.6504670854960373 -0.2950230899695805 0.5442207487857211 -0.0394528959656526 0.024480388404582998 0.6567786240870757 -0.7751499522374006 -0.14245087028235814 0.9014677813323091 0.17505321641936855 -0.11350017613177443 0.8960739533485653 0.8942679076179454 -0.9271719250150978 0.6049286009795545 -0.5221882120877808 0.9959509121827421 0.12780520257928085 0.16935490833437972 -0.800427724118804 0.7356713640743218 0.7938958828679885 0.6970588782410878 0.1417393772009281 0.28642698184124993 -0.24588850627082914 -0.5375364650032184 0.7444513719705137 0.8591052820945673 0.42912938343097395 -0.3995757909866404 -0.550699580995847 0.20758502919761135 -0.5515689964848178 0.06415876103282447 -0.04182364091198654 -0.17838518694636862 -0.9540128431346102 0.5014534557876542 -0.3027947439630112 -0.30135787509822975 -0.6399563289879628 0.5584833462384042 -0.12743667870940767 -0.5372792539055717 -0.3033612064292497 -0.4712119855054424 -0.6337262606274474 -0.9619226265564365 0.959061993091926 -0.764352065955608 -0.35607740172828706 0.08687044511103847 0.6505412934138832 0.5693086824043905 -0.1674422303403822 0.9851286198527167 -0.874974574734148 0.19620448231775778 0.17586362263313227 -0.7621916176755288 -0.9089955415111355 0.615534225406366 0.18503110646364673 -0.0766357315310704 -0.23410964259820277 -0.04075174521993041 0.977572903507701 -0.9898224975656362 0.533558570652505 -0.2852951450836516 -0.4673409540351854 0.20164274789173642 0.47522790133749404 0.8949608568616296 -0.10962121132776526 -0.6563350762429279 -0.27606419518308045 0.08986255061381132 0.6836609025227447 -0.6322276575156502 0.23544265872817083 0.3018060622020464 
-0.18183437537346647 -0.7468440507396995 -0.7863660837832345 -0.49714595330120714 -0.5004837056005895 0.49154520250062916 0.6712741185264062 0.4509599639143267 -0.9174528002683203 0.3582426505581878 0.7895876566820148 0.4309511235276993 -0.6315423109191762 0.26861619189486446 -0.18883108258507744 -0.5901701226206012 0.5653769439312499 0.0043130738314903685 -0.25141521914689524 -0.8850898662908817 0.3771462664691424 0.08376126641715843 0.31628083690127046 0.9601751479514185 -0.8347631882808324 0.612869034698866 -0.047957945038815536 -0.8708220400795305 0.6981482648984632 -0.16298648078209607 0.7348331976388338 0.46272198429922384 0.0181287999404727 0.3183420142054986 -0.43990747959156756 0.26524028731101706 -0.7263243299329376 0.47884755036903176 0.7511413541230884 0.13592685947222757 -0.40724189914519837 0.4647965706965254 -0.13413238290050405 0.9446245884495366 0.6373992293029421 0.22500772477055528 -0.9711592987951303 0.7931204767508971 -0.8139944021286641 -0.8144312052148958 -0.08449087279226727 -0.8940428383312721 0.0998941609128161 -0.3474375800039911 0.478819963594046 -0.17857626898647247 0.4996414509796435 0.6012795682853037 0.1418551453492414 -0.36091696623965663 0.5312212900418205 0.7986748548461854 0.584412973520608 0.815901151086853 -0.9702141267055011 -0.3341151713420069 0.5874046219491935 -0.017694035878274488 -0.5083149760227007 -0.47720459285797867 -0.6300584181342069 0.8658323382586712 0.37351928043424465 0.36537482157819745 -0.983751761798733 0.41095501917517935 0.23112800994972788 0.7499901159508892 0.33527823893051273 -0.9991930312237424 0.399461643937323 -0.4024823769005127 -0.873514028501019 0.5817994972369197 -0.2961360521977096 0.47712466663955705 0.3759191906290932 -0.9217431974587775 0.29247692266385245 -0.9366560214642744 0.728209248128736 -0.5839099377930778 -0.27417779533533 -0.12117169375832076 -0.5166836796389719 -0.3165859694769237 0.17826085808589975 0.8059490404912649 0.4506162819170322 0.6275736916503497 
0.9453247648525562 0.04258568245208649 -0.08446877207100245 -0.3212588957706328 0.14401042359538851 0.6065180708215312 0.8271899885429423 0.2988253095399389 -0.15424637775941497 -0.4453680308808434 -0.7804476217250003 -0.306609272715882 -0.930267632442932 0.16825403459698185 -0.1489471256781547 -0.07550867190830801 0.7340152176938726 0.6906091494723658 0.8255729253112736 0.7762773927820903 0.21767741808440766 0.7402378142818928 0.724809436730895 -0.10889170152349004 -0.5237216844031152 -0.5661423845090543 -0.5909746991516158 -0.8545866942682623 0.08576182332812521 -0.24367269101310374 -0.6534044346498371 0.264873067777343 -0.9238307028583437 -0.22017430689831863 0.10033937542556037 -0.7258023228830368 0.9653813835305807 0.9613096807748169 0.42870679061896033 0.5349805659214122 0.01443479944313597 0.9367702774500575 0.35246736438220294 0.8458099648778676 0.39978758503068335 0.9827569695425826 -0.5073742309770806 0.36202340386053966 0.7342340670149938 0.6300953942136172 0.0028670827314665193 -0.06180605999932465 -0.8330002839875883 -0.20832443520725685 0.4999141750560714 -0.09536132060050795 0.1548737424993487 0.20564084108760916 -0.46224453452126446 -0.7400544839794798 -0.07993467791333475 0.9972621540859596 -0.623218617737965 0.7947145005676515 0.5967976521805272 -0.2727665713485463 -0.9335547092426402 0.7574158571798859 -0.882517708881251 0.42107865620712515 0.19014199528345843 -0.6685319117712076 6.43851240318849E-4 -0.23618635470164162 -0.9864229030697222 0.41334313568006387 -0.623405894172655 -0.10404155408790583 -0.7670244162007003 -0.035290735774699655 0.8231815587906419 -0.9385501070924169 0.03705966316356357 -0.4426749953886189 -0.11722834212460187 -0.26504327898561164 0.7768005759709635 -0.3623998414285041 -0.5070594394345318 -0.20444722478502153 0.17953034426595615 -0.4915555731573351 0.9871932364845784 -0.18434290483855964 0.7490746937014034 0.05922507610283989 0.808345396383541 0.5986024051251617 -0.23885111737985798 0.870361209577762 
-0.3739638700027712 -0.2748525690274859 -0.9066651440963169 -0.5227179733520544 0.16116704437418083 0.058700601973347366 -0.9784634010525426 -0.7008178320183611 0.6938913193070133 0.9109768031727683 0.06988897678658712 0.02120924818256209 0.9681042551649413 -0.11573904011864422 0.018673407540055642 0.06442165663627142 0.004214984704231428 0.2834065914944408 0.25487140816204534 -0.8139415196478064 -0.8066923198429128 -0.5698509096505076 0.7925656156846397 0.2233658541648491 0.9696279027256678 -0.7857319152820588 0.49547598760156264 0.5274278260842009 -0.6553416042553133 -0.2194145907187881 0.3014966399874264 -0.2708475645236248 -0.36512344113693307 0.3777386568506711 0.5791776516848692 -0.8622331323531174 0.8266141911207152 0.08412338252986973 -0.8613268924138751 -0.7071209383273329 -0.8047323661346097 -0.6216499259919048 -0.12524379636103578 -0.025633885082838148 0.032435564252663696 -0.6639847127599117 -0.4629209140938022 -0.6799476928313193 -0.366611398295821 0.6115397860008278 -0.29706586661608614 -0.3906560858496302 0.058604093316476424 -0.6967218502466985 0.670350834441388 0.7416899921321669 0.6069270357103318 -0.6979402106276229 -0.30555877008260857 0.47194228406614847 0.42424582852588855 0.7877724686929686 -0.24251555031325323 -0.939610521433266 0.22040107782956375 0.16555339435067218 0.8933187632228332 -0.8465544026944973 -0.3216282094993044 -0.07739389912304206 -0.02081083076682222 -0.5683259214195351 0.8136134737897545 -0.3613858900710154 0.8632746494298489 0.84503314193935 0.2777487714539968 -0.30282412603088926 0.7136985720412796 -0.8990694943068125 -0.6003582665644176 -0.8773617538619296 0.5549039112313643 0.4788792277638614 -0.38178790679173447 0.40615928861631856 0.09985230679305035 0.016249353811777834 0.8851770127387519 -0.8132161168967795 -0.8084150020800545 -0.357187427582488 -0.3977665561855168 -0.7822309323017751 0.43526080885665985 0.9374817284416879 0.7060239638148187 -0.8246509870578995 -0.06813415508588894 0.8388479913052078 
-0.3737559820408311 -0.4413792388338379 -0.5975955020727107 0.8617272746576444 -0.009490688011773803 -0.8347787463825259 -0.4347357445633205 -0.8435306222367726 0.3675494122897957 -0.509965501451897 0.7351577659657321 0.08591169873697764 -0.9759064186716594 -0.28224840688956204 -0.013261645711690558 -0.07113717222305617 0.2610899945635563 0.8578118811055182 0.016757062059850225 -0.2763558154125164 0.6969696424212497 -0.633829915090711 -0.1793732123185916 -0.558788359686851 -0.9776827376011209 -0.791116135117676 0.6614757204915809 -0.9832349496185478 -0.5238375335961776 0.31090212609243817 0.5893508880526667 0.2692612959803232 -0.8216492708858119 -0.5518678481907678 0.49810285158850454 0.19206744929169797 -0.2906459002514388 -0.7941872000789733 -0.6999371381096463 -0.644697624850933 0.8596223265759623 0.21271520145468334 0.8788070216303077 -0.6549439697625882 0.3829968236353313 0.5495122822056219 0.6049857081512104 -0.8021368724012692 -0.16698277835713762 0.7286453814340422 0.17812682483674314 -0.11042431150970826 -0.8217875203747218 0.6286021666367333 -0.8760705167124675 -0.4088051730665617 -0.8286166460263603 0.3674614957610788 0.057435010000185756 0.26929779410051335 -0.7050358752881024 0.31472004979023877 0.5929808797117806 -0.8668498011758253 -0.6581047753744094 -0.3806032451988182 -0.16786431260940154 -0.6121873244794287 -0.2306310153065533 -0.07295751801904243 -0.8832504405236198 0.7409091241647682 0.21398237715287133 -0.5068207382446613 0.08487659663353227 0.31711352545184224 -0.9236472443085761 -0.6638402411859203 0.3606968453064417 -0.3332869146466356 0.8231364995475136 -0.6164513116836727 -0.2289847393343981 0.9783374653505301 0.0915291891898727 -0.5737631655052713 0.5692796480444243 -0.675754356743953 -0.8822542527038378 -0.6768529031507797 -0.6490313807046738 -0.7568079301484579 -0.8939415795359656 -0.7288250601100852 0.864455705939611 -0.06635939454154595 0.9650050270102539 -0.7633369965709557 0.5336969193944378 0.08538872060722173 
-0.1491761262193612 0.05767286580904585 -0.6519975153204938 0.8844203746642945 -0.6955688074069065 0.8343697564053134 0.9101394556244667 -0.6882127697242524 0.4906501067421413 -0.9588938714413825 -0.6817978400863067 0.5049292203344157 -0.0668039418798439 -0.6652079890348827 0.6678765300884322 0.5264053863001182 -0.620969974929001 -0.20734368189213662 -0.7217623151705586 -0.9718536871015553 -0.7672988748904872 -0.4948974595020612 0.6124283510993641 0.7450450622503235 0.3727547989418699 0.6610598400940183 0.3800097755502817 -0.10752664690716092 0.6298708519973154 0.6761037165675488 -0.40106021857624896 0.44690184839103547 0.9260576551478269 -0.9839392793983854 -0.4752038728366713 -0.4617553024714202 0.4767007595474907 -0.1907391597537755 0.14744708179574284 0.47646862930353917 0.3449214205927847 0.26163270544037437 0.6606573345254658 0.5210826334231312 0.226210207514148 0.45202514123563403 -0.9580933589551848 0.22280032726081953 0.5310925522074809 -0.29383988999757443 0.2554842528713479 0.4599967974740023 0.7067762702516853 -0.22066144802721746 0.08255558870924144 -0.8712898216151022 -0.1272661488694718 -0.22004728776682494 -0.5614359246417215 -0.8581113660080297 -0.9469935148625976 0.12972238913114117 -0.18821307445376195 0.6467860978192232 -0.7861250283000126 -0.4124176621951943 0.7273742626449965 -0.8743542491112161 0.8600776368512005 0.763957479193731 -0.2395085880619966 -0.6991756885803774 -0.22873159878359695 -0.12999630426245562 0.36835427937151 0.8950853536812455 -0.23687347278953333 -0.9971295582878511 -0.6198924939680662 -0.48331126038486044 -0.9615334940639484 0.013312707296434651 -0.9736785142189639 -0.6218354939576374 0.7066494241358466 -0.7172587432600849 -0.5759697871390485 0.02355943918224587 0.9986045453481681 0.9921477390398065 -0.3660235604852042 -0.3409982732426076 -0.09139574406999135 0.644451266616736 0.17965981626941543 0.5212205975938855 0.5651744700940744 -0.9618223972877392 0.8121882023845564 -0.42895961685238765 
0.5463307839444453 0.018700914688971393 0.6500278490446227 0.5920675417223427 0.9752951889904289 0.3612854378365844 -0.8355694283393105 0.15818150026413624 0.7148249977181667 0.7657923429230062 -0.6204221244962467 -0.0867323016434578 0.9091641519111004 -0.1385549750128805 -0.8796672469115334 0.7483397263560272 -0.6742729938273289 0.9446111421152021 -0.4618447820773639 0.541022693594867 -0.37416011335001187 0.8799598291124562 0.06940576778286167 0.4094104547376114 -0.730833312693969 -0.23009945492445105 0.8650103006811884 0.1434148673533946 -0.5653075986033336 0.7502749453908175 -0.3152892628929982 -0.24150739960892675 -0.9225343538959041 -0.415273448893825 0.2667056481267276 0.9623375896078601 -0.9608693094414666 -0.3928749952020887 -0.7364386272724921 -0.26666915479745357 0.991606354164086 -0.9991241909540678 0.9778536415619394 -0.8197578291977643 -0.08290218602331167 0.4058995121986486 -0.6639230842544039 0.3858814350233477 -0.18604385187088202 -0.5914836637482668 0.8069375814955921 0.03310064509676813 0.36672693297253955 0.5964271970921666 0.30022435710746165 -0.7302499094515182 -0.5699411116670645 -0.44956657863818617 0.4750282549208751 0.48989684321851534 0.34997127226247726 0.39649159447017257 -0.6588377529077525 -0.5081856518073808 0.38230607322573107 -0.6438467550493876 -0.44479166595387865 -0.18104182087198528 0.7670202391704617 -0.8896092040450587 -0.6073009054200995 -0.0016570771847561616 0.37830076232328835 0.7312667596355331 0.02051750659737306 0.8614408503871818 -0.705686299399618 -0.5621465752357957 0.3986782019612167 -0.8340751593911568 0.11672605854685436 -0.5027339193767777 -0.09176955939987308 -0.6677190490521201 -0.5810319947962916 0.2186237299657825 -0.3678980487064598 -0.7324794385271929 -0.6864689294377049 -0.8227937588199896 0.10828034964927347 0.9689235256940054 -0.1975748597433229 0.5580281664935833 0.32980764088416126 -0.1160523843305048 0.311246895747483 -0.1774953614800443 -0.2163594851056989 0.8481430936366512 
-0.3835439975637727 0.8094053536442332 0.17608980689471526 0.8296624387339412 -1.1467320243941572 -0.4187041495292966 0.4171650187451824 -0.30022782165426093 -0.06030851968254402 0.051339447677262985 -0.5367439223909646 -0.3316675118021508 0.513145570154577 -0.8107500238665223 -1.1956454512057229 0.5059352809378362 -0.04088604128102445 -0.19406589322548026 0.9350210541889826 -0.6583244244859902 -1.1037262877558325 0.015245263766490722 -0.3053430146881859 -0.8118964265776163 0.7111825279773263 -0.08530336273098893 0.7373102856788142 0.2833540292981875 0.6272987176127445 -0.737092038066183 0.1513191225047019 -0.17929585084700825 -0.8143029908520771 0.1871872808558678 -0.6114417348931218 0.5408018435554348 -0.8777443067068059 -0.9109511676118078 0.8681728657738049 -0.2558678119568215 0.9661233957397736 0.4980287545146046 -0.7361707994728026 -0.6014528437967097 -0.1255205506484096 0.8666189094801199 -0.07983262715083833 0.9871727294472619 -0.48785841663469454 0.8191018934106076 -0.7954684420301601 -0.14883351113023344 0.7974048213398486 -0.6889907705827797 0.9155369732548223 -0.694305061411753 -0.6018789661583558 0.47021019997368724 -0.47546482578927696 -0.3687050413358116 -0.42784081199272617 -0.4868242014466839 -0.34980684981105453 -0.11774924274061908 -0.3645591825852048 0.3498425129845198 0.11221978849343392 -0.09045055028137976 -0.23638357975690888 0.5701213286295683 -0.4342932442398234 -0.9559761405460302 -1.020074092910198 -0.6862832658974732 0.41830348735327594 0.32877721805071886 0.47852883068357055 -0.03294366521272744 -0.3006005047968906 0.14716332057882586 -0.8402585627380944 0.3329774103834519 -0.336334232078499 0.0462275943497609 -0.4353681302977282 -0.019422004287163452 0.553154734840349 -0.947304798540103 0.8215925467221189 -0.802446461030753 0.9272236743589384 0.7757070466149933 0.6476394964627571 -0.04577806185289914 -0.1602335029508136 -0.9206415388217251 -0.27340792437569705 0.04847392292743746 0.5182584486670324 -0.46484245844755046 
-0.6233258588504891 -0.14508237930923842 -3.8331546929958207 0.6695714843378021 -4.018413222813128 0.3786035579102052 0.2821362764974692 -0.5780133907260018 -0.4036838784087206 -1.1015648437419199 -0.02586041167734495 -0.06967321741183079 -0.5057156918774891 0.17520119256844136 -5.11188428647558 1.0646599355366382 0.6514262044462795 -0.3653436983439409 -0.06652487119260143 0.050935905026109105 -5.7174704263853915 -0.27320813802935917 0.266356439356173 0.04728821624556747 0.5039142820519856 1.2832820632182562 0.31990822919814016 -0.6185666540859784 0.03592671831470947 0.2639404549167035 0.3371469817730314 -2.08427634387622 -0.6005988622665542 -0.17220117272031069 0.23185154418114415 -1.3379788225443359 -1.2415964725806476 -0.5964112092646289 -0.11632196546848485 0.4502360997345961 -0.9146291238543928 -0.5199962138168734 -1.6101499097348062 0.1498096778417072 0.04536328877622179 -0.5549845922717415 0.20663578138297922 0.8484092955247182 0.661110561846812 -2.052331287177092 0.2964289906300105 -0.9928016478384933 0.7103352479674322 -0.1913655449864372 -0.4435522201749576 -1.4366314124838857 1.1677139755928845 -4.207271654725215 -0.672699272355971 -1.8254397835900034 -0.29204875566159505 0.642037894462338 0.898817274406254 -1.1192712996093337 0.1271799176638604 0.34115794982294495 0.2169396008247013 -0.6178548808891394 0.29098022796141426 -0.26678345848419016 -4.305761527853969 0.530721476914895 -2.941777858875533 0.4902242576587011 -0.9376560955085652 -0.2575100738150444 0.05567106625383592 0.2920272361862655 0.238609394046434 -4.756513750760325 0.34302968008580587 -2.7473955037578928 -5.262747216639344 -0.8335277292583246 -3.3094730225050064 -0.6727864326704452 -0.26735399808680177 -0.3686223349294912 -0.35233762524789475 0.2569298901324898 -0.7148531509709956 -0.12233998064721167 0.8338505359512076 -0.18467599267106988 -0.7002709822550366 -3.1182187004863535 0.650370667996876 0.399921878129022 -0.4259487014270495 -0.3188149948157844 
0.08237598341384854 -0.21441745837442125 -3.2369995869724644 0.7117208544564606 -3.1878326222400233 0.596056340035966 -0.7640407372443935 -0.5412206670343521 -0.20988007163142378 -1.068207553008371 -0.7543390966241483 -0.22478714270357086 0.5633515992399462 -0.650778050106391 -2.846734077055571 -0.42893395971521375 0.17326310755604227 0.26926570151332135 -0.6614328917976448 0.16006884090930928 -5.086358283382411 -0.10800352675086144 0.05514369773489123 -0.12922279292063094 -0.982998728568412 1.3019389332005078 0.38162978010096393 0.9064314391543068 0.7511077050022895 -0.27177570537019186 0.39444712822967287 -1.9084610983901833 -0.23091175936007372 -0.7875102972140263 0.9862440764135966 -0.8557526590264667 -1.4963080440344148 0.9513442538746233 0.14728653047881207 -0.17447498714815515 0.10713511139823038 -0.9867541947196748 -1.252213849075752 0.31489379124842004 0.0880818974078554 -0.9008629238403585 0.44250970415197716 -0.3689653050873606 0.9182442682341936 -1.3017492461772608 0.5772083042574386 -0.2916636577946564 0.632436338898128 -0.15020691350846438 0.223043005669688 -1.3818969849935947 1.1327261810043314 -1.7785068132854134 -0.46049444175997767 -1.762752693740365 -0.4933258181538783 -0.26369030272269134 -0.12533803224643594 -1.4243503930137589 -0.5042582754249294 -0.5902122567851639 -0.12596814781263418 -1.0161570706467091 -0.14828815690993408 1.0267158960056284 -2.73445460398413 -0.6681853139573519 -2.4057133348438713 -0.520680245297328 0.27483725336750037 0.010752213562820684 -0.6015036877254497 -0.9444628251912864 1.0114844857425909 -2.5549902614672404 0.2976148246970318 -3.033228265163369 -3.547142586249743 0.5390782868836976 -0.8795274378492206 0.9420775870576714 0.66254087514701 0.5948062550651289 -0.1057310530669271 -0.2777219803278777 0.7602340933875695 0.2814470815462663 0.743353886165535 -0.04875148494079083 -1.670976977533477 -1.8566851930515034 1.044025865479974 -0.7056214504188696 -0.39957529952631443 0.35162694691817953 
0.8177931285899487 0.21861610849635027 0.589008687475693 -0.43510247612234343 -0.9454739871098046 0.32456521835189434 -0.7011938546670116 0.559708125646599 0.31699286352094513 0.7735831490175606 -0.8074388922858309 0.19870490682261877 0.6808095309272302 0.34797421540369755 0.9778959369576707 0.7237355291353864 -0.44191379399990716 -0.9948017117996559 0.038618799053474095 -0.4830350265187371 -0.6191038980882515 0.6974312860108096 -0.06131115466252801 -0.45623359283456777 -0.7199990872217905 -0.4505042611968815 -0.018228353542992348 -0.05790213471211003 -0.8504814494759123 0.5734446041182479 0.9524211773571569 0.6485635861062129 -0.5254525206261893 0.6625355145703644 -0.5674944488728741 0.04705976626811181 0.34759003759097284 -0.26571458496805445 -0.5834308728841753 0.2841094409358482 0.2109450246771245 -0.418251548379756 0.34240346914626274 -0.884306589302239 -0.9639318647305584 -0.7558867295880669 -0.8918226237786961 -0.06641252372096385 -0.11277308740538672 0.5221694226983515 0.16505405619037306 0.9649192431106401 -0.8843948976304759 -0.3588551345615978 0.35430158164721237 0.546861344664018 0.7913389270344346 -0.9971296082118113 -0.19951861532172166 -0.1509199204481757 -0.595202984071376 0.4711796045815 0.8773775804916251 -0.550236873559532 0.3547422577397239 0.6989063051240543 0.030907061403876668 -0.23324870804120246 0.28984379675235794 -0.36820595362036257 0.07333014842687846 -0.49649604505169 0.9813337705434197 -0.48591377394383617 -0.5443417730840416 0.9903298265031335 -0.9215670510524263 -0.5274823466974115 -0.019766678384410596 0.5845188858851578 -0.16550359930319236 0.06988200945911505 -0.5669664157435463 0.1387133178157769 -0.30934051670402285 -0.90369730254126 0.6953349847719643 -0.04494083103180735 0.46509162130485615 0.30578735526718637 0.03693973132779904 0.6133833102832149 0.8197943527557696 0.8076004352983808 0.4982582268817983 0.5948437761346868 0.6632071384449074 0.3864394325194562 -0.4638894147498227 0.7182036844248219 
-0.7753965241792189 -0.7620485489250799 -1.190179058594899 -0.9399790695375496 -1.4262634934411984 0.6251107700344906 0.3664504875516985 -0.6929371403891622 -0.8389573359257745 -0.7662415763233457 -0.3592220972698843 0.9542594761039105 0.3588584627052095 -0.421449671702219 -1.4230564359577986 -0.8091337769998257 -0.10132355366661619 -0.40585672598774525 -0.01704732953998701 0.4511445539982351 -1.6529794921461014 -0.1676930818406297 -0.497627243728573 -0.9261989369074822 0.33984363612769725 0.1237216726655586 0.26749908537648226 -0.21768112328505504 0.2166868440572015 0.8078078480228954 0.9448335391129539 -0.3292340151251472 0.7072021006369815 0.12116549972906138 0.8800664871674286 -0.6711331210047125 0.4230035526057719 0.6705122202938821 0.7174516429480875 -0.6266224997995404 0.9470121559270597 0.09365754247194567 -0.5470751232006377 -0.8286462695327642 -0.18035394606404828 -0.5750782713202339 0.7713151142246291 -0.363990527431831 -0.39477243986348237 -0.9412114853113447 0.6829471542319671 0.8467384982937324 -0.7924876932722283 0.9575922391766636 -0.19835018258246254 0.2645202165016429 -0.1842919898963687 0.32552451181905784 -0.630349848363246 0.16078650540348297 0.3753239090925552 0.1983350004871267 0.9008225369044798 -0.8439268342868576 0.8196544759892761 -0.9147537873359585 -0.732086567155758 -0.6433813002683183 0.381349311555299 -0.7184696171518287 0.08793538524017847 -0.5856624655845603 -0.8992313257551684 0.9808074384810933 -0.29711153659287254 0.7675896886065383 -0.8466895223984108 0.5880963482398114 0.5288012054622993 -1.1219976257383448 0.8160292034439058 -0.37870365105414383 -0.2811633417904504 -0.7859941641624827 -0.18568267357816842 -0.42930344038717183 0.8267466410135896 -1.0234171005972814 -0.8830042613969875 -0.7156475465239421 -0.8540016468954856 -0.40511052979547874 0.6771381065680742 -0.20558120884453715 -0.8451281094608422 -1.3840728686338186 -0.489606523765394 -8.87616891586065E-4 -0.4462572005983665 -0.7765412167968806 
0.3199978420549623 0.3956158415982345 0.651215446195673 -0.2605563643857052 -0.6836626103518051 0.4833359099800798 0.8045414041553769 -0.2765352505016805 -0.8510991782642363 0.1810311158930218 0.006690454177593397 -0.17706669043847567 0.31532348629197693 -0.7736280294529949 -0.27325690712840633 0.2136603457135895 0.3257748122756612 -0.07170889123720059 -0.5153082281214816 0.607669208340833 -0.4791085522079508 0.3338075899064259 -0.1878024950896091 -0.9561007610556185 -0.3287782939324819 0.12248321200852952 0.3540186614162173 0.571610948947721 0.6277736040851054 0.6919513297124273 -0.8224430961497053 -0.435652331724927 0.40458683123109873 -0.4125885636923017 0.7505408589098215 0.6230105590531498 -0.7519224881514701 -0.3200647238449925 -0.4980508471715772 0.8098065583534786 0.48423183804281433 -0.6871160135914651 -0.6011503486162806 0.3005338563983444 0.23355379589115177 -0.9873110918467947 -0.44808769742850085 -0.5491298916313034 0.4449999217082443 -0.700298862314368 -0.49507062302447546 -0.2569657145774562 -0.8760380854581957 0.636769201482313 -0.4312438885360048 0.11239379077016731 0.11568614562380075 0.617655814056207 -0.6723378035864886 0.7492933191685458 0.35434782390139885 -0.8756403145159084 -0.7238369337779835 -0.3704153951006306 -0.9006751977405436 -0.6281406358862127 0.43697806730750166 0.7480385319269001 -0.6459552483411717 -0.48924888314516557 0.7658405255178304 -0.6879742174949242 0.3991071271518629 -0.2272950794225983 -0.8335371860779139 -0.0014468324584682168 0.1702102357725419 0.020615757003299207 0.019037911129322183 -0.21405134379685808 -0.9272592780055084 0.004781242244411343 -0.7317630756692655 0.8421882939364917 0.7487118457121631 -0.3716114119743943 -0.678259952581372 -0.5149361568517354 0.2980646132617384 -0.9099511874025479 0.27791690963723537 0.325091324083129 0.5051740412074182 0.8980668726438354 -0.6686500372333672 0.3602649169146861 -0.26726886155915053 -0.559408354403409 0.597472736331534 0.012462843333570062 
-0.6810013094931273 -0.9522582343155401 0.05267360977324054 0.8785162579172776 -0.44923196503435925 0.2962562896850991 0.8037927343327269 -0.6853462498983796 -0.4168285800283178 0.68417336754217 0.481018610856055 0.8812383000734652 0.03883262428045131 -0.2575085939658577 -0.8092307019288076 -0.8545836067471682 -0.5573328336269558 0.15272264408317326 -0.8297802010182378 -0.6274980316544412 -0.8650288169937641 -0.4963001558115334 0.05271760272647996 -0.7673790169720514 -0.14573368604298875 -0.05204808364208535 0.48340415190116626 0.8073455993697538 0.7926955873523331 -0.7925840496115544 -0.28306022619557636 0.9017506161347757 0.600594772744192 0.13020712105987342 -0.21569272132542872 -0.04947378568282712 -0.44681037760875864 -0.6853793573218219 -0.16675307411479667 -0.34751292899881214 0.891200080482579 0.19349358980386944 -0.6730455110078744 -0.12398226416136193 -0.7915419592822659 0.4115064963366821 -0.07174796973354258 0.3486999240627777 0.6834761545641266 -0.670041079310435 -0.8984817386508799 0.17756907622098894 -0.061769699826346613 -0.9419941643221266 -0.2677546134167601 0.34215127718831906 -0.6437507319383595 -0.4637058015147226 -0.6058349339249507 0.9606341372636729 0.8034315138167485 0.8883937032273399 0.286466120064923 0.35022925806414573 0.8688374440629287 0.5073668835780445 0.31870411923564457 0.6859863062767131 0.9790338680182424 0.15927871722276699 -0.6614190420298038 -0.5919781465162723 -0.9616038744191651 -0.23760234579481643 0.0778502932497942 0.43533009965639047 -0.39090037374281716 -0.5597060284319153 -0.9658156523898049 0.7150443714739942 -0.9316373718595099 -0.0510061782412925 0.21191362613010845 -0.3307774168567714 0.6668296152461894 -0.35719905551529396 0.4121310055881351 -0.303067326650029 -0.03918858724146168 -0.22964867944422185 0.5927284151482608 -0.9523836291475676 -0.29757101849109113 -0.918081891946064 -0.2884859483053459 0.10241450305380795 0.9455331185493492 -0.5190613779765421 -0.5793662741137404 0.38333765174523116 
-0.1383974495781355 0.7671876668299136 -0.0018986182908367066 0.4558721128522025 -0.4413501453910349 0.39597417235958776 -0.017681623019415227 0.29881117974172877 -0.9425070085486766 -0.3828076587654159 0.11804240436628466 -0.31419233661788604 -0.4964209801404542 0.360010509902956 0.4273426338516966 0.6563445287543019 0.6788733914409717 -0.20656519564979958 -0.513342337372771 -0.7504752091661349 0.9271581058015743 -0.3800626681731585 -0.678850790210145 -0.6677150951521842 0.7174077228030815 0.8487923285707808 -0.2798757159209444 -0.4256615697908652 0.24374345121116114 0.04771587662755272 0.23237576298626972 -0.5946397345372672 0.6967906743585122 -0.11414085358010628 0.6178690504447675 -0.8643746513302129 -0.8599049986016394 -0.8418427652512495 -0.8877179309741887 -0.6704826624471887 0.28658037638171074 -0.5795109031026415 0.5034822545446058 0.9920281186649682 0.8938594003139027 0.8670574157491764 0.7241036849012692 -0.8384303594208649 -0.016464408095819172 -0.8541493406691212 -0.5680354033725106 0.09812496995125541 0.6384647049166365 -0.5649990054069709 0.8801447923270695 0.41396710783437185 0.7432705035012379 0.2923077358567443 0.27111917082587667 -0.7851223309519948 0.7072384689437996 -0.45785373022125886 -0.2555769354074393 -0.3969992154319679 -0.05496066183222914 -0.22156250525593024 -0.835097850341336 -0.2618294344027394 0.6895619043511223 -0.06069536494609307 -0.041321366214830624 0.06275397286920725 -0.42753662163746164 -0.15150120040051607 -0.6134567810424043 0.2657527604552654 0.33187289574500567 0.6206260394496701 -0.1504401612892352 -0.904886415100377 0.9930128253441435 -0.6083366139670754 -0.9107503159338113 0.22289607304895287 -0.08367015408311662 -0.03679639008864899 0.4747980538589496 0.026153238346256602 -0.7809438626159819 -0.36167816439350897 -0.03769438738897124 0.3670816121906446 -0.7500504698666433 0.7789097433922982 -0.23381516891642184 -0.760799202296087 0.03328902585749671 -0.5712223141612516 0.30037923433986524 0.4920265699018782 
0.9245442948929954 0.8052951167530891 -1.0712861263028872 0.7510342430550502 -0.9412485702114716 -0.23674407870872208 0.4583536089619969 -0.825953635309368 -0.13876323296404633 -1.238797784919629 -0.4591630720819942 -0.584664640360303 0.7755339353971736 -0.20987470821137866 -1.302763212006466 0.7964856569091702 0.07001642755159741 -0.11846068607348126 -0.5581124807077675 0.19881961012871754 -1.6741623912583428 0.7598578405247456 0.9484205873087591 -0.3754575850188694 0.6954471369940887 -0.200121346780687 0.44251188173686434 0.4042873276382174 -0.16175625454590414 0.22190447420593962 -0.49668570481382673 -0.4334144145779877 0.1554510072867229 -0.65622774013117 0.027311073970623857 0.6177515811478893 0.13052074059129076 -0.3316227000701404 -0.7489821029462238 -0.0842919464891557 -0.7182580673224586 -0.5311495235034008 -0.061784669251159184 -0.08804591105880344 -0.23626323434288557 0.5726803148065781 -0.11081980110494777 0.6310127654847077 0.022582595799127896 -0.445613644583307 0.6736263786516801 -0.38255392692293916 0.7579655605000779 -0.4189030525651338 0.3427266488282041 -0.39025558162857976 -0.6769386981045264 -1.0931103469681342 -0.13753621075245345 0.7585100820214066 -0.14069536841611047 0.3144334081075834 -0.8543294351796366 0.20209832501798652 -0.19735793897532528 -0.23944260837416956 -0.551161846190007 -0.8183115730219703 0.9233040581122605 0.12894575905571445 -0.423368215034875 0.5547084979182719 0.07869474263352873 0.31287896635377127 -0.6360739407455455 -0.973836389328857 -0.8269058767185777 -0.7441090706340012 -0.795575770046802 -1.0229492940940672 -0.49110605109808797 0.07153733629791416 -0.020068698015790285 -0.9516037034493758 -0.142088166862762 -0.12091645720350751 -0.031680288164751234 0.764090312618176 0.2587271199974826 -0.6882327542117047 -0.3233976297855438 0.9959951577309838 -0.8675467185252977 0.7618830887282603 0.17014953067746974 0.3022437529438159 0.05638946044969537 0.9921120590723292 0.3356771870269518 0.9614703227575201 
-0.07405912226794231 0.4592864376473964 0.20856630920822106 0.4463083205258449 -0.3982658087864672 0.7198336405261243 -0.06776038801297446 -0.8835037079324626 0.5381775189902716 0.5740650327732444 0.2985686111730914 -0.8098801588697386 0.07953215999655128 -0.935048638330078 -0.6761842142442536 0.8798186830904955 0.5563392792948918 -0.6612916655761001 -0.6910548043745026 0.48394849840612886 -0.9433926334165215 -0.764604763290087 0.16000594839026583 -0.41737355210830396 0.2619589576293697 -0.005890746963831628 0.10529135786810695 0.6423479418457141 0.12614023152237275 -0.14347295221142664 0.5095308485509316 -0.7876589998240293 0.5346269559126278 0.29200033822978 -0.8720511081247293 0.36652816197623284 0.5078881121135248 -0.9306368045130544 -0.15189651273854654 -0.921831618417331 -0.002804445588827864 0.4650634846612338 0.7349949401151117 0.8099549489567983 -0.12930253822695992 0.5241831805643369 0.025014119138577318 -0.2394513544167538 0.29880119148509987 0.48036525146493436 -0.39312355334622273 -0.0707724137044965 -0.5782613052337475 0.1926194326923225 -0.5172325077031594 0.4435399894229852 0.9185161260063739 -0.22857050507371168 0.7205027187805384 -0.5594526470881314 0.8952778950894522 -0.5564587226622286 0.4875836288983342 0.20045004714461 -0.6275574628316247 -0.855739488401883 0.9006083714244268 -0.7979102877562965 -0.42620322608466377 0.3280451837491041 -0.37142389182533586 0.30302652576354405 -0.7929382337715469 -0.9473712657682392 0.4561993235138768 0.342591703641169 -0.025726073404103156 -0.48113592970065877 0.3434190793852312 -0.8754800000360761 0.6616506671177129 0.9379317456005583 -0.09010562613020312 0.9564682343109523 -0.6675603569956547 -0.15049199614475528 0.7283162065798054 -0.29306855028352796 -0.6174220060228173 0.828942667488235 -0.6720254659547782 0.6857687721521835 0.5178168602737896 0.8984486968970828 0.3900839498212434 0.5627565962281185 -0.9277068647186948 0.896759211460529 0.2589533162542217 -0.9907123539913179 
0.6155369475470619 0.8693578155225441 -1.646020705242812 0.7670311229679114 -2.5539484574447604 -0.7886809430349118 0.6553655057031537 0.6441941276309872 -0.6386393546337827 -0.8610189142796005 0.4868403316075376 -1.0381954708734717 -0.5484729052782745 0.25074491006686617 -2.096874813751096 -0.436668170638116 1.678914478395464 -0.5727889484954944 0.17426382314761074 -0.12499914956285689 -4.520188067953385 0.7296218614326092 0.4142292462565412 -0.231465527789262 -0.02943528111992005 0.7472418315290595 -0.32277309505683716 -0.06127230395828807 0.75578520862088 0.49851901488923606 -0.5873305435904904 -1.175516193528644 0.1976665379220421 -0.22045856875679884 -0.031310507436069966 -1.396994992282993 -0.5474075297237425 -0.6327636913973553 -0.27293887993794763 -1.0012224605778723 0.7921016749796803 0.4177806473267003 -1.8268583901975581 1.1477235785131006 -0.1246185135868604 -1.1298032254707164 0.28780016569734185 0.725463536054978 0.2614007754899617 -0.1528319512811807 0.406499441838945 -1.1586153061150541 0.7001417425745524 0.4044084252875356 -0.5626699467918771 -0.4221423235456448 0.9291983437350617 -2.0198010162615234 -0.09587758763495181 -0.6319492365631132 -0.19864352845614477 -0.08299316341957318 -1.0109116518658294 -1.1858505732402946 -0.10513668244085674 -0.6416939901317663 0.1119304661065445 -1.941735574104539 0.8598535715501042 -0.7101265531668589 -3.5215135227563787 0.1874450157688832 -2.4702780314742174 0.18842285438419754 0.8187919655209519 -0.5847505266818008 0.5417016763039725 0.7067456384179901 0.42079474505523734 -2.882224945692965 -0.3320307186966074 -2.67461909725626 -3.647986208595359 0.039554283829985354 -1.2082090993409833 0.9383929610409485 0.27172590172885847 0.5951902933109882 -0.22456198532508892 0.8473828967615948 -0.38378723422074157 0.7399323752283395 -0.7340334319548444 -0.19840939872803887 -0.3914123668254935 -1.7154021792612402 0.21453237239929332 0.554726503346747 0.6992260490828657 0.2520441823512818 
-0.24480041540194958 -0.04827302143501561 -3.8424304619317438 0.5093844784324459 -5.198905348805476 -0.9174523036637932 0.5289687709955561 -0.5041204060629257 0.9240168882473768 -1.4627178277916812 -0.31183738802091343 0.6425875461591138 0.055111534635962016 0.8176659468470407 -4.574267113471538 -0.4518064373019646 0.761908136148988 -0.49273869184897084 -0.8600020348045018 -1.5727675484819763 -5.892783298662347 0.4148719157788608 0.34350693383247527 0.6179776833694295 -0.12623941792647955 1.1385053096507307 -0.4037967798287537 0.5800516532640864 0.7538422019501461 0.790283668941112 0.2629012073724038 -2.667451394682526 -1.733077261186748 0.6147870351416223 0.27809574833161965 -2.5002350114325296 -0.9226372552374152 0.6545208151999837 -0.005684795430951305 0.7231157592833696 -0.20517782432699422 0.29435050814250846 -1.4572471125433637 -0.21005361771585504 0.4359080207042963 -2.179893475327422 -0.31989065866906957 0.4850951065377181 0.8028379300573925 -1.7591619970023071 -0.28571010665917385 -0.01954698137548732 0.9219160945066475 -0.01790837498448142 0.9099993662079566 -1.1682458386889314 1.4520498278745608 -2.4428523307790395 0.2762688938951014 -0.9623357629045888 -0.4781434408280193 0.07431287357871878 -0.4627269578244573 -0.6065906153051308 0.5334856342828039 -0.7485814051712063 -0.23567799730406763 -1.1823524525574551 0.9022269432677744 -0.08860502952827871 -3.8387510029463865 -0.9019280169927337 -3.996387826280501 -0.48224196078021786 -0.007350914258765105 -0.23066826325007228 0.22281584477190583 -0.8590447438131329 0.45724352925584166 -3.698805032151131 0.6267891212276169 -3.032273867822854 -5.616038458538583 -0.9782507431434743 -3.0594363101719306 -0.1543000178573879 -0.885370309117081 -0.5952032515343674 -0.8603235952211508 -0.4026725508817275 -0.8237780100139853 -0.7792829559558441 0.8390142894616442 -0.522675031282666 -0.5614496052898069 -1.8649058221227726 -0.13371769359784766 1.0364532210716257 -0.05163118334766141 0.37209219665496396 
0.8108936675472818 0.9132714720915888 -2.9534604382812772 -0.6951536293397285 -3.8290661823286123 -0.31162774394808024 0.4499989976884537 -0.6037813358451654 0.7354831571681456 -0.8107245415436004 0.8432915654211033 -0.527298512924566 0.9983280674465441 -0.5163565018885666 -3.3242978574138102 0.27807541249869566 0.7086266946308886 1.0320202004664378 -0.37200174353792853 -1.4788854203183408 -5.050243251505182 -5.754889045542692E-4 -0.41546593124126213 0.8681948549527633 -0.10980505782068917 0.9757760958214078 -0.5192720443073934 -0.37968260525538877 0.8002592276396302 -0.56611606528506 0.8786504083121937 -1.5223571308391348 -0.6224725011394946 0.02768334361774894 0.21361510095926955 -0.7883058641826804 -1.5150484998014808 0.6181942113558646 0.447794751684891 -0.6851204766477691 -0.8930779835643087 -0.6016061790030813 -0.6579978895556448 0.5560715646867903 -0.6254826848131435 -0.8188840064744796 0.6385584214273637 -0.2860521284980713 -0.657708168017282 -1.2784188946255528 -0.583764582363375 -0.3597700687548233 -0.3004813089906596 -0.2569832267203552 0.9340349596212367 0.35654206582115483 1.1992417681738572 -2.9663603502874287 -0.4617227075516399 -1.3586229457972836 0.3394847612654319 0.7912081555159524 -0.46078848565134234 -0.7204459752321327 -0.4253065117481582 -0.992248447177313 -0.9250815863187303 -1.284332106243196 -0.4654340002433905 0.07070985877798779 -3.362598502883016 -0.036278270785371096 -3.7488332406377975 -0.1660330564637498 0.8354627997207968 0.15996346991812985 0.5048509185666831 -0.038915812503954 -0.0614315934704943 -4.181473030378127 -0.11910891818784315 -3.4214118431020877 -4.750358872007364 0.2391864533753553 -1.453985976183589 -0.5178109789276987 -0.9120323190713777 0.026132867247860535 -0.9049813861549809 0.4666429207562215 0.9523232001334448 0.3479642995011742 -0.31533900776465557 -0.07850172397103093 -0.784206633974081 -1.9028914468828675 0.8721815184324678 -0.3346199544283724 -0.7908771945527174 -0.5935011388181773 
-0.35895879814807774 0.8466858892538652 -0.8706478448453296 0.15984851388958748 -0.23939399887821805 0.22040430204630693 -0.20075549216760147 -0.4438799431588764 0.5327586589579393 0.615843516407607 -0.6355013745913033 -0.11838063845142033 -0.5014821454842052 -0.12897340157001594 -0.053596657147802415 -0.5935643374190693 0.7413017437962581 -0.6300237772153554 0.9179024895053475 0.14541510360248525 -1.3974214478556364 0.5412563706670228 0.8683170380165925 -0.9471642209589052 0.04885142960453584 0.5935097882325187 -0.5531478957542151 0.5369374463438172 -0.08861468157848706 0.641662441679962 0.16726766830896678 -0.9800538539457648 0.4710069401800822 -0.7039194582264147 -0.6173645800119679 -0.5470401095146211 -0.553632792338261 0.3598609346912276 0.43173108410552447 -0.4618940139745755 -0.31458646635273213 0.21857480824907438 -0.9595356309664332 0.018011152155217407 0.5897110449052404 -0.8145210642734477 0.9001145573735733 0.4255851925451265 0.6732513072189559 -0.4832612935334512 -0.3122608642156011 -0.13109311856729486 -0.6304153975366691 -0.4650881971518176 0.14516013825331783 -0.9971783817523029 0.16141133998372037 0.5007021617428771 0.8265253718413054 0.5139010487272181 -0.27409537609285517 0.4824459544468682 0.9419720282502442 -0.37011484526757565 -0.9573789824373766 0.48422357016618456 0.2986706024403001 -0.09381304983055415 0.9544337960320409 -0.9290265378073072 -1.0898250476543083 -0.18709970450228133 0.16058651652865635 0.7909862433034882 0.5243450676539418 0.6231072254267299 -0.3284036842515296 0.06782295202034583 0.026149560385026485 0.12115645616152759 0.5524969548407183 -0.508638302208653 -1.0649242968011736 0.3217749902432682 -0.5689484645640536 -0.9717512526111444 0.9377954329123059 -0.9292486247721307 -0.11459007842811553 0.3278378108630577 -0.43503508767463606 -0.03060070445642773 -0.3391751756566557 -0.4112617140487247 0.6841066482847953 -1.0145491308318546 0.6543536380522487 -0.7919586140068828 -0.3926305862637058 0.42177204594226875 
0.03038997962005241 -0.644895624235895 -0.8980594767170316 -0.9988012090705305 -0.19565368264689043 0.9601936497856298 -0.41790080374150107 -0.7893878917784547 -0.4438380382258553 -0.18228374307567075 -0.48471112452482856 0.7831286392000929 -0.8934411093657115 -0.5158827796941761 -0.33326916602354983 -0.40972194378228344 0.5053602952685956 0.6134230277817898 0.8679240394038161 0.36428692105140104 -0.24119644262033524 0.6216565327678596 -0.9425336376482516 0.8614035799411164 -0.5346210910623044 0.5716211920879997 0.6061640925802707 -0.3461739723021038 -0.3213861677808234 0.8684480007337345 0.3239518463622446 0.9462898699959184 -0.5109479184248258 -0.39174954694636566 0.0012230971368356602 -0.40342322242581563 0.05400333156261605 -0.7633120962086757 0.8547490669909215 -0.13509360501349166 -0.89753077127288 0.5511891746710624 0.8284429624824559 0.32537883453249816 -0.6960223013008724 0.0200418153298898 -0.6581962003363757 0.8433368085774577 0.31388760416948003 0.8935064123844414 -0.21604815674786004 -0.444279458630636 0.7940517988865541 0.6465670352873831 -0.1812525261476754 0.3871911293960002 0.2565568015288806 0.9198829913377193 -0.6034384780905784 0.7930012820737464 -0.8104159976467347 -0.6850395944829517 0.2608440261786096 -0.8597041047156819 -0.40173385246220383 -0.8484861503394479 0.6927171864860948 -0.5772723839067297 0.8297405726785734 -0.39055646475647077 -0.7456050709067554 -0.15102474744293226 -0.6495709339020996 0.5548043783422139 -0.6276890349662074 -0.7460425844020595 0.004902440410360809 -0.21140169400570463 0.7434146396001786 -0.7477646774786166 0.20951540033449678 -0.5408267715267467 -0.24682780486203604 0.5863027572996402 -0.47967344017783997 0.9434651752149186 -0.638610862823545 -0.7818355964165662 -0.9363548689340633 -0.37072578690315594 -0.7579525559022888 -0.6291944237105889 0.4288751866507583 0.7202165072040818 -0.6440700109285107 0.9468617237278034 -0.2028441353210919 0.4369493125135846 0.5898816338954742 -0.46500282382249525 
0.33006899732290684 -0.1544847194480648 0.2999506490323242 0.5581753124255323 -0.3954114787454553 0.5853735016515719 -0.32942198245906323 -0.945636856195388 0.05578444033059213 0.7195494639973045 -0.20457593982419442 0.8918164671917468 -0.1029681641368761 -0.6894635057263677 -1.2226362471531227 0.7961219544559427 -0.7183255704350197 0.09334923743302943 -0.9751393086570803 0.7745933111948914 -1.0379661799986037 -0.5827153288908508 0.5672894221372311 -0.31956445724555 -0.610269306444718 0.28546010740558453 -0.40821652138459913 -0.0028593174547870506 0.5926164967306726 -0.33678437959280394 0.2987612018975313 0.3951537157290363 0.6312097565874915 -0.02893719229368265 0.7739935838416813 -1.1459484683879426 0.48087671923927794 0.627741469516823 -0.9572835622376601 -0.9920449361574416 0.7300092068507039 -0.33875082834242987 -0.07144018382456864 0.4602714673368607 -0.20628790177806355 -0.5431316014029276 -0.5181459295764669 -0.5282315224520427 -0.6285658211247467 -0.4741152904844739 -0.4481116865781071 -0.7469773133569689 -0.5120907079482051 -0.038079397444055314 -1.5886617538164654E-4 0.2749588070747784 -0.2875819872077881 -1.2714715073759937 -0.7791217508017174 -0.6112735962827739 0.08853287950158227 0.004958828627366004 0.3481927522711623 -0.07936384870575025 0.18915331088767962 -0.088433211913867 0.8413800768895804 -0.27960201185096517 -0.003372785845049585 -0.7904877880410581 -0.9403850432357935 -0.6426121651268735 -1.0192090752488683 0.6381913825309469 -0.4433815799613073 -0.7952319251383272 -0.19383055332060087 -0.7154510439173206 0.5186100721611869 -1.2094436590346587 0.5355587257273184 -0.7522803122032241 -0.16964473014375744 -0.5959595850830844 0.025600438958707675 -0.9893631409780974 0.6334756056821172 -0.508791077700508 -0.22683689531497153 -0.03216061015976727 0.27575090913335887 0.5930468007486775 0.6164957215218649 -1.047936665229399 -1.0010839542722008 -1.135841225282139 -0.3957458797331434 0.8529713472322549 -0.1570462564836983 -0.2187105459503862 
0.2473773228818803 -0.9060815916619231 0.5138993513067582 0.7582049001947886 0.11254171845937488 -0.49181838080189055 -0.3984039217258357 -0.15640228769775377 0.4065716019568091 0.862857195889394 -0.07640367059049824 -0.44231206962942204 0.5115320310151767 0.21712938485644973 0.00609228213415669 -0.3418064450827436 -0.4948322380845904 0.9097403564724049 -0.8412398793291846 0.8678406522994382 -0.8392576283039059 -0.495371700103995 0.9756676654943672 -0.8309298646574586 0.7158758688746321 -0.8808333291496873 0.46727285059831014 0.9540321861109673 0.9827088831021489 -0.6144469010947322 0.5374400927287697 0.6485817337541424 -0.3294534269304972 -0.32714871411168556 0.09948145367809413 0.3371911229423912 -0.8465334225467451 0.136640510269606 0.7678071008005267 -0.6135999573608424 0.33920127115924736 0.6651823655375064 -0.23315218706104357 -0.9023748407772127 -0.2180665555761463 0.8554660405458145 -0.5335106888097723 -0.9841444267045922 -0.26952650594929173 0.7794468331688533 0.7833389039678142 -0.32103718828737193 0.41461217494993097 0.49024666206528034 0.5797195484830922 -0.6869421595877065 0.5462740124392305 -0.029962726294376463 0.14736826769808498 -0.7374701128932846 -0.2515783457928287 0.5357805073639779 0.8803902602607938 0.7891060634930551 -0.576508108503132 -0.4040467960584764 0.3221019616848957 0.2824725827964629 0.43447074203745406 -0.9091627555121853 0.912970946324472 0.895703085003545 0.8955440316115693 -0.04909150362912773 0.9719411337526622 0.15194065255881828 -0.6444128652276204 0.47231105633540893 0.7110089220514839 -0.8355143999866135 -0.29341348560804104 -0.36464223741330626 -0.5870062134163416 -0.2293577991566058 0.2604135436089696 -0.918551457918853 -0.7049743843492136 -0.8996179885933582 0.6111986964171279 -0.2842456988630626 -0.9646513629076683 0.8840834649192983 0.13688355135255215 0.7174646410323409 -0.5413793636652706 -0.8506881750082715 -0.7076458104900862 0.11635204336567129 -0.5450370910029132 0.8648053720706459 
-0.7921097381495139 -0.9661413563564065 -0.14940345667094856 -0.4394621461157777 0.5304897743212134 0.18886349118184942 0.6529767985215191 -0.014070260636074083 0.9319593141701956 -0.6672571911030978 0.8609165378376973 0.4639843567307447 0.2564863413003262 -0.09471262331647368 -0.13973222215983205 0.7573276035307834 0.891739897385808 0.3924962935205403 -0.6816921858308487 0.9828336755485914 0.6213724439028689 0.6192169795976699 0.4450558817765211 -0.6052780028535789 -0.04687503450216579 -0.4759431920528787 -0.4926774611788307 -0.298286470826169 -0.2844352183713166 0.8409429963762205 0.5613738725252422 -0.007961939021462694 -0.42218560734167987 0.5511621829432418 0.5126697748758853 -0.6892124570063165 0.07045692789817615 0.9716623588445452 -0.1837861995646215 0.4673123467510072 -0.32786721023345744 0.9098549919680057 0.3986303056010174 0.7460620203220993 0.5751693537608045 -0.5578935358907378 0.713163036062658 -0.14752554648304006 -0.14508536517708648 0.5625623088846996 0.23136667623134954 0.646220358902617 0.9412728522056988 -0.7990995330586799 0.13034184287059847 0.9973132840191399 -0.4727306827253186 -0.07793719269023613 -0.5480584447843779 0.4462989374612778 0.34829845877161314 -0.0020331569784310943 0.5904554912827265 -0.7420599937502439 0.627038853049213 0.48065448821738843 0.6078566295948822 -0.07148401989818742 0.402845660301812 0.40828500837516124 -0.41922721024946186 0.24006112417479541 -0.5492400682647047 0.3398350185664589 -0.04907592218501633 0.5505662250880743 -0.9558980571623992 0.041320277887822554 -0.31915574294308335 0.16737307228275577 0.4259439317767513 -0.6641930606119402 0.909284250249597 0.37169411279998954 0.5285859324321047 0.8814340823407789 0.7557717072115073 0.9453918720332215 -0.7835137179832568 0.9561210225012842 -0.05861930823441286 0.896857619053425 -0.8730734310696031 -0.7954120032995131 -0.027157752359649123 0.49102939897568754 -0.9559812690487459 0.7427694233479467 0.7797059428920279 0.659295463471405 
0.6854383881553079 0.07575603206824211 -0.5345360535189763 -0.6045754558539077 0.02612747946185506 -0.6130876224112253 -0.4536047763475677 0.8782540299896682 0.5990048814693276 0.27810236369330305 -0.5621121103058041 -0.49964103629526696 0.48823593201224347 -0.8172995172375684 -0.6156564985532345 0.9508680004428177 -0.456119538241845 -0.8656404007154024 0.781506349994103 0.36802119165452246 -1.4478699802966126 0.9138587148437651 -0.6117336672434838 0.06371416279553371 -0.16651206813818964 0.8101496736807372 0.7496069586867291 0.7972840434413229 0.23627226461574288 -0.3473028630958587 -0.6695548796757903 -0.02670107034566642 0.8312570021268404 0.10625543896725724 0.8466558098949682 0.4317671097925089 0.008688778667835276 -0.1394192508471258 0.5347384399380678 -0.6559733067117097 0.26574130468646295 -0.13629801732473507 -0.25281543877096424 -0.2850521149724572 -0.12203912452836635 0.48097104928532014 0.44673757025192784 -0.16262807603062782 -0.5714725229209175 -1.0594470130261546 0.35308179061391126 0.09975894853458571 -0.9849472566359616 -0.7341924651349657 -0.0026387997060903566 0.8798968864686231 0.23747593753158852 -1.140857595544113 -1.0944399694519793 -0.02246632545541634 0.08129498423674492 -0.12966409371577617 -0.9529319668877726 -0.26922071706160766 -0.6113614843703077 -0.3193981477469715 -0.03640408145313638 -1.146734201201406 0.814993532339729 -0.364215111929229 -1.01396216403403 -0.9257133012752459 -0.351310972576109 0.18191018121184876 -0.5647403253608155 0.2822216200858383 0.38169720228869847 0.9426233667008524 -0.219168698617875 -0.30889472901508175 0.0722338285993757 -0.6918703706463689 -0.16587764302154234 -0.02876460573015411 0.16202847983788293 0.3061616850591131 0.18501822570233592 -0.5017279660290519 0.26255078490113987 0.2641801867600828 0.29623066630419576 -0.6696207990991422 0.6271617820301826 0.31149019378476617 -0.6731366571952598 -0.5295773141251063 0.21243130841661714 0.9458720084176817 -0.6678080444132654 0.006567113211527418 
-0.472833764781192 -0.9951698621714347 -0.24679659580110913 -0.1910109326814724 -0.8125171793317616 -0.051185178332427084 -0.5172187757659872 -0.9911179559329324 -0.04299042562934119 0.002739624696682874 0.8954120380093369 0.5889343870457528 0.07735042216105392 0.49442417634801816 0.18456907759618302 -0.22901551086849015 -0.6765343358424312 0.564661983655246 0.00577801539555356 0.2520432689214973 -0.12093395979520705 0.46703616611759413 0.8604957472224422 0.616209380207625 -0.533947816741351 -0.1010434760134542 0.6849928313233569 -0.9184526052037842 -0.8500646593297732 -0.1765483770686529 -0.698472599401921 0.25337681735739603 0.2295042848928457 -0.19429694640489847 -0.3433240883747757 -0.34887777793382724 -0.3321704573110442 0.015261312672575134 -0.8982347679500069 0.4340789799669993 -0.3669732529797711 -0.2656635245717116 -0.6370729642505126 -0.02784824539487407 -0.10897380610341245 0.4645103489012601 -0.6966243493568545 -0.3091744773743068 0.02892644538568745 -0.4613313797051912 0.09808681727329471 -0.03466649868511529 -0.21366386442987562 -0.47809382382090604 0.02113421128467019 0.7471868375634456 0.13343692262417894 -0.37538936749834084 -0.3114823047360342 0.07693754407506392 -0.8416709544483996 -0.14711689960967123 0.30439659521175866 0.6702461736241643 -0.687452063216814 0.6859077718670308 -0.7737821625806995 -0.6399694551185826 0.11247004370756386 0.6968356654748562 0.9943087911994208 -0.6643255297750819 -0.9943476265708622 -0.276800245185304 -0.13591930880646896 0.840978777865842 0.7849800607408335 -0.05516622051305853 -0.16593109550428053 0.2757394178186523 0.6698230917690617 -0.45828172541009593 0.1806123007174143 0.4915416567373685 -0.027767738610972703 -0.51886854273766 0.5900535047798108 0.4805614857236975 0.1275321038553867 -0.577064565750055 0.12191955785282804 0.6268685767385318 0.792497088715842 -0.26621793229393687 0.441620418609739 0.22292972523860133 0.7006247020086462 -0.8345259082805265 0.028781013452049198 -0.9502883109541571 
0.14766528358899575 0.27911679152834434 -2.534997088550304 0.45803157615907786 -3.919402925388551 -0.7426953337844504 -0.4173222820910087 -0.1276956300729031 0.5344889570672913 -0.570941804342448 -0.013931581378379979 -0.06388597947284513 -0.14748838291608096 0.18631461074444522 -4.282461355035689 -0.07820888919945237 1.2966510688754638 -0.7546654853145238 -0.5318548555483776 -0.013593502742911098 -4.846272396943221 -0.23760275923622448 -0.3496466319404467 -0.6856326387203956 0.24812641517084508 0.3503340060446655 -0.0949459301774078 -0.01811011380082088 -1.044319366311362 -0.0524835149842483 0.48460952210588615 -2.9341875358133533 -0.1461983319215249 -0.5341499313034614 0.8929829347269735 -0.6312491010198301 -1.9635549593665484 -0.31890448390922754 1.0071440491207106 0.7785273548862693 -0.4986077633557024 -0.09927569001991524 -0.8705186312397506 -0.005367753107641513 0.01767204448526525 -1.6150992468474994 -0.8188471861067946 0.6973950011005697 0.7439932573267666 0.04181132376282781 0.055788210863762434 0.1362225742552223 0.6433504857337019 0.14994761968651502 0.15484233499964822 -1.354297233442305 0.009753970012585338 -3.7902863959040882 -0.06321553604789212 -1.0713745864721291 -0.13296101701197885 0.6834924645181492 0.9058058832102693 -1.7741235725282294 -0.25249998614007496 0.45781423069385363 -0.291851522334608 -0.4916654118854882 -0.3264148730642395 -0.08439093729384244 -3.635290363540945 -0.7427813703171944 -3.751000336201781 -0.034446047862353 0.40046113943664774 -0.12309726444197315 0.25797673962982154 0.6583968902727481 -0.046006456454383206 -4.54680816351101 0.6670566089153752 -2.757676057981344 -3.3702761260126346 -0.7281290063097425 -3.1057174421773666 0.6470760420666647 -0.3783066676685751 -0.7376626533737964 0.8520420865107722 0.4711459375391152 -0.33187364401481007 0.22611494378602742 -0.17819047824799145 -1.4027712093628768 -1.561994838648821 -3.023745839677235 -0.28594290494947777 -0.7396656615196007 -0.16508725081563652 0.45158128910967765 
-0.8269384573283542 -0.6587255145695121 0.6927074259175137 0.4449228611468148 0.2294284395514652 -0.7864328915273282 0.9299002117662647 -0.56373594800957 -0.236833480839711 0.03126688686593049 0.30417023196257187 0.7616805849952977 -0.4701799004674685 0.04663185576542772 -0.6517600251630828 0.3905594442101017 -0.3928163804112448 0.47692117397335765 -0.04049625097831888 0.9983771448284671 0.6258631973427264 0.32530235968433074 0.49265066614984 0.18150583534911902 -0.39736175419747677 0.6647422755637065 -0.29512591723325143 0.8156981686208655 0.6774658397985793 -0.8704272042848269 0.15236180138205535 -0.92264528639074 -0.8337019420667418 -0.9511270059381569 0.029338767021273915 -0.13261864309122795 -0.4842890241137012 0.9077647180102177 0.8960124872574804 0.1606463496529229 0.9816720789283777 0.6371710560822748 -0.7406506588123618 0.1497514148586545 -0.8463995861228286 -0.39046052975674406 0.550687952013897 -0.03996785452610285 0.8062029000392301 -0.8425141642764782 0.6867745344490119 0.18340843715240251 -0.01460241333875456 -0.06573242533715296 -0.8941175834827877 -0.4880930882439827 0.7209631122865183 -0.5005519255476116 -0.06174354232355794 0.3473818867809091 0.30738143083959835 0.14006692192297598 0.8002016196496922 -0.5778368857715726 0.7056696295695859 -0.8729153525999225 -0.40628787798470634 -0.8139367598398679 0.292823841973042 -0.6411776632209842 0.6486167991309904 0.9983796138139172 -0.07817247982348063 -0.34242885140157786 0.5617933258315386 -0.9907709328678238 0.054003265242664744 0.862499012780491 -0.8319168417234037 0.02275749242202063 -0.41318347937663424 0.3014345684955997 0.22011649883516538 -0.39453218801937995 -0.07593292236484572 -0.7739372066201275 -0.44066515663005834 0.23611562329378977 -0.17826768948458782 -0.640481357435499 -0.1719236353749285 -0.610678030483178 -0.40844517083001675 -0.16768120578889545 0.10266947705395046 0.10325808601161524 -0.6442050972050346 0.4720245466744777 0.2200542207111691 -0.1975409435231139 
-0.6578567083862944 0.024704476121074518 -3.6226007405105585 0.9129059174772888 -4.081388819740858 0.8751829781589393 -0.870239767638159 -0.6104531268124624 0.5136942127428604 -0.2736523862528051 -0.4091468504106704 0.8436473287978054 0.06846111310218174 1.1908913498223168 -4.068964325163967 -0.005106369368547637 0.6145317288171532 0.8216170007778708 -0.7977816842399825 -0.48643826284843933 -4.992666806850961 0.20216156490467643 0.3015257398685884 0.18780595509035805 -0.9602803541857743 0.006311973666180067 0.9667953378585035 0.14123309618425803 0.10562052040997845 0.09694978332423954 -0.3489455162988725 -2.8656509198196516 -1.4363953236763622 -0.7440575205003209 1.27889349129973 -0.9712573928869324 -1.1096334842074644 0.35114000742241575 -0.25676470256216166 -0.2442591494436134 -0.8758245410901813 -1.2252524887410656 -0.837941786392576 -0.46869918342009126 -0.9345738915980119 -1.8727397884827075 -0.047670695881386546 -0.34791375018553783 -0.5871585388948336 -1.3393737755945743 0.8411606314767334 -0.23784691730088284 0.7379359085728505 -0.3383236730711053 0.1920703260440623 -0.14694048465218362 1.0369878230958516 -2.2806657200694502 0.20751460802785998 -1.9026103213871581 0.001963619506111947 -0.05601989543526389 -0.0809765377843445 -1.037185665449871 0.630334635634139 0.10580520546027036 0.7470895106000913 -1.7998021992799185 1.0562658938696772 1.0274593339507825 -3.8177722712230255 -1.0423898958687923 -1.5882535158837976 0.46187397317299694 0.1676551850497128 0.5216491704602114 -1.0495520686038038 -1.01771554889785 0.6592657026770041 -4.376417502508494 -0.9048614903263555 -3.3028686216814704 -3.8157874987170524 -1.032903301775055 -1.0878878281491116 0.06023359617847656 0.3283903460210262 -0.5074341701673006 0.230713783175948 -0.46349815483312345 0.96703361073572 0.9751215025776809 -0.07574518183289801 -1.092437364711046 -1.893611030281895 -2.4363180663515105 0.7132263694274091 0.0739913876491081 0.5398211525201831 -0.7261569270502455 
0.5439656605048339 1.0612585499827765 -1.625467775911596 0.8842089422720223 -1.8433771181012024 0.9044353861607483 -0.4449704694168075 0.8185553351223894 -0.4392079405925017 -0.13688247472531131 -0.5267706858250253 0.6622444341497511 -0.1736963548294621 -0.4909397451241334 -1.9726580663162865 0.8739557863929068 1.5935310479977083 -0.2785099650535932 -1.1571884524154958 0.30462104278812785 -3.8444508431734477 -0.7953234273247876 0.14994171235611747 -0.6698134027485553 0.018232246993104415 -0.13271289625549718 1.0317793712320924 0.22393200915604516 -0.10866210574415354 -0.3448648392783308 0.7242618193557171 -2.47728587872627 -0.0395292581216246 0.749475433700451 0.5043055680739623 -0.4066677459643733 -0.36117318967782813 -0.32948842435751163 -0.7555457661464324 0.22516321499693184 0.24947331263530587 -0.6856268276802493 -0.6939592731182035 -0.40909713353068045 -0.06107995508690794 -0.439118072486074 0.8127587863206163 0.32364643042194036 -0.7523828556891431 -1.285294052077916 -0.7959128451393792 -0.42767021703481084 0.37789513356414817 -0.409244415595819 0.7120278005994624 0.3228000793454513 0.969678542081623 -1.994788333409661 0.4856549332173143 -0.297177892827217 -0.7536752245762238 -0.7393523360197055 -0.02127935206990207 0.08640860650199031 0.13318337947832762 -0.30173915176209404 0.7630786764204782 -1.8040078139001812 -0.4286348733030983 0.6872858806216736 -1.7803949203686977 0.8639954400026859 -1.00436313136049 -0.6424622391031194 -0.5024212328716854 0.3931246545263313 -0.1026405535465311 -0.1859487433119688 -0.07337747499258135 -3.251598667935047 0.456184636429503 -2.6620253030969216 -2.9702190422805526 -1.05570920283497 -1.0362645563886144 -0.30961266685239086 -0.20644748493583195 -0.344011314930757 0.5351540155998197 -0.02177846471547062 0.5304965082129743 -0.817576558024298 -0.8475629213932009 -0.6133552771352825 -1.2225285215561525 -1.5162604657047785 -0.44466104996372746 -0.3931893540166536 0.5873231661722137 -0.24525961664441973 
-0.24900601757624186 0.5953236070553198 -0.8007104425248526 0.31986819934438193 0.23033183725881967 -0.9168058564160888 0.577849577066986 -0.21942484964716558 0.5644524085368108 0.8260446837965973 0.750721178296095 0.70853269224322 -0.26190475594004403 -0.8956502967573519 0.8263512693194448 -0.8361138488593634 -0.8587899539461956 -0.6234661738037401 0.9118848633184415 0.7177715235822177 0.9035274989092823 -0.7144617779415454 0.9881117196764393 0.5601482022761333 0.6431490266003097 0.025038984337617975 -0.7441646819625563 0.947782231863534 -0.2828934981273248 0.4564910334826071 -0.5667830089894093 -0.9982812006465873 0.8606723070742457 0.24512552990479386 -0.43627295859193715 0.27178557274620285 0.9635271372912093 0.7224810278726066 0.036911893995037914 0.45637122114930984 -0.3452779595794011 0.18500236988437968 -0.2707345843276314 -0.801072827490457 0.354698591248541 -0.09730606758639349 0.44006933928317604 -0.021656784625913472 -0.4985406990883874 0.23876716512134077 -0.872852480155552 0.768551253424322 -0.23069057109998647 0.9706754928714691 0.8400552794663787 -0.636586097687224 0.2724174177140437 0.15488293079381665 0.7033044084069995 -0.953841073974184 0.9817722570366894 -0.30783439882897445 0.8198017460483913 0.6283216781986847 -0.11705882202434181 -0.8728013986547132 -0.4552421738804151 -0.20863633005722648 -0.23663894359435877 0.15563351968521366 0.2229002259047621 0.13483522215771204 0.9417250919857199 0.8138261498631427 0.1869036220333633 0.36815630456133386 0.7383529346539075 0.3908250227112491 0.5825281953903894 0.6787905226754323 0.03426243029867693 -0.27081340887760863 -0.583965747533004 0.46779190726513353 -0.1220121834488832 0.7706349950718983 0.11202098205774358 -0.6355939278709173 0.7730181508699956 -0.04546282483853137 -0.17508654439759397 -0.28538849792871 0.01505762864308946 0.3916180219515417 -0.23509806393838395 -0.41581098877404865 0.2471376198084445 -0.3877069904202799 -0.12078536191110234 0.7251108422930519 
-0.7167388655820568 -0.8083739776773734 -0.09161490609634722 -0.07825397536016727 -1.6175142709404577 -0.9399940786189864 0.7251263075486672 0.7081463336229983 0.771884191331959 -0.6353510459891669 -0.6368070300514499 -0.6914799020317343 -0.8002223799841998 -0.7804568030402597 0.10668726075994246 -0.8889559613674828 0.5092994440548213 -0.543251539106264 -0.003109974854786545 0.15797229472013938 -0.878276662491698 0.8567422483940498 0.15324376997629924 -0.6552686235055722 0.3352764934977107 0.07899584613762649 -0.7434859463331266 0.42056966252700634 0.1317332640954182 -0.9047003571885927 -0.44326847767452277 -0.5970593275257112 0.004853210767549726 -0.4495997130252935 0.3671475352642089 -0.784806444641617 -1.1762041546389372 -0.8206442145419968 -0.5268948167080246 -0.4122949591412531 0.8577955070962302 0.9087241772532708 -0.40696057245096134 0.36533183765124655 0.15855518765800775 0.06352947469334559 -0.7583383241668691 0.8968265974471008 0.9805499927953197 -0.8630401417778404 -0.8660611236731414 -1.06546468348198 -0.9103042649471014 0.8243051320118512 -0.5691057259956261 -0.5174995080605802 -0.3826499658728876 0.49925048100305225 -0.9420214354795764 0.727349623735882 -0.33870267637939655 0.8909689931588183 -0.9395719825292138 -1.1516655557618574 -0.396833505308713 0.3352903982556701 0.4918005165963397 0.30555974425324234 -0.9372538086332125 0.29819163888558475 -0.13647409121655318 0.09848444219532035 -0.14386574094996823 -0.23191793490728668 -0.7247211837953393 0.2637336415611054 0.21500705608166332 0.05419041890686926 0.78810498846169 -0.6134880664119332 -0.6291745235842426 -1.2607459245542476 -1.5201191692598073 -0.33550135841234924 0.19430711007145626 0.889438734298177 0.4595906236245397 0.08436108565100045 -0.7304108894273134 -0.0710144991058868 0.12979060329225278 -0.07452274362998838 0.01519549718642518 -0.9462793086309241 -1.0378335841634787 -1.1904938154469844 0.985105000862708 0.8553864155705296 -0.9967861832208913 -0.9425434707478699 
0.39250011042450916 -0.3043749884533926 -0.6413213126568922 0.0852714077132426 0.8782023067239513 0.024252512273385207 0.9778352913511383 0.030097084424521636 0.46470047098067013 0.5991016577718165 0.35185619727441453 -0.15096790902533264 0.10727334704373392 0.211094974632001 0.39407905248042585 0.03468150938493464 -0.4624934258717224 -0.4481089229844275 0.9914134116683064 0.3789506053612872 -0.17917122266329089 -0.5771827284991362 -0.815655319264402 0.05918288316489195 0.2901026096459647 -0.8702525620538408 0.8917249744585225 0.5801965216774734 0.44712837397842353 0.36525605361357627 0.22630954261792557 0.05421290237558263 -0.6522538020195692 0.8813320579452131 0.6520768458718624 -0.16612418986097977 -0.027448507422765278 0.8203892093981895 0.5019479835101535 -0.39073841126086717 0.13406497565219677 0.6992631106609488 -0.295401013018302 0.7379844289004771 0.582529053392091 -0.2696623753311076 0.9616383898316141 -0.20179589242548013 -0.8536726829916783 0.4158972360896054 -0.9285001263797033 -0.8624538492724922 0.9793556996497843 0.16625434914757475 0.6139783527292701 0.5366480188401985 -0.7135012915037962 -0.9308455265669993 0.7894156019336755 0.014247726305444575 0.25969402119011 0.8774140690034042 0.8491203863893111 0.27143437587428165 0.38089708722250015 -0.21629964158121995 0.2586852228250329 0.30588365566076137 -0.26541627320540684 0.6158150171887562 0.5034405720975441 -0.6773959321342218 -0.47874075888343226 0.712796173197574 0.2753657083204144 0.22592272741348074 -0.4252316122158917 -0.06839325769972704 0.6733525960343634 0.6981429851105072 0.3600307032939558 0.986131354416423 0.003798470224722683 -0.8464906427035432 -0.3358480939158439 -0.3653453392506629 0.786079984066212 0.7018176862072538 0.9926919084916042 -0.8910504606789991 0.6475403423634021 0.6642121687816127 0.5441972548373177 -0.3824445164770123 -0.06480104318415814 0.15441444589320863 0.5599330888737597 -0.24221921972895788 0.07647111069068657 -0.22816841934962384 
